港|0.2437498369005135 -0.07312725760296572 -0.05742997921666802 0.46401156033851126 -0.03171270137448783 -0.3437572291189448 -0.14424027624254815 0.2113935576648166 0.18704263354087822 0.16832519508755797 0.1354109986023195 0.1974162215449203 0.0026288212248248262 0.22192391623155222 -0.13616211571878203 0.3206736532562617 0.35737607013867667 -0.15755821587047159 -0.2822878119469701 -0.09209312299094509
旅客|-0.09887463049197641 -0.07903217575220108 -0.053455927384990824 -0.09620929274449663 -0.037412004244900265 -0.2961919271106021 -0.255787184759442 0.5544369809623172 -0.04690747884647489 0.12213952260970107 -0.09492702165970707 -0.06200554129274969 0.3308782228730007 0.16712352305682143 -0.38288775028832106 0.18027556604079847 -0.23423045001967635 0.2702150904043891 0.1869436084208151 -0.024331069172238314
商务|-0.10357912585314943 -0.19245761284905205 -0.08619791783762194 -0.2721918182466866 0.1248152855512779 -0.23357440242495187 -0.18283095282569234 -0.23989466186999844 0.23196332927950217 0.3233466366549865 0.08791407534173894 0.47688823395277763 -0.43319168020845866 0.12759103335497946 0.2766048220317813 0.06590424645233554 -0.07738563954477613 -0.010827981187497499 -0.1490530007262218 0.05457577975083939
违章|0.15262832800873105 0.20412719217546182 0.27867728396626257 0.25479790634217003 0.0024815963368002344 0.13544655755236945 0.1933191961483105 -0.2234860578889832 -0.17453295448210246 -0.27121972517609133 -0.1137475511614864 -0.3255357653892798 0.049389655115839794 -0.3447381264587219 0.07082556355900427 -0.4677227133339258 0.32423759601120056 -0.08830737836585767 0.05087371201184034 -0.057171974027213905
期限内|-0.013060241043448793 -0.0837994227387129 -0.2673416592917149 0.2189718469118132 0.010784171266966536 0.29046378232800263 0.2572359472062868 -0.24738090189991316 -0.15425066905043414 0.0007118791418700329 -0.18835989307359577 0.4500676339493053 -0.48762687577733227 0.07552612446836313 0.04414835204541105 0.18189848858641394 -0.20659775805366845 -0.24295856003244046 -0.11422653772886664 0.08012555023504248
铁路|-0.0017523655500607499 0.15254758117514733 0.2435384212273418 -0.09146962025710557 -0.05088821725957219 -0.34138867546445606 -0.15568434896428868 0.09110665279920539 0.3101591888553119 0.007071121947028895 0.3099663479178858 -0.35111942145642966 0.2937242254989899 -0.038574499658156715 -0.12694762207014 -0.19323665817046415 0.3868239469291282 0.3722487995143973 -0.016667634724859676 0.1098369847285862
儿童票|-0.4797926192488205 0.048653471213768194 0.3208899183922045 -0.24733780360012333 0.21976933635300558 -0.1954785435807833 -0.24851795436052396 0.16038952769865555 0.274593877437219 0.20989471922970146 -0.02912559667851652 0.1324482194897309 -0.27319882386711497 0.10932268294769015 -0.17451490781714704 -0.2132944496263744 0.3169008979328415 0.14827154831733977 0.03148819400008956 -0.07415912562405379
负责|0.5502397704393794 -0.06459135910124929 0.25934914434779904 0.1316674710599265 -0.08311060950923006 -0.3084494141960899 0.0018848380147248331 -0.3550606136762325 -0.06317973063170537 0.0865660000978566 0.09388803540996583 -0.24166240501467562 0.19471196152864134 -0.17080968169454516 0.30670113638646934 -0.3100061506329448 0.0946055708273438 -0.0324899332330404 -0.12062192098290005 -0.1408234989722286
单独|-0.17595265464182186 0.13962791637579275 0.01672421209970549 0.195528440833051 -0.1256369412880405 -0.0816920781347003 0.01638137462105665 0.02943198874275263 0.4825339637650331 -0.050734833105987726 0.14391291353525099 0.2280037764700349 -0.4765153916317923 0.2975852069326414 -0.4155153959147568 0.12055450604237923 0.24792031471559814 0.05054859429969131 -0.10108741754688391 -0.04777547200264581
调整|-0.05252598332186779 -0.1152522181188719 0.2380732022206446 -0.1967774845717811 0.3452022620401769 -0.3189181474869614 -0.2865412694925531 -0.08747915926789201 -0.06821960206564125 0.4350170353044356 -0.00804102016031787 0.10563625643064539 0.12875242915511936 -0.1791889037369052 0.3692322695576276 -0.16107476128587983 0.34232911233579844 0.03050462057912327 -0.19752215686354083 0.06863136447674945
做些|0.13704838237123673 0.06072385924622571 0.06969225960535391 0.37639466671665633 -0.05510459691439899 0.20247906230786303 0.29506565994930334 -0.37595798870171193 -0.2090090463075234 -0.2525148900087985 -0.18857865797504456 0.12307416456526427 -0.43717396427839816 -0.1936638369363968 0.06047760907127493 -0.2992851446328694 0.04013566842725635 -0.2618024615563594 0.008432589697104894 -0.09122412486550606
售票|0.12281869431982646 0.01699027037349565 0.28326993084732616 0.05725440882731712 -0.001762942229388601 -0.46714124317796035 -0.13535874320893126 -0.1237331961030166 0.32522860109238333 0.04423058281249036 0.27768553286933084 -0.11860960064263575 -0.09976820319789606 -0.0269348552501392 0.1268376941915062 -0.41126515837340666 0.47036702948798625 0.16445472932259209 -0.0738586464134203 0.02630482418405287
提取|-0.322351380748138 0.02969073191214417 0.09842908330691844 -0.16828262255702758 0.3218148411934577 -0.12506412117733914 -0.29562557071056145 -0.09196957127004891 0.13706465019624173 0.34454015566912144 -0.16213999790314498 0.4629525967924449 -0.32770425860486274 -0.08603707787667562 0.07808345388732642 0.07881601929895544 0.2924202434260504 -0.1073191024037939 -0.1950973873286485 -0.04291227287603769
两地|-0.08576533174408169 -0.05161209297858537 0.025875445414234456 0.08760045802379865 0.02687362072755256 -0.29415912811342404 -0.1000580204101214 -0.08040404733131111 0.4650373418805851 0.1667310931838927 0.1923890127244725 0.3343372578872133 -0.5178946423026161 0.27494443988979 -0.007982736580606617 -0.04861464308790218 0.3240392081185349 0.026988864619521897 -0.1774712872115967 0.039908886584435505
优惠|0.14748333764627822 -0.0013660580750549588 0.23844694765636407 0.34515348183518835 0.1492427146065821 0.10923287101193598 0.22840568559210608 -0.41582053163410376 -0.2514309820958544 0.08469058956841732 -0.15196384658171855 0.12480156015181165 -0.255852497730395 -0.1916680475053389 0.21093467958059595 -0.25398851779355924 0.3128802347416501 -0.26164612869372234 -0.23484677673653043 -0.03482639618306359
残疾|-0.035508361436326345 0.02287949583963416 0.2757706001083519 0.1870217327864649 0.28437744771662266 0.01623814525290271 -0.04532916978357339 -0.2758635912838989 -0.21182552882732092 0.20339855549479716 -0.2657282193696383 0.27317735519799663 -0.25228667328455096 -0.2591298350926585 0.18387760595992259 -0.16039637073848345 0.36107071771253585 -0.3186860180263102 -0.21734788331369864 -0.16405284645189952
票款|0.11910286492961202 0.043762907370488935 0.40518148465395704 0.10333705840067256 0.05374289144775675 -0.31627979929921773 -0.06417121983397188 -0.4643863448922762 0.09278824874803054 0.21653044371330415 0.21596349830397996 0.10169249003084732 -0.15036629971312676 -0.19060967886397395 0.10794566602847473 -0.18115386141153708 0.407171505062058 0.01784945932931871 -0.3144226845784974 -0.07415044215366946
后|-0.07063007054084264 -0.08142400608123376 -0.09119557114270704 -0.024772203063587087 0.0763008301127316 0.33749939430386766 0.08232462333702031 0.16072887400801011 0.3256268008249859 -0.04086243436813622 0.37156845925735715 -0.11877058775920293 0.03875830998393097 0.3553196878727412 0.32408441463604715 0.24522566614485417 0.3304883866639609 -0.36371727933892684 -0.16867382120535498 -0.06600015198144493
专用|0.1345770590145053 -0.0585006119585357 0.11055061058184264 0.20622786532349074 -0.025943894910501863 -0.5159084480815872 -0.03878516665154958 -0.32932947178912736 0.1322600132568929 0.2124202251206391 0.06311960923698268 0.34647484773912635 -0.4303864270902643 -0.022016776982114565 -0.057509637598754756 -0.20306031172027764 0.16979991064874345 0.21272483357155136 -0.1860292565894403 0.1460333530596556
实行|-0.16939796516459033 -0.051010963284755136 0.4001471188491677 -0.10843606208661942 0.20288364961539126 -0.26820677674697513 -0.2600453046519286 -0.17552169315673002 0.14537274551370977 0.2959066813773469 -0.054960099698395236 0.27960705682296966 -0.38299822664918265 -0.01142782329610813 0.0911417796303515 -0.237799513599556 0.26051516621411525 -0.12642471320561025 -0.11426294990149005 -0.29465618954531486
品名|0.16089936934403967 0.024745608466201947 0.2406586520244678 0.3004627186990382 0.1431744495696427 -0.3236284510926399 -0.024004361511947143 -0.34152320347645854 -0.026723539043019762 0.21677270634989704 0.02995923973567284 0.18858526043785834 -0.16658003563367904 -0.22418853877439746 0.12878429075530384 -0.18870376398121913 0.5081098383089273 -0.017278632005489472 -0.3195677370033039 0.08881379091677016
损失赔偿|0.06760562887804653 0.015116381047408211 0.38645445761071257 0.22537941500476638 0.21127061422795568 -0.22024832391779112 -0.09452196478414489 -0.2361939750711257 -0.03889319775424455 0.23492106828962864 -0.19027201537536492 0.168480692152484 -0.2634131532049916 -0.14991876749860736 0.10796725546562871 -0.3246277916101961 0.4465904332362347 -0.18077485390006628 -0.1946791189975016 -0.19229378777775735
旅行|-0.060227744948179965 -0.06689324249966982 0.1702674923750958 0.04242854915198242 0.0969324263209991 -0.4090674603219518 -0.1450174687017435 -0.15004208840093794 0.3518820855665099 0.220800421031352 0.18980759830712718 0.25072003349206207 -0.41648502332672815 0.12077670283631266 0.10600535559474118 -0.24631268141173235 0.40675644682542306 0.09813743370084267 -0.17042847934310956 0.07272660473054109
中途下车|-0.0015939975870851908 -0.017089257665247812 0.22099222522716358 0.18236892193124982 0.13880606092053263 -0.4245724187812769 -0.18984357965471257 -0.17348792750055003 0.1740474526211215 0.2856491909940139 -0.060045683094296955 0.37944156105112037 -0.41422077747410957 -0.013989713924993919 -0.03216311650732749 -0.13835544137299202 0.3805259886876362 -0.027006576535870404 -0.22206747307086622 -0.07535223319050544
放行|0.06453608116912692 -0.041696048991736075 0.21632752365951116 0.25170706575053736 0.11344811219932366 -0.39993351324835674 -0.13328469487604347 -0.12566712403785124 0.25156154052234087 0.2619000374451153 0.06003370355771963 0.2722769339353002 -0.3565571413818762 0.09307064978808226 0.024496706193055613 -0.14727979178792913 0.48710903082611345 -0.05094016659936561 -0.25925513102769554 -0.05276981614711213
逾期|0.04030339673230917 -0.046796760541368033 0.23590672855384665 0.25274047988704496 0.15458127867132934 -0.4026003747195665 -0.1418972943546059 -0.1349498329820719 0.15437530025466767 0.3079253394796782 -0.035963299545738354 0.3211849163680056 -0.35958049923768787 0.041036250485024586 0.00045961855116945997 -0.15362691671672113 0.45126601446188447 -0.047394867218703896 -0.2568375375124425 -0.052801649791843513
联程|0.02837326309524841 -0.06100712414716941 0.2527058612621399 0.18700246583160543 0.14971315162935964 -0.43342865513783435 -0.18669577541041527 -0.14814926002372086 0.1766032527016553 0.30799844590691533 0.014294787397798842 0.317262518662354 -0.34968669694133103 0.02697682665302828 0.042241245534326594 -0.16136862298065555 0.42962090283916093 -0.044108566138043 -0.24312317492011365 -0.0786900174502124
牡丹|0.047160596199930585 -0.05435771331102843 0.24023031936754857 0.22429143647053784 0.14696731832839208 -0.42698568012806826 -0.17325935094165068 -0.1393362469497496 0.1702102027954503 0.3068485862619415 -0.0010152741216844462 0.31760508321674924 -0.3427244585718662 0.031706773146816754 0.02553816380724751 -0.14521538662232455 0.443077158509076 -0.05187525736914257 -0.25494380549428936 -0.0724077592272956
通票|0.033241414400474706 -0.04540136416148798 0.2578197567302536 0.19866640368076166 0.1461157842937823 -0.4395386782149122 -0.18357733057718498 -0.13590750656306405 0.18901845219359387 0.3009597756139451 0.016208579641283246 0.29359977842694135 -0.33153726583140847 0.026177477879385215 0.024020374742655014 -0.16821499672958282 0.4552029466057048 -0.027703255452056014 -0.24352069671555535 -0.06823110673379558
物品|0.046346079512625364 -0.04946314780898714 0.2525811559563021 0.21159048829186888 0.14701235481657524 -0.43171211593730924 -0.1765912516296158 -0.1478952828280201 0.17401958737950632 0.30381820726450465 0.008350975491340016 0.30323848054180547 -0.33377847935965627 0.020795453050055878 0.032783500776138993 -0.15957190868185642 0.4496060079499087 -0.04331212871508569 -0.2522168977532919 -0.07188335868990932
造成|0.04433688634628106 -0.0453440108555222 0.2549427945596778 0.20931734017945033 0.146310625817332 -0.4236435686644376 -0.17054276049299086 -0.158394677555997 0.17790492095122237 0.2976803441127283 0.01374716292371637 0.2998554663353699 -0.3391282971146964 0.01720767022656079 0.038448975123182336 -0.16538394699184644 0.45454071244525257 -0.04472976136646844 -0.253243892958077 -0.06980982264168761
买|0.033339917354503514 -0.03652363129997894 0.261475969798362 0.19725443571880616 0.14522739713866908 -0.4138184679337606 -0.16412267366845318 -0.17283210647402195 0.18865968381001744 0.286580840328771 0.0234163502889975 0.292249783065757 -0.349227420671947 0.011003316668686501 0.04352262838044514 -0.1804214405987468 0.4615126219772335 -0.038762004758211545 -0.24952854103124433 -0.06453206542389289
允许|0.03385615447906233 -0.03104227158961007 0.2652263630840246 0.19914629268772585 0.1458141843318633 -0.3949264314646126 -0.1505855898356379 -0.19401191337747256 0.18464656566228657 0.27789193120078926 0.025736572303981624 0.2897154654205953 -0.3573874119964069 0.0013565658548024301 0.05503754303011613 -0.1873245474618062 0.4666068853275241 -0.04826903988767372 -0.253865994172329 -0.06385775993651512
情况|0.02491642961824929 -0.02149251936328603 0.26989845526348083 0.19099391508481028 0.1448708540297751 -0.37507724809126675 -0.13719084659673045 -0.215750447540146 0.1904232015725907 0.2633711271198654 0.0330225741471895 0.28351271750068613 -0.37125314559565975 -0.007612385986926834 0.06462902038692912 -0.20195633567514812 0.4723998842718442 -0.04931435293223645 -0.2520954823369415 -0.058840434318468075
军人|0.023191710331527605 -0.014451135064475052 0.2725891435602304 0.1908834863984281 0.14492338035644248 -0.35017749241700424 -0.12003511630643929 -0.2403834183096872 0.18647449675298397 0.2508788091882569 0.035459003521397414 0.28007084723439046 -0.38243080314093447 -0.018424363219674104 0.07774833652228945 -0.2108777187816128 0.4758914222308795 -0.05937015104342457 -0.25486423081078596 -0.056763711558084594
超过|0.01990556374620875 -0.006217858008008353 0.2735014414578584 0.1896986120092957 0.1434981674465391 -0.3238977918614778 -0.10213459945228132 -0.26462789452629976 0.18495897469937905 0.23552384120170225 0.0393099955511741 0.27608577982597104 -0.39506743166714425 -0.028594706886175696 0.08969972801794968 -0.2197510538573515 0.4785846128860649 -0.06821134324159477 -0.25607218543129373 -0.053518069227380144
信用卡|0.01406239109132445 0.0015988921281072767 0.2766119962219825 0.18295058277181026 0.14350625093564284 -0.29910343281272445 -0.08614093411884789 -0.28775607402818604 0.18237194212500119 0.22174641661048264 0.041579421473143134 0.2700023648957639 -0.4056352203425992 -0.03983474334161113 0.10198725612358071 -0.232313143623804 0.47892412767538395 -0.07337274027191822 -0.2544556611391125 -0.04975572254651953
台|0.010044957153990947 0.008660005374426849 0.27764988040093924 0.1786284075910651 0.1426348167013969 -0.2751749372518821 -0.0706516877636747 -0.3083606245726669 0.17948794322857717 0.20820271681716118 0.04380824600910615 0.26465169225646146 -0.4146654825975516 -0.04959314368058343 0.1129223317711213 -0.241460579507785 0.47852358620735946 -0.079513129442382 -0.25343593919454555 -0.046477415590574285
上车|0.0068638729602073486 0.014211954973061441 0.2779255312647402 0.17490889455477138 0.141959770371248 -0.25451775439447766 -0.05744279397147934 -0.3256627709633948 0.17556779253673796 0.19690530171897072 0.04437018275795387 0.2606583675866965 -0.42214802008755503 -0.05815277335576968 0.12213043195498625 -0.2488255462300123 0.4764326509895581 -0.08500892781993416 -0.25210948594340743 -0.043882671205532825
哪里|0.0042460417367504244 0.01880899786757346 0.27790580858884073 0.17159047696322796 0.14123745122378487 -0.2372428064530135 -0.0465162999910077 -0.3395328602547275 0.1723009626459766 0.18735893857831545 0.044976861776156465 0.2569025753692865 -0.4277084766283048 -0.06510967894755919 0.1296477522217911 -0.2546516975749223 0.47436182344238365 -0.08938665629719876 -0.25077358478336015 -0.041660277026043344
发现|0.0021602684712803736 0.022438660387353263 0.27770810719863304 0.16877968429758655 0.14060692209329057 -0.22321762495821265 -0.0377262267859214 -0.35047067742975374 0.1694310689410791 0.17963446734267252 0.04531125427233668 0.2537674459102747 -0.43188432982768454 -0.07070021458663216 0.1356416899695674 -0.25918491367528185 0.47227072585520347 -0.09286412740280309 -0.24951262020993367 -0.03986999735349254
开车|0.0005233490700955356 0.025307237470169813 0.2774063619597991 0.16649192565482854 0.14004582543967684 -0.21190841445610148 -0.03067796678821513 -0.3590733043036257 0.16700147838156162 0.17340182660669382 0.04550670646705105 0.2511970415205734 -0.43504496728857445 -0.07515055340722275 0.14037817072013586 -0.2626710820830376 0.4703435820750624 -0.09563425257477619 -0.2484031519240304 -0.03843376120544186
身份证明|-0.0007943004914373619 0.027587825768073445 0.2771004073154105 0.16458979734436072 0.1395700118609221 -0.2028095339263183 -0.025041217144352892 -0.365854014007217 0.1649954044037114 0.1683831698944219 0.045635156864058876 0.24906594037109392 -0.4374413776068459 -0.07869827657690512 0.1441372337026246 -0.26540455766265275 0.4686560117010701 -0.09781260662071645 -0.24743611489202166 -0.03727529555519632
事故|-0.0018626419931525274 0.02942040920436271 0.2768025786774485 0.16300931050919207 0.13916769572958562 -0.19540360831533674 -0.020474079907158042 -0.37128576712469424 0.16331632611333052 0.16429996316449674 0.045705440912823164 0.24730816353406784 -0.439308703196997 -0.08156587291694321 0.14716221741411334 -0.26757747054440795 0.4671783560783157 -0.0995610099229457 -0.24660092996775904 -0.03633381777493756
越过|-0.002736689924885975 0.030910191230544375 0.27652672784966625 0.16169322262857952 0.13882569018226987 -0.18933019436526569 -0.01674216055923244 -0.37567929771879877 0.16191607571357813 0.16094954109798587 0.04574845182603303 0.24584605669121373 -0.4407817519183154 -0.08390116038642091 0.1496178446387899 -0.2693231824310633 0.46590517759538935 -0.10097690564603289 -0.24588576808474003 -0.03556153022601767
特殊|-0.003459589013984763 0.03213533087590508 0.27627697907809506 0.16058989334826157 0.13853400159837337 -0.1843012960075984 -0.01366121604610382 -0.3792753323045762 0.1607426200139584 0.1581735405154168 0.04577559547296836 0.24462083037467214 -0.44196203799978345 -0.08582286112228882 0.15163368331641996 -0.2707439020363545 0.46481066373215807 -0.10213678875402997 -0.24527324876020182 -0.03492171367269765
使|-0.004063569756079801 0.03315368884845861 0.27605350932127054 0.15965832146341702 0.138284147534252 -0.18009827015129723 -0.011092594522494953 -0.3822514344219736 0.1597532962552459 0.15585189269261948 0.0457933125561163 0.2435863942480755 -0.44292131865536083 -0.08742010668210583 0.15330611135310077 -0.2719140316731557 0.4638688225511925 -0.10309733856368636 -0.24474733537951296 -0.0343866048904428
有效期|-0.004572850015336647 0.03400841653233124 0.27585472946385065 0.1588662842694594 0.13806911889686008 -0.17655493938355163 -0.008931633614240451 -0.3847394535360596 0.1589139291644023 0.15389338239002046 0.04580530516755134 0.24270677778269675 -0.44371096433518137 -0.08876000936173829 0.15470716157962047 -0.2728882263429839 0.46305622579317207 -0.10390076862384943 -0.24429417043229665 -0.03393515118733902
期限|-0.005005819577693218 0.03473205320785512 0.2756783726019439 0.15818847020323284 0.1378831859306649 -0.1735441560583995 -0.007098694431421333 -0.386838330442545 0.15819738485509005 0.15222820845277552 0.04581375423181441 0.24195383500094356 -0.444368324263769 -0.08989349372895175 0.15589116913873363 -0.2737071336003555 0.4623527598000107 -0.10457881707602384 -0.2439021285952848 -0.0335512591988913
服务|-0.005376605198471316 0.035349439057202545 0.27552202297971906 0.15760491538751115 0.1377216802434855 -0.1709677230165782 -0.005532552163747351 -0.3886232248585276 0.15758212583483974 0.15080244150677932 0.045819970119305026 0.24130541113576784 -0.4449209951621387 -0.09085959728944028 0.1568995864802375 -0.27440139369638605 0.4617415365908172 -0.10515562888617956 -0.24356158614294837 -0.033222503910763215
处理|-0.00569619078915323 0.03587977594853951 0.2753833616263239 0.15709976789716182 0.1375807943992345 -0.1687490085080945 -0.004185612264364579 -0.39015195902232425 0.15705098968926826 0.1495739737565342 0.04582475264250768 0.24074393323850227 -0.4453896952681259 -0.09168857987680093 0.15776441927790466 -0.27499442159126647 0.46120851055337614 -0.10564980047653791 -0.24326461221797938 -0.032939188657684096
是否|-0.005999839323185631 0.036377623202781297 0.27525016426824056 0.15662527698436365 0.13744462375722488 -0.16667567677216474 -0.002928909205654509 -0.39156675836911115 0.1565682438036202 0.14842084722145002 0.04584055344179517 0.24021145761020837 -0.4458216481861579 -0.09245266925666222 0.15856492044346063 -0.27554168545843755 0.46071486568392733 -0.10610667733414475 -0.2429846589536996 -0.032672841761383416
分居|-0.006214918892358109 0.036736658064992496 0.2751508004378279 0.15627602182773792 0.13734884845277168 -0.1651538936584481 -0.0020065716001145192 -0.39261234654724136 0.15618865738367924 0.14758192654736463 0.04583201981486409 0.23982786055665709 -0.4461350655723353 -0.09302548267667558 0.1591585366553521 -0.27594573918545046 0.4603322809408918 -0.1064453663410959 -0.2427761545286694 -0.03247963210518474
座|-0.006426151520884671 0.03708433228702904 0.2750533666628645 0.15593915318437046 0.13725319626460633 -0.16369148604087683 -0.0011214047840305784 -0.3936073159984423 0.15583725347686678 0.1467710908017578 0.04583478843715781 0.2394530429999584 -0.44643329157296885 -0.09356707488314558 0.1597231306025826 -0.27632928439635257 0.459971407794139 -0.10676721077266764 -0.24257493642217348 -0.03229252341441058
票价|-0.006611713203971098 0.03738905984824703 0.2749665181610921 0.15564263117571175 0.13716861463012964 -0.16240806080435355 -0.00034516232063842243 -0.39447765746395513 0.15552870761778737 0.1460592149997189 0.045837237125059785 0.23912301927773805 -0.4466926713328972 -0.09404123343994439 0.16021739289339187 -0.27666424566929504 0.45965267694613343 -0.10704878528621584 -0.2423971412130292 -0.03212821950930393
乘降|-0.006775299177695309 0.037657147208105965 0.274888987346267 0.15538078764810948 0.13709362016684296 -0.16127769754830282 0.0003380469978779503 -0.39524197433257896 0.15525689207756116 0.14543201232086572 0.04583944510064146 0.2388315077817316 -0.4469193076981678 -0.09445792587126253 0.16065174718099437 -0.2769579792349788 0.4593704222647754 -0.10729609257647174 -0.24223962259325646 -0.031983432062660494
旅客列车|-0.006919963809950157 0.03789378513464635 0.27481967358839443 0.15514890445811527 0.13702696465439135 -0.16027898151013298 0.0009413286116155414 -0.39591552708936056 0.15501671710285844 0.1448776727577264 0.045841462816658324 0.2385732793678331 -0.4471181438588163 -0.09482535238966779 0.16103475863666042 -0.2772164993417892 0.45911986639198815 -0.10751405835056234 -0.24209973001309984 -0.03185544253518035
儿童|-0.007048252086141522 0.038103281613885355 0.2747576204934837 0.15494302663563608 0.13696759147250387 -0.15939408153853488 0.0014755772975384416 -0.39651094028793366 0.15480392668591225 0.14438635717522882 0.04584332280460367 0.23834395003620926 -0.44729322243727354 -0.095150313771846 0.16137352395266621 -0.2774447662093687 0.4588969611907384 -0.10770675873287566 -0.24197521853748932 -0.03174198573404594
使用|-0.007162300234300795 0.03828923928852555 0.274701995712191 0.1547598172745203 0.13691460114722023 -0.15860804294974018 0.0019499170327535913 -0.39703873934449274 0.1546149395303412 0.14394980915873445 0.045845046481668386 0.2381398200669119 -0.44744787883910747 -0.09543849222225788 0.16167396818658747 -0.2776469036933064 0.4586982596869458 -0.10787759303037898 -0.2418641769337559 -0.031641160515022054
验证|-0.007263913541839304 0.0384546920623186 0.27465207340402714 0.15459644387224544 0.1368672239442758 -0.1579082399007502 0.00237204079203034 -0.39750776248071784 0.1544467242927149 0.14356105432234081 0.04584664841717548 0.2379577481342409 -0.4475848872983209 -0.09569466797012233 0.1619410730625369 -0.27782636566614566 0.4585208130001028 -0.10802941636401368 -0.24176497005261263 -0.03155136062249236
上能|-0.007354627095731471 0.03860221132646735 0.27460721916288505 0.154450488633941 0.13682479790797222 -0.15728394730227438 0.00274847558592763 -0.3979254800592168 0.15429670100313334 0.14321416516122118 0.04584813902462874 0.2377950519786057 -0.44770657245053136 -0.09592288789007512 0.16217905429645885 -0.2779860644805473 0.45836208708989673 -0.10816464255304366 -0.24167619246145366 -0.03147122062219051
取票|-0.007435753677819879 0.038733989334153555 0.27456687719699613 0.1543198770402127 0.13678675118251515 -0.15672600324503413 0.003084791028347447 -0.3982982444972666 0.15416266258481162 0.1429040755634845 0.04584952621409376 0.23764942939433756 -0.44781489547603787 -0.09612659799240975 0.16239150062785476 -0.2781284712091099 0.4582198951712977 -0.10828532462309665 -0.24159663089186587 -0.03139957324939356
途中|-0.007508421820016876 0.038851905232347564 0.27453055941212295 0.15420282061124455 0.13675258765767184 -0.1562265405124153 0.003385764916541152 -0.39863148761483314 0.1540427119540145 0.14262643321756197 0.04585081642507956 0.23751889490020694 -0.44791152127713896 -0.09630874839552027 0.16258148378949547 -0.27825569451392856 0.45809234261663356 -0.1083932184266081 -0.24152523369892634 -0.031335415479267624
托运|-0.0075736063137425945 0.038957577792549346 0.27449783615238493 0.15409777066624078 0.1367218752572066 -0.15577877135738472 0.0036555157329359886 -0.3989298777956639 0.153935211253392 0.14237748125460453 0.04585201524517139 0.23740172860093717 -0.4479978713535356 -0.09647187718469764 0.1627516462210767 -0.2783695432807591 0.4579777817937392 -0.1084898333121954 -0.2414610858635501 -0.03127788131623406
报销|0.03395051716702606 -0.08017502446826895 -0.24740955341539753 -0.10341785145824982 -0.11732771465511412 -0.034819079363232766 -0.1135728401726504 0.5006763057411251 -0.10263780252159442 -0.03358928690350571 -0.04424077927814368 -0.17764431487244825 0.4609107133126648 0.15805300260559974 -0.22403453443668953 0.31090412105179843 -0.38844713373829287 0.1424505510562367 0.20319282326614818 0.006198852081845812
安检|-0.007634103425630706 0.03905585687024611 0.27446725377074355 0.15400003321681804 0.13669325301978327 -0.1553620489507948 0.003906544792862482 -0.39920746640346116 0.15383478663197364 0.14214580084695003 0.04585289230075621 0.23729264730268113 -0.4480779308610098 -0.09662383056143961 0.162909955984376 -0.2784753705478293 0.4578707936627864 -0.10857974120430222 -0.24140127874276104 -0.031224359521594785
故障|-0.0076864089556888645 0.03914046099285477 0.27444080987576397 0.15391570792881243 0.13666852626520312 -0.15500334988525416 0.004122528299631759 -0.3994459627017323 0.15374879303177336 0.14194629858351462 0.045853961319211184 0.2371985760183475 -0.44814673545460876 -0.09675422456505064 0.1630460365696694 -0.27856627645246923 0.45777876610777973 -0.1086569665694971 -0.24134969514402047 -0.03117824019685311
换取|-0.007733520522785543 0.03921661385687235 0.27441691580300204 0.1538397313231692 0.13664621908786073 -0.15468039842336279 0.004316949664976612 -0.399660502341645 0.15367138919927456 0.14176665414095804 0.04585494720949508 0.23711380554561715 -0.4482085400897083 -0.09687153542757337 0.16316847330162898 -0.27864801459071603 0.4576958028530789 -0.10872643784969949 -0.24130318030026013 -0.031136708285113477
危险品|-0.007775990954478994 0.03928522362789944 0.2743953140322783 0.15377121978349811 0.1366260804270007 -0.15438936890622892 0.004492123137300767 -0.39985368263625826 0.15360165344375346 0.14160474650989124 0.045855855491965136 0.2370373536371382 -0.4482641197956417 -0.09697717851350851 0.16327874091788275 -0.2787215853794508 0.4576209538486457 -0.10878899515517947 -0.2412612048195199 -0.031099274324393127
持|-0.00781430766068592 0.039347089557356524 0.2743757750126391 0.15370939324582358 0.1366078877773154 -0.15412689151172473 0.004650086037045216 -0.40002778557112934 0.15353877405496677 0.1414587067270768 0.045856691425801135 0.236968352815763 -0.44831415261648067 -0.0970723979981055 0.16337813589600542 -0.2787878666521756 0.4575533785204291 -0.10884537670327711 -0.2412233000463187 -0.031065506937015788
二等|-0.007848901518050342 0.039402917006103384 0.2743580938074328 0.15365356133863353 0.13659144351166097 -0.1538899899307765 0.004792636822323381 -0.4001848219121758 0.15348203430230764 0.14132688351868555 0.0458574600233228 0.23690603506284483 -0.44835923368725744 -0.0971582906786774 0.16346780125663676 -0.2788476309964478 0.4574923314911622 -0.1088962330537466 -0.2411890501705932 -0.03103502492313098
进疆|-0.007880154355199396 0.039453330066410316 0.27434208718973263 0.15360311166440083 0.13657657174836688 -0.1536760289023634 0.0049213670984581915 -0.40032656816918455 0.1534307997864623 0.1412078143634222 0.04585816605513292 0.23684971886601358 -0.4483998869403617 -0.09723582595736781 0.16354874737105682 -0.2789015602514038 0.4574371504316833 -0.10894213904124227 -0.24115808551210086 -0.031007490600226097
渡海|-0.007908405290872628 0.039498882220396506 0.27432759112117366 0.15355749984546277 0.13656311567115395 -0.15348266982920367 0.00503768866980434 -0.40045459773255987 0.1533845077258636 0.1411002010000833 0.045858814051157736 0.23679879821154645 -0.4484365748957146 -0.09730586269533295 0.16362186950631308 -0.27895025769456133 0.45738724568350714 -0.10898360382916604 -0.24113007678170004 -0.03098260416448234
饮食习惯|-0.007933956126220715 0.039540065383959086 0.27431445855793624 0.1535162410311188 0.13655093522701076 -0.1533078330533528 0.005142856510341339 -0.40057030723059267 0.15334265784234502 0.14100288859981108 0.04585940830056834 0.23675273318781512 -0.44846970689192883 -0.09736916349609002 0.16368796269131222 -0.27899425833750485 0.45734209136028964 -0.10902107942214678 -0.24110473015811285 -0.030960098894802116
中转|-0.007957075953040396 0.03957731761593493 0.2743025575365367 0.15347890262093797 0.13653990514114442 -0.15314966564973578 0.005237988356617335 -0.40067493894477835 0.15330480457495618 0.140914847976082 0.04585995285223546 0.2367110419302132 -0.4484996460416078 -0.09742640686509751 0.16374773437098458 -0.2790340376652326 0.4573012176892577 -0.10905496790694008 -0.24108178304840575 -0.030939737055439384
电话|-0.007978005108819991 0.03961102971806442 0.27429176949960443 0.15344509800514405 0.13652991319911056 -0.15300651381452282 0.005324081491060241 -0.40076959995688066 0.15327055040197293 0.1408351603254192 0.045860451516547565 0.2366732936884404 -0.44852671513668796 -0.09747819760595314 0.16380181522460868 -0.2790700190879302 0.457264204396548 -0.10908562763874824 -0.24106100042408693 -0.030921306380721107
没有|-0.007996958583951611 0.03964155090820426 0.274281987827592 0.15341448115996625 0.1365208587550476 -0.152876899098629 0.005402027176520972 -0.40085527857272935 0.15323954009148266 0.14076300408707831 0.04586090786881416 0.23663910283746342 -0.4485512016847458 -0.09752507574520614 0.16385076845342 -0.2791025803215505 0.45723067497479136 -0.10911337854906075 -0.24104217164422537 -0.030904617047267005
理解|-0.008014128970588848 0.03966919371686063 0.2742731165491531 0.15338674196323263 0.13651265143203012 -0.1527594978725831 0.005472623118688187 -0.4009328584657849 0.15321145573410214 0.1406976435838286 0.045861325254512544 0.2366081236844722 -0.4485733622234587 -0.09756752422391425 0.16389509778388786 -0.27913205887464737 0.45720029169954757 -0.1091385067164541 -0.2410251076908467 -0.030889499055964876
办理|-0.008029689019993154 0.03969423822727096 0.2742650692040983 0.15336160212243313 0.1365052099863384 -0.15265312352164304 0.005536584264012547 -0.40100313090288375 0.1531860124358616 0.1406384191691351 0.04586170679580015 0.23658004595201715 -0.44859342603034313 -0.09760597555040304 0.16393525439213424 -0.279158756782607 0.4571727512830994 -0.10916126831948236 -0.2410096387574087 -0.03087579996071324
购买|-0.008043793871575753 0.039716935761274275 0.2742577678403972 0.153338811621986 0.1364984613120836 -0.15255671095459175 0.005594552188074429 -0.40106680534949357 0.15316295457217355 0.14058473865072388 0.04586205539946686 0.23655459083565528 -0.44861159832610137 -0.09764081757479785 0.16397164291370706 -0.27918294470935817 0.45714778107347664 -0.10918189306528672 -0.24099561213749995 -0.030863382890908373
能够|-0.008056582999763966 0.039737512092974756 0.27425114212660956 0.15331814561524604 0.13649233956647855 -0.15246930308359896 0.0056471032842817575 -0.4011245187001307 0.15314205251927682 0.1405360698024865 0.04586237376581093 0.23653150755337052 -0.44862806305000696 -0.09767239851755286 0.16400462667802876 -0.2792048655120721 0.4571251357209434 -0.10920058717451314 -0.24098289037224388 -0.03085212482453174
迁移|-0.008068181920153624 0.039756170259567326 0.27424512856522815 0.15329940169753073 0.13648678539916512 -0.15239003898877632 0.005694755927965563 -0.4011768433374691 0.15312309979412175 0.14049193380688388 0.045862664398254906 0.2365105703167111 -0.4486429852729901 -0.09770103136196671 0.1640345322813413 -0.2792247373495407 0.4571045942469301 -0.10921753598776067 -0.24097134962019126 -0.030841915075514915
硬座|-0.008078703688778393 0.03977309302686545 0.2742396697941168 0.15328239750713407 0.13648174527159496 -0.15231814352841339 0.005737976761914121 -0.40122429418965727 0.15310591054474093 0.14045189949621906 0.04586292961344385 0.23649157566510715 -0.44865651330246636 -0.09772699770231541 0.16406165359350935 -0.2792427564008471 0.4570859574604991 -0.10923290624832996 -0.24096087821952544 -0.03083265396511465
未|-0.008088250223015372 0.0397884450577931 0.27423471396508947 0.15326696860961217 0.13647717085459474 -0.15225291819424766 0.005777186225831747 -0.40126733492760597 0.15309031734243592 0.14041557828221185 0.045863171551610404 0.23647434011401072 -0.4486687805238731 -0.09775055112432096 0.16408625527843632 -0.2792590992499915 0.45706904567588297 -0.10924684810702964 -0.24095137541698883 -0.030824251651865135
普通|-0.008096913468180235 0.039802374824451925 0.2742302141901968 0.1532529666275336 0.1364730184940199 -0.15219373304268305 0.005812763432855193 -0.4013063834212878 0.15307616923473655 0.14038261968065696 0.04586339218702189 0.23645869807510955 -0.44867990701645344 -0.097771920182442 0.16410857589512226 -0.2792739249831388 0.4570536966916436 -0.10925949688747363 -0.24094275024178702 -0.030816627098661915
12306|-0.008104776430179919 0.039815016298074185 0.27422612804757857 0.15324025758360696 0.13646924873587762 -0.15214001955891202 0.0058450504803082975 -0.40134181655541784 0.1530633300243925 0.14035270735226904 0.04586359333835744 0.23644450001316178 -0.4486900009747626 -0.09779131102840413 0.1641288306359223 -0.2792873770377656 0.45703976399783275 -0.10927097464427835 -0.24093492050593307 -0.03080970715882248
网站|-0.008111914091533398 0.03982649044596033 0.2742224171398343 0.15322872042985486 0.13646582590353407 -0.15209126433246534 0.005874356268672219 -0.4013739744894687 0.15305167674488535 0.14032555559268656 0.04586377667889299 0.23643161080924 -0.44869915996239673 -0.09780890973706714 0.16414721374991614 -0.2792995848369 0.4570271151824092 -0.10928139154159916 -0.24092781191517498 -0.030803425765696855
验票|-0.008118394225539314 0.039836906560176716 0.27421904669879776 0.15321824573946397 0.13646271772065954 -0.15204700344064628 0.005900959891780202 -0.40140316443419477 0.15304109830730536 0.14030090621447214 0.04586394374639898 0.23641990830454127 -0.4487074720203425 -0.09782488436882346 0.1641639006921185 -0.27931066523661197 0.45701563051225874 -0.10929084707531705 -0.24092135727689035 -0.03079772321266899
哪些|-0.008124278121230072 0.03984636343917661 0.27421598523139074 0.15320873454127235 0.1364598949744372 -0.15200681745128522 0.00592511365209262 -0.4014296640062164 0.1530314942970729 0.1402785257722001 0.04586409595267843 0.23640928200258635 -0.44871501664895125 -0.09783938680197178 0.16417905003329739 -0.2793207238107261 0.45700520166759656 -0.1092994311587653 -0.24091549579323024 -0.030792545512287616
订票|-0.00812962122998757 0.03985495044049585 0.27421320420191647 0.15320009727963896 0.13645733121429937 -0.15197032696879098 0.005947045747249781 -0.4014537242133304 0.15302277390203795 0.14025820308862477 0.04586423459269409 0.23639963191070876 -0.44872186567972455 -0.09785255436370453 0.16419280516016357 -0.2793298559932434 0.4569957306114426 -0.10930722508901299 -0.2409101724293861 -0.030787843824852074
身份证件|-0.008134473743191121 0.039862748420137456 0.2742106777467328 0.1531922528847983 0.13645500248208312 -0.15193718865802577 0.005966962667661074 -0.40147557211577806 0.15301485495605796 0.14023974704573924 0.04586436085324984 0.2363908675043338 -0.4487280840507443 -0.09786451128431514 0.16420529579151144 -0.2793381480960378 0.45698712857830853 -0.109314302408322 -0.24090533734820435 -0.030783573948116497
身份证|-0.008138881109001156 0.03986983057212237 0.27420838241774614 0.1531851279407989 0.1364528870700279 -0.15190709168943864 0.005985051339459541 -0.4014954132024347 0.15300766308432126 0.14022298460944474 0.04586447582120499 0.23638290679974963 -0.44873373049761744 -0.09787536999583542 0.1642166393323635 -0.2793456782169409 0.4569793151683331 -0.10932072967337497 -0.2409009454035289 -0.030779695860905173
回家|-0.008142884495312853 0.03987626317987797 0.2742062969516019 0.15317865593981395 0.1364509653034954 -0.15187975455642902 0.006001481042556545 -0.40151343351560365 0.15300113093852008 0.14020775906070743 0.04586458049121214 0.2363756755229418 -0.4487388581701442 -0.09788523229344508 0.16422694208519228 -0.2793525170512601 0.4569722175348754 -0.10932656714316062 -0.24089695568562602 -0.030776173314388377
学生证|-0.00814652120499979 0.03988210628960065 0.27420440206181634 0.1531727766130575 0.1364492193456793 -0.15185492222232308 0.006016405129628803 -0.40152980155361206 0.1529951975115373 0.1401939284096155 0.0458646757729775 0.23636910636365815 -0.44874351518353284 -0.0978941903755623 0.16423630033476405 -0.2793587286180257 0.4569657696550981 -0.10933186939495898 -0.24089333111288738 -0.030772973465581697
挂失|-0.00814982504878922 0.039887414314422685 0.2742026802514216 0.15316743532977242 0.13644763302190985 -0.1518323635598097 0.006029962568545013 -0.40154466997660576 0.1529898075226424 0.1401813639717679 0.04586476249804998 0.23636313830523342 -0.4487477451117961 -0.09790232777645548 0.16424480132100183 -0.2793643709107787 0.45695991167438105 -0.10933668587663714 -0.24089003806472706 -0.030770066548326216
站台票|-0.008152826680443393 0.03989223657709636 0.27420111564397753 0.1531625825568148 0.13644619166144573 -0.151811869050358 0.006042279327896576 -0.40155817713768166 0.15298491086532873 0.1401699490890047 0.045864841426150854 0.2363577160218757 -0.4487515874299695 -0.09790972020345 0.16425252411243 -0.27936949648144277 0.4569545893165206 -0.10934106140241738 -0.24088704605120614 -0.030767425577601412
免费|-0.008155553898348374 0.03989661779795105 0.2741996938310454 0.15315817337226956 0.1364448819548959 -0.15179324871514943 0.006053469622858817 -0.40157044845872625 0.15298046211090224 0.14015957797870734 0.04586491325105914 0.23635278933612283 -0.4487550779109318 -0.09791643628929123 0.16425954039118942 -0.2793741529647472 0.456949753352646 -0.10934503659838078 -0.2408843274154527 -0.030765026083532557
怎么办|-0.008158031917090993 0.03990059853425872 0.27419840173425375 0.153154167027155 0.13644369182553956 -0.15177633025142875 0.006063637037181668 -0.40158159766871016 0.15297642006145334 0.14015015469722555 0.04586497860605914 0.23634831272979823 -0.4487582489820369 -0.09792253826933449 0.16426591515980296 -0.2793783835499176 0.4569453591222943 -0.10934864830354517 -0.24088185706532367 -0.030762845871765428
直接|-0.008160283612391258 0.03990421557481094 0.27419722748171904 0.1531505265512539 0.13644261031372318 -0.15176095735980663 0.0060728755299560245 -0.40159172791394965 0.15297274734909586 0.14014159220926178 0.04586503806905631 0.23634424490453199 -0.44876113004489665 -0.0979280825888583 0.1642717073744209 -0.2793822274041025 0.4569413661033575 -0.10935192992892301 -0.24087961223184434 -0.03076086480829016
收|-0.008162329741642192 0.03990750229855009 0.27419616029370975 0.15314721839516582 0.13644162747116056 -0.15174698822047608 0.006081270352863465 -0.401600932769646 0.15296941007017698 0.14013381154034307 0.04586509216712597 0.2363405483816559 -0.4487637477654547 -0.09793312045617994 0.16427697052320914 -0.27938572005638884 0.4569377375193899 -0.10935491178604728 -0.24087757224990541 -0.030759064623535975
动物|-0.00816418914347163 0.039910488994299005 0.2741951903826211 0.15314421211022122 0.13644073426711906 -0.15173429413862669 0.006088898865144051 -0.4016092971374851 0.1529663774612531 0.14012674102288913 0.04586514138094347 0.23633718914561969 -0.4487661263323743 -0.097937698333802 0.1642817531379136 -0.27938889374055514 0.4569344399909536 -0.10935762137671626 -0.2408757183617986 -0.030757428737995782
下|-0.00816587891761154 0.03991320315219274 0.27419430885996415 0.1531414800571016 0.1364399225023585 -0.15172275830649729 0.006095831278537332 -0.40161689806626694 0.15296362160225566 0.14012031560745553 0.04586518614869348 0.23633413631843025 -0.44876828769213883 -0.09794185838724076 0.16428609926292226 -0.2793917777067777 0.4569314432162035 -0.10936008365922911 -0.2408740335384673 -0.030755942102985975
继续|-0.008167414587587477 0.039915669725838855 0.2741935076531368 0.15313899714336127 0.1364391847317742 -0.15171227469080312 0.006102131326609203 -0.40162380548872834 0.15296111715008942 0.14011447624355206 0.04586522686973402 0.23633136186671144 -0.44877025176032215 -0.09794563888812632 0.16429004887597434 -0.2793943985020346 0.45692871968382875 -0.1093623212869256 -0.2408725023183409 -0.030754591057457398
座位|-0.008168810247792526 0.03991791136943935 0.27419277942988896 0.1531367405859301 0.13643851419431474 -0.1517027470261033 0.006107856870296802 -0.4016300828879335 0.15295884109760116 0.14010916931939502 0.04586526390795229 0.23632884033656013 -0.44877203661246406 -0.09794907457877282 0.16429363826877846 -0.27939678022354564 0.4569262444131285 -0.10936435482401251 -0.2408711106614582 -0.030753363198433345
铺位|-0.008170078696529753 0.0399199486522147 0.2741921175298913 0.15313468969624836 0.13643790474953713 -0.15169408790442232 0.006113060445498897 -0.4016357878996783 0.15295677255564133 0.14010434615519357 0.04586529759484551 0.2363265486136497 -0.4487736586564998 -0.09795219700175642 0.16429690039112005 -0.2793989447478252 0.45692399471880657 -0.1093662029406707 -0.24086984581744217 -0.03075224726382253
乘坐|-0.008171231556414617 0.03992180025239358 0.27419151590272167 0.15313282568579445 0.13643735082014868 -0.15168621795154427 0.0061177897584895535 -0.40164097285732187 0.15295489255591235 0.14009996254464613 0.04586532823234623 0.2363244657060845 -0.4487751327886119 -0.09795503479800627 0.16429986516211081 -0.27940091193780453 0.456921949998045 -0.10936788258951909 -0.2408686962059628 -0.0307512330263773
进站|-0.008172279383381966 0.0399234831327908 0.27419096905164997 0.15313113148999988 0.1364368473399541 -0.1516790650814157 0.006122088134318157 -0.401645685284772 0.152953183872543 0.14009597833988938 0.0458653560954114 0.23632257254777225 -0.44877647253417086 -0.09795761397653832 0.1643025597518445 -0.27940269983020766 0.4569200915376768 -0.10936940916528885 -0.24086765130846857 -0.030750311197697902
获取|-0.008173231765412285 0.039925012699783304 0.27419047198266777 0.15312959160875758 0.13643638970668345 -0.1516725638209911 0.006125994922815522 -0.4016499683427434 0.15295163086054653 0.14009235707563894 0.04586538143439302 0.23632085182031362 -0.4487776901752497 -0.09795995815862983 0.16430500883637514 -0.2794043248051394 0.45691840233949943 -0.10937079664936533 -0.2408667015700912 -0.030749473341298413
人身|-0.00817409741197671 0.03992640294730533 0.2741900201582621 0.15312819196191182 0.1364359737392326 -0.1516666546986527 0.006129545866345257 -0.4016538612328707 0.15295021930951164 0.14008906562870477 0.045865404477207376 0.23631928779161251 -0.4487787968660411 -0.0979620887989402 0.16430723482863266 -0.2794058017396328 0.4569168669619751 -0.1093720577406814 -0.24086583831074246 -0.030748711793852013
学生票|-0.008174884235098039 0.03992766658731717 0.2741896094554822 0.15312691975828394 0.1364355956388921 -0.1516612836900408 0.006132773433013101 -0.40165739956378366 0.152948936311046 0.14008607390945355 0.045865425431318746 0.23631786616959646 -0.44877980273736523 -0.09796402538582294 0.16430925808761568 -0.27940714414672513 0.4569154713767373 -0.10937320397429134 -0.24086505364451774 -0.03074801959382384
检票|-0.008175599422834037 0.039928815168053224 0.27418923612789414 0.15312576337693304 0.136435251954185 -0.15165640171575853 0.006135707118668327 -0.401660615682828 0.15294777013864275 0.14008335458214063 0.04586544448555232 0.23631657396959382 -0.44878071699133165 -0.09796578562284429 0.16431109710796496 -0.27940836430146454 0.456914202838487 -0.10937424582881895 -0.24086434040661323 -0.030747390416779784
我该|-0.008176249505908381 0.03992985918122321 0.27418889677105596 0.15312471225948374 0.1364349395489709 -0.15165196418597568 0.0061383737206942264 -0.40166353897674606 0.15294671013877661 0.14008088281134468 0.04586546181175044 0.23631539939406768 -0.4487815479871133 -0.09796738559331898 0.16431276869180628 -0.2794094733551141 0.4569130497670015 -0.10937519282385201 -0.24086369208704175 -0.03074681851673185
要|-0.008176840418142112 0.03993080815922268 0.27418858829118353 0.15312375681246543 0.13643465557350692 -0.1516479305874503 0.006140797586284213 -0.40166619614428956 0.15294574663215418 0.14007863603201184 0.04586547756628478 0.23631433172352706 -0.4487823033186866 -0.09796883990949032 0.16431428810456047 -0.2794104814386827 0.4569120016401032 -0.1093760536082464 -0.24086310277049994 -0.03074629867294383
可以|0.0332053952441425 -0.07893103935713394 -0.24873254529623628 -0.10525452693418916 -0.11816112398787192 -0.028420391492170904 -0.11001869467768492 0.4979676759219039 -0.10474197238588963 -0.03730280429032585 -0.04450361729889954 -0.1799212929153448 0.461268857133352 0.1560981120607994 -0.22228990472297094 0.310293389999537 -0.3915447568213112 0.14149559848997575 0.20482271647821246 0.0070406236561147756
时间|-0.008177377717900844 0.03993167105836738 0.2741883077809283 0.15312288802863117 0.13643439735270724 -0.1516442628376436 0.006143001605713676 -0.40166861230103773 0.1529448704779852 0.14007659303862854 0.045865491867202526 0.2363133608900533 -0.4487829901167803 -0.09797016233470722 0.1643156697037122 -0.27941139808013443 0.4569110485452008 -0.1093768363201818 -0.2408625668967468 -0.0307458259817657
差额|-0.008177865943772126 0.03993245510983139 0.27418805289250403 0.15312209861487364 0.13643416271835979 -0.15164093024027872 0.006145004217289025 -0.4016708076314643 0.15294407443464034 0.14007473672106213 0.045865504896427045 0.23631247875167954 -0.44878361414863527 -0.0979713638780833 0.16431692503653342 -0.27941223094275675 0.4569101825546772 -0.10937754749360656 -0.24086207998193604 -0.03074539647895186
推出|-0.008178309746915996 0.03993316781746762 0.27418782118931284 0.15312138102652695 0.1364339494297579 -0.15163790088200585 0.006146824604316154 -0.4016728031880349 0.15294335082727423 0.1400730493108482 0.04586551674279162 0.23631167687397436 -0.44878418138627807 -0.0979724560826851 0.16431806613698555 -0.27941298801207165 0.45690939535342134 -0.10937819395092645 -0.24086163736619112 -0.03074500605653019
进行|-0.008178713172457603 0.039933815678612754 0.27418761056125296 0.153120728723499 0.13643375554371417 -0.15163514714776177 0.00614847936200082 -0.4016746171664553 0.15294269305892094 0.14007151542651622 0.04586552751354891 0.23631094794900623 -0.4487846970039412 -0.09797344890707856 0.16431910340914008 -0.2794136761920162 0.4569086797678592 -0.10937878158653315 -0.24086123501640666 -0.030744651155715452
条件|-0.008179079896620539 0.03993440459793315 0.27418741909045835 0.15312013576207695 0.1364335792941573 -0.1516326439412583 0.006149983571798118 -0.40167626610229334 0.15294209513440138 0.1400701210894713 0.04586553730624989 0.23631028533519963 -0.44878516570354077 -0.09797435140126137 0.16432004630788968 -0.279414301756528 0.4569080292784554 -0.10937931575703505 -0.2408608692671509 -0.03074432854229434
自动|-0.008179413260465387 0.039934939941651995 0.2741872450337523 0.15311959674039344 0.13643341907595039 -0.1516303684545582 0.006151350939911514 -0.4016777650229397 0.15294155160525705 0.14006885359566815 0.045865546209617414 0.2363096829964098 -0.4487855917579488 -0.09797517178982376 0.16432090342581995 -0.27941487040722957 0.45690743795992533 -0.1093798013304816 -0.24086053678706218 -0.030744035276937136
手续|-0.008179716300526026 0.0399354265867863 0.27418708680670756 0.1531191067489061 0.13643327343019404 -0.15162829995884988 0.006152593923047157 -0.40167912758557406 0.15294105751975218 0.1400677013990881 0.04586555430434179 0.23630913544659699 -0.44878597905027606 -0.09797591754745118 0.1643216825720825 -0.2794153873257972 0.45690690042694004 -0.10938024273105502 -0.2408602345483316 -0.03074376868824009
需|-0.00817999177663178 0.03993586896585774 0.27418694296916624 0.15311866132542412 0.13643314103087725 -0.15162641961444945 0.0061537238426088514 -0.40168036620243897 0.15294060837747253 0.14006665400592308 0.04586556166380525 0.2363086376995795 -0.44878633110953275 -0.09797659546748215 0.1643223908440139 -0.2794158572215095 0.45690641178481584 -0.10938064397965062 -0.2408599597989853 -0.030743526348244354
窗口|-0.008180242197176342 0.039936271107497694 0.2741868122120845 0.1531182564142615 0.13643302067275118 -0.1516247102982477 0.006154750988406666 -0.4016814921546028 0.15294020008809386 0.14006570187847345 0.045865568354741634 0.2363081852233969 -0.44878665114301036 -0.09797721172416693 0.16432303469217516 -0.27941628437442495 0.45690596758472346 -0.10938100873072834 -0.24085971003770795 -0.030743306050202215
包裹|-0.008180469842069688 0.03993663667332669 0.2741866933455799 0.15311788832913378 0.1364329112603134 -0.15162315644698426 0.006155684712850711 -0.4016825156952776 0.15293982893393432 0.14006483634785968 0.045865574437836766 0.2363077738988546 -0.44878694206568365 -0.09797777192921071 0.16432361997942052 -0.27941667267459347 0.4569055637830029 -0.10938134030578123 -0.2408594829909726 -0.03074310578838225
华侨|-0.008180676783587136 0.03993696899145302 0.27418658528807127 0.15311755371945437 0.13643281179779995 -0.15162174391488703 0.006156533516510188 -0.40168344614366114 0.1529394915359397 0.14006404953473373 0.045865579968275096 0.23630739998186656 -0.44878720652691484 -0.09797828118313125 0.16432415203455014 -0.27941702565767035 0.45690519670420277 -0.10938164172373437 -0.24085927659226342 -0.030742923739725186
帮别人|-0.008180864905309485 0.03993727108690284 0.27418648705641074 0.15311724953971556 0.13643272138009271 -0.15162045984435024 0.006157305125835114 -0.4016842919701781 0.15293918482278507 0.14006333427725137 0.04586558499623712 0.23630706006924396 -0.4487874469347076 -0.09797874412190966 0.16432463570104566 -0.2794173465372648 0.4569048630075023 -0.10938191572855757 -0.2408590889632003 -0.03074275824717954
计算|-0.008181035919330181 0.03993754570926453 0.274186397756916 0.15311697302167068 0.13643263918445747 -0.15161929254844847 0.00615800656376351 -0.401685060873914 0.15293890600280527 0.14006268406563624 0.045865589567352046 0.2363067510676129 -0.44878766547773596 -0.09797916495936915 0.16432507538134322 -0.27941763823432497 0.45690455965620386 -0.10938216481434956 -0.2408589183963882 -0.03074260780456217
规定|-0.008181191381888959 0.03993779535780409 0.2741863165772225 0.15311672164905965 0.1364325644630374 -0.1516182314041973 0.0061586442138693515 -0.4016857598529631 0.15293865253849337 0.14006209298272904 0.045865593723109735 0.23630647016517464 -0.44878786414535676 -0.09797954752567553 0.16432547507705533 -0.279417903403833 0.45690428389001353 -0.10938239124812627 -0.24085876333983444 -0.030742471042803567
原因|-0.008181332707576629 0.03993802230428423 0.27418624277887726 0.15311649313464423 0.13643249653603115 -0.15161726675557236 0.006159223878645456 -0.40168639526834155 0.15293842212333103 0.14006155564997064 0.04586559750123545 0.23630621480604483 -0.44878804474578954 -0.09797989530231628 0.16432583842551357 -0.27941814445905744 0.4569040331998547 -0.10938259709052485 -0.24085862238278918 -0.03074234671745029
变更|-0.008181461182242214 0.0399382286136981 0.2741861756906098 0.1531162853993409 0.1364324347854945 -0.15161638982538933 0.006159750832460363 -0.4016869729020576 0.15293821266073654 0.14006106717832129 0.045865600936030884 0.23630598266693761 -0.4487882089226336 -0.09798021145388218 0.1643261687329718 -0.27941836359358857 0.4569038053049812 -0.10938278421461523 -0.2408584942428788 -0.030742233697309367
香烟|-0.008181577974721518 0.03993841616310912 0.2741861147022157 0.15311609655325867 0.1364323786497067 -0.1516155926352326 0.006160229869678122 -0.4016874980098761 0.15293802224493552 0.1400606231236617 0.04586560405868436 0.2363057716359772 -0.4487883581698741 -0.09798049885694514 0.1643264690047754 -0.27941856280135924 0.45690359813217934 -0.10938295432299269 -0.24085837775441302 -0.030742130954129518
青藏|-0.008181684147495141 0.03993858665877086 0.2741860592589979 0.1531159248784677 0.13643232761805146 -0.1516148679326934 0.006160665348384734 -0.40168797536926354 0.15293784914357866 0.14006021944626515 0.045865606897552924 0.23630557979344438 -0.44878849384551783 -0.09798076012629885 0.16432674197277572 -0.27941874389483723 0.4569034097968684 -0.10938310896330955 -0.24085827185775974 -0.030742037553224483
终了|-0.008181780666374048 0.03993874165168422 0.27418600885671457 0.15311576881333994 0.1364322812263641 -0.15161420912524845 0.006161061230123878 -0.40168840932295796 0.15293769178194572 0.14005985247396865 0.04586560947841916 0.23630540539427788 -0.4487886171839825 -0.09798099763880394 0.16432699012024174 -0.2794189085215567 0.45690323858592435 -0.10938324954238884 -0.24085817558968797 -0.03074195264495188
第几|-0.008181868409301707 0.03993888255173549 0.27418596303698767 0.15311562693831807 0.13643223905270335 -0.15161361022017036 0.006161421116007447 -0.4016888038185604 0.1529375487285909 0.14005951886870313 0.045865611824724505 0.23630524685217288 -0.44878872930735586 -0.09798121355505729 0.164327215704499 -0.2794190581791407 0.45690308294207044 -0.10938337733905037 -0.24085808807459236 -0.030741875456969377
残疾人|-0.008181948174353556 0.03993901064054475 0.2741859213831289 0.1531154979629816 0.13643220071350792 -0.15161306576991807 0.00616174827953266 -0.4016891624445163 0.1529374186822973 0.14005921559607565 0.0458656139577817 0.2363051027251283 -0.44878883123562613 -0.09798140983908454 0.164327420777503 -0.27941919422895245 0.45690294144968957 -0.10938349351576626 -0.2408580085165162 -0.030741805287197006
导盲犬|-0.008182020687007312 0.03993912708314293 0.274185883516347 0.1531153807142923 0.136432165860104 -0.15161257082250645 0.006162045696407037 -0.40168948846281527 0.15293730046022108 0.14005893989772558 0.04586561589696784 0.23630497170231254 -0.4487889238959801 -0.09798158827623678 0.16432760720453685 -0.27941931790850255 0.45690281282193174 -0.109383599129254 -0.24085793619190293 -0.03074174149742113
支付|-0.008182086606750622 0.03993923293858438 0.2741858490922992 0.1531152741259108 0.13643213417553027 -0.15161212087639928 0.006162316071654739 -0.40168978483870926 0.15293719298711628 0.14005868926619938 0.04586561765990008 0.2363048525921247 -0.44878900813125233 -0.0979817504894558 0.16432777668120419 -0.2794194303427244 0.4569026958889942 -0.10938369514010365 -0.2408578704430071 -0.030741683507481295
注意|-0.008182146533086684 0.03993932916959233 0.27418581779795786 0.15311517722848625 0.13643210537165237 -0.15161171183951264 0.006162561864252694 -0.4016900542677221 0.15293709528554159 0.14005846142211567 0.045865619262595296 0.2363047443113447 -0.4487890847076046 -0.09798189795405665 0.16432793074887342 -0.27941953255422114 0.45690258958747065 -0.10938378242152734 -0.2408578106719054 -0.030741630789986804
中铁|-0.008182201029494105 0.039939416686283306 0.2741857893377418 0.15311508910384897 0.13643207917817848 -0.15161133983186725 0.006162785406469125 -0.4016902993128899 0.15293700641249156 0.14005825420828943 0.045865620707836174 0.23630464583742533 -0.4487891543505606 -0.09798203207863536 0.16432807087290693 -0.2794196255160988 0.45690249289919643 -0.10938386180395435 -0.24085775631078488 -0.030741582846488473
收款|-0.008182250536173495 0.03993949617989804 0.2741857634858503 0.15311500906131503 0.13643205538195236 -0.15161100194962726 0.006162988441009976 -0.40169052186539256 0.1529369257227869 0.1400580659951276 0.04586562204401338 0.23630455638816014 -0.4487892176065301 -0.09798215388098487 0.1643281981354705 -0.2794197099435239 0.45690240509900404 -0.10938393389962431 -0.24085770693795863 -0.030741539297944598
时|-0.008182295558391235 0.03993956847739334 0.27418573997441775 0.15311493626293166 0.1364320337417011 -0.1516106946436556 0.006163173102808743 -0.401690724284568 0.1529368523205131 0.14005789481770145 0.045865623248204535 0.2363044750374899 -0.448789275137277 -0.09798226466961471 0.16432831388496133 -0.27941978673383155 0.4569023252352709 -0.10938399947324691 -0.24085766203222228 -0.030741499691704526
符合|-0.00818233648735201 0.039939634201823906 0.27418571860050356 0.1531148700830982 0.13643201406887603 -0.15161041527693633 0.006163340975733662 -0.40169090830031257 0.1529367855917553 0.14005773920314618 0.04586562434293754 0.23630440108289896 -0.4487893274374112 -0.09798236538563573 0.16432841911082494 -0.27941985654253393 0.4569022526324121 -0.10938405908508674 -0.24085762120911566 -0.03074146368632685
退票|-0.00818237369522703 0.03993969395083917 0.274185699169768 0.15311480992003892 0.13643199618459761 -0.15161016130913033 0.006163493586295507 -0.4016910755859581 0.15293672492972937 0.14005759773643206 0.04586562533816076 0.2363043338519188 -0.44878937498253757 -0.0979824569448985 0.164328514769919 -0.27941992000443866 0.4569021866302555 -0.10938411327721854 -0.24085758409744043 -0.030741430954409222
保价|-0.008182407520343878 0.039939748267739765 0.27418568150554173 0.15311475522670046 0.1364319799262519 -0.151609930430909 0.006163632322188032 -0.4016912276626652 0.15293666978283063 0.1400574691312071 0.04586562624291855 0.23630427273323107 -0.44878941820500756 -0.09798254017996685 0.16432860173208552 -0.27941997769662297 0.45690212662866025 -0.10938416254242114 -0.24085755035975187 -0.03074140119832203
携带|-0.008182438270264917 0.039939797646421304 0.27418566544721945 0.1531147055057744 0.13643196514601139 -0.15160972054294108 0.006163758444915232 -0.4016913659132643 0.1529366196496149 0.14005735221809254 0.04586562706543342 0.23630421717110608 -0.44878945749785465 -0.0979826158476942 0.16432868078806648 -0.2794200301436862 0.4569020720820575 -0.10938420732866173 -0.2408575196892897 -0.030741374147500264
损失|-0.00818246622458554 0.03993984253586814 0.27418565084879853 0.15311466030517282 0.13643195170949007 -0.15160952973679181 0.006163873101269334 -0.40169149159483986 0.1529365740742358 0.14005724593404312 0.04586562781318065 0.23630416666034643 -0.4487894932183705 -0.09798268463611033 0.16432875265669875 -0.2794200778225229 0.4569020224944865 -0.10938424804317198 -0.24085749180718666 -0.030741349555981776
轮椅|-0.008182491637477808 0.039939883344238286 0.2741856375775512 0.1531146192139154 0.13643193949452104 -0.1516093562775606 0.00616397733376429 -0.401691605850167 0.1529365326422974 0.14005714931267607 0.04586562849295617 0.23630412074169144 -0.44878952569135677 -0.09798274717068127 0.16432881799145413 -0.27942012116666237 0.45690197741508265 -0.10938428505615326 -0.24085746645993214 -0.03074132720016965
临时|-0.00818251474000261 0.03993992044257654 0.2741856255128177 0.15311458185839094 0.13643192839004536 -0.15160919858809782 0.006164072090119845 -0.4016917097181084 0.15293649497708434 0.14005706147547964 0.045865629110938284 0.2363040789976394 -0.44878955521207986 -0.0979828040199996 0.16432887738638485 -0.2794201605702127 0.456901936433977 -0.1093843187041446 -0.24085744341706597 -0.030741306876798116
软席|-0.00818277012646059 0.03994029503747238 0.2741855035057716 0.15311419563842016 0.13643181261174742 -0.15160762852388107 0.006165010197535954 -0.4016927178633063 0.15293617492129824 0.140056179277058 0.04586567304153122 0.2363036517145705 -0.4487898576498509 -0.09798333315625991 0.1643294576548342 -0.2794205456340685 0.45690155557139595 -0.10938464250283893 -0.24085721310926342 -0.03074109943973677
异地|-0.008182556771936573 0.03993998764448744 0.2741856036565409 0.153114514115941 0.13643190824459012 -0.15160891312429287 0.006164243582438125 -0.4016918975340133 0.15293642724642495 0.1400569024015097 0.0458656305419365 0.23630400333242313 -0.44878960872344453 -0.09798290662880414 0.16432898481663374 -0.2794202318420016 0.45690186247081094 -0.10938437952399893 -0.24085740169548941 -0.030741270043558432
改签|-0.008182574129041073 0.03994001551673721 0.2741855945921776 0.15311448605043393 0.1364318999016944 -0.15160879465102078 0.006164314773580229 -0.40169197557069164 0.1529363989482721 0.14005683640875657 0.04586563100623826 0.23630397196977193 -0.4487896309025181 -0.09798294934008615 0.1643290294404529 -0.2794202614461347 0.45690183168134924 -0.10938440480396162 -0.24085738438317966 -0.030741254774453972
需要|-0.00818258990817534 0.03994004085505698 0.2741855863518662 0.1531144605364182 0.13643189231726457 -0.15160868694841684 0.006164379492573377 -0.4016920465128608 0.15293637322277115 0.14005677641554803 0.045865631428333234 0.23630394345836037 -0.44878965106522745 -0.0979829881683799 0.16432907000741218 -0.27942028835887806 0.45690180369101513 -0.10938442778566014 -0.2408573686447626 -0.030741240893496554
站|-0.008182604252800178 0.03994006388981951 0.2741855788606895 0.15311443734192579 0.1364318854223457 -0.15160858903726504 0.006164438327834135 -0.40169211100552227 0.15293634983602855 0.14005672187643556 0.04586563181205799 0.23630391753896926 -0.4487896693948929 -0.09798302346670942 0.1643291068863429 -0.27942031282492175 0.4569017782453276 -0.10938444867804249 -0.240857354337149 -0.030741228274482894
前|-0.008182617293332937 0.03994008483045186 0.2741855720505418 0.15311441625607938 0.13643187915425187 -0.1516085000273802 0.00616449181427982 -0.4016921696350331 0.1529363285754166 0.14005667229556312 0.04586563216090036 0.2363038939759476 -0.4487896860581671 -0.09798305555600124 0.16432914041254174 -0.27942033506670805 0.4569017551129428 -0.10938446767105879 -0.24085734133025918 -0.030741216802684136
押运|-0.008182629148333568 0.039940103867340065 0.274185565859509 0.15311439708717411 0.13643187345599656 -0.15160841910951228 0.006164540438193248 -0.40169222293443846 0.15293630924763976 0.14005662722215761 0.04586563247803118 0.23630387255506924 -0.4487897012065502 -0.09798308472800317 0.16432917089082014 -0.27942035528645454 0.4569017340835505 -0.10938448493738882 -0.24085732950584007 -0.0307412063738025
一等|-0.008182639925582779 0.039940121173560515 0.2741855602313061 0.1531143796609347 0.13643186827577417 -0.15160834554798705 0.006164584641645037 -0.40169227138831937 0.15293629167697675 0.14005658624642922 0.04586563276633307 0.23630385308158522 -0.448789714977768 -0.09798311124793752 0.16432919859827647 -0.2794203736679933 0.456901714965961 -0.10938450063401252 -0.24085731875638966 -0.03074119689302276
减价|-0.008182649723062152 0.03994013690645384 0.27418555511476533 0.15311436381893023 0.13643186356648915 -0.15160827867401613 0.006164624826513714 -0.4016923154371996 0.15293627570368237 0.14005654899584546 0.04586563302842667 0.23630383537845243 -0.4487897274970241 -0.0979831353569131 0.16432922378681564 -0.2794203903784427 0.4569016975863672 -0.10938451490363736 -0.24085730898417998 -0.030741188274150056
软座|-0.008182658629845125 0.03994015120905574 0.2741855504633706 0.15311434941713403 0.13643185928532767 -0.15160821787961526 0.006164661358140202 -0.4016923554815516 0.15293626118253517 0.14005651513174328 0.04586563326669434 0.23630381928472385 -0.44878973887813894 -0.09798315727411756 0.16432924668544013 -0.27942040556972686 0.4569016817867636 -0.10938452787599624 -0.24085730010036768 -0.030741180438826093
行李|-0.008182666726906958 0.03994016421139764 0.27418554623483493 0.1531143363246135 0.13643185539336813 -0.15160816261207566 0.006164694568649973 -0.4016923918854378 0.1529362479815166 0.14005648434624937 0.04586563348330198 0.2363038046540851 -0.44878974922458464 -0.0979831771988109 0.16432926750233223 -0.27942041937995754 0.45690166742351035 -0.1093845396690272 -0.2408572920241869 -0.0307411733158166
承担责任|-0.008182674087861021 0.039940176031689076 0.27418554239071563 0.15311432442233985 0.13643185185522766 -0.1516081123689385 0.006164724759973107 -0.40169242497982216 0.15293623598061074 0.1400564563594809 0.045865633680218544 0.23630379135352386 -0.44878975863042586 -0.09798319531213703 0.16432928642674716 -0.27942043193468996 0.45690165436602587 -0.10938455038994577 -0.24085728468221443 -0.03074116684036356
号|-0.008182680779628157 0.039940186777392535 0.2741855388960651 0.15311431360210576 0.1364318486387401 -0.15160806669342594 0.006164752206589683 -0.40169245506557827 0.15293622507071297 0.14005643091700076 0.04586563385923405 0.23630377926212073 -0.4487897671811754 -0.09798321177877119 0.16432930363073395 -0.2794204433480642 0.4569016424956009 -0.10938456013621996 -0.24085727800770237 -0.030741160953596466
盲人|-0.008182686863045146 0.03994019654620061 0.2741855357191129 0.15311430376554142 0.13643184571466357 -0.1516080251702878 0.006164777158025563 -0.40169248241622624 0.15293621515263783 0.14005640778750358 0.04586563402197579 0.23630376826994925 -0.4487897749545714 -0.0979832267484171 0.1643293192706998 -0.2794204537238434 0.4569016317043182 -0.10938456899645649 -0.24085727193997103 -0.030741155601996934
优待|-0.008182692393417885 0.039940205426924294 0.27418553283097685 0.15311429482322025 0.1364318430564148 -0.1516079874220259 0.006164799841121215 -0.401692507280419 0.15293620613621728 0.140056386760713 0.045865634169923127 0.23630375827707714 -0.4487897820212845 -0.09798324035716838 0.16432933348883222 -0.279420463156357 0.4569016218940717 -0.10938457705120644 -0.24085726642385732 -0.03074115073691219
学校|-0.00818269742102422 0.03994021350030041 0.2741855302054006 0.15311428669384564 0.13643184063982705 -0.15160795310546185 0.0061648204620942185 -0.4016925298842037 0.1529361979394807 0.14005636764546944 0.04586563430442096 0.23630374919265706 -0.4487897884455606 -0.09798325272874578 0.16432934641439204 -0.27942047173135875 0.4569016129756745 -0.10938458437369768 -0.24085726140921315 -0.0307411463141126
重量|-0.008182701991571105 0.039940220839725774 0.2741855278185146 0.15311427930351193 0.13643183844293091 -0.15160792190861652 0.006164839208414275 -0.4016925504330765 0.15293619048790977 0.14005635026799235 0.04586563442669192 0.23630374093410078 -0.44878979428580446 -0.09798326397562225 0.16432935816488842 -0.279420479526806 0.4569016048680479 -0.1093845910305007 -0.24085725685044967 -0.030741142293389617
承运人|-0.008182706146610144 0.039940227511924456 0.27418552564861953 0.15311427258503235 0.13643183644575405 -0.1516078935478737 0.006164856250507677 -0.40169256911385154 0.15293618371376075 0.14005633447030003 0.04586563453784751 0.2363037334263286 -0.4487897995951111 -0.09798327420004534 0.16432936884714755 -0.27942048661356905 0.45690159749748405 -0.10938459708213387 -0.2408572527061224 -0.030741138638190137
软卧|-0.008182709923915402 0.03994023357755452 0.27418552367598875 0.15311426647732837 0.1364318346301399 -0.15160786776540153 0.006164871743306856 -0.40169258609635905 0.15293617755544878 0.14005632010877317 0.04586563463889818 0.2363037266010863 -0.44878980442174865 -0.09798328349496713 0.16432937855828367 -0.2794204930560749 0.45690159079697645 -0.10938460258361365 -0.24085724893855479 -0.030741135315284197
查询|-0.008182713357826827 0.03994023909175945 0.2741855218826889 0.15311426092487404 0.13643183297958258 -0.15160784432680802 0.006164885827658998 -0.4016926015349896 0.15293617195698772 0.1400563070528493 0.04586563473076256 0.23630372039632477 -0.4487898088095971 -0.09798329194488924 0.16432938738658215 -0.27942049891289333 0.45690158470561 -0.10938460758495484 -0.24085724551349552 -0.030741132294462813
退票费|-0.008182716479562466 0.039940244104669544 0.2741855202524171 0.15311425587719152 0.13643183147907678 -0.1516078230190102 0.006164898631606608 -0.401692615570098 0.15293616686748132 0.14005629518383558 0.04586563481427572 0.23630371475563608 -0.44878981279854674 -0.09798329962663095 0.16432939541230226 -0.2794205042372697 0.4569015791680075 -0.10938461213162534 -0.24085724239980716 -0.03074112954826339
准时|-0.008182719317502283 0.039940248661857636 0.27418551877035235 0.15311425128839176 0.1364318301149812 -0.1516078036482969 0.006164910271551638 -0.40169262832927877 0.15293616224066023 0.14005628439382967 0.045865634890196835 0.23630370962774 -0.44878981642486193 -0.09798330661002777 0.16432940270840654 -0.27942050907760835 0.4569015741338261 -0.10938461626495931 -0.24085723956918278 -0.030741127051719958
澳|-0.008182721897446194 0.039940252804753544 0.27418551742302144 0.1531142471167579 0.13643182887489488 -0.15160778603856745 0.006164920853313783 -0.401692639928527 0.15293615803446178 0.14005627458473888 0.04586563495921613 0.2363037049660188 -0.44878981972150983 -0.09798331295856656 0.16432940934122467 -0.27942051347791363 0.45690156955729977 -0.1093846200225334 -0.2408572369958893 -0.030741124782136267
餐食|-0.008182724242848605 0.039940256571020565 0.27418551619817544 0.15311424332436527 0.13643182774754423 -0.15160777002973075 0.006164930473092536 -0.4016926504732923 0.15293615421064707 0.14005626566738805 0.045865635021960977 0.2363037007280924 -0.4487898227184605 -0.09798331872996222 0.1643294153710561 -0.2794205174781887 0.45690156539682336 -0.10938462343850794 -0.24085723465653242 -0.030741122718879403
运输|-0.008182726375031675 0.039940259994898065 0.2741855150846795 0.1531142398767371 0.1364318267226803 -0.15160775547624958 0.006164939218341804 -0.4016926600594376 0.15293615073445357 0.14005625756070922 0.04586563507900181 0.23630369687543373 -0.44878982544295964 -0.09798332397668294 0.16432942085271826 -0.2794205211148006 0.4569015616145736 -0.10938462654393778 -0.2408572325298453 -0.0307411208431922
中断|-0.008182728313379137 0.03994026310751261 0.2741855140724106 0.15311423674253088 0.13643182579098612 -0.1516077422458177 0.006164947168564985 -0.40169266877411114 0.152936147574279 0.14005625019100426 0.045865635130857126 0.23630369337301796 -0.44878982791977573 -0.09798332874642682 0.16432942583604526 -0.27942052442080967 0.45690155817616596 -0.10938462936705451 -0.240857230596494 -0.030741119138022712
不|-0.008182730075512554 0.0399402659371611 0.2741855131521665 0.15311423389325354 0.1364318249439917 -0.15160773021815704 0.006164954396037774 -0.4016926766965384 0.15293614470139422 0.140056243491275 0.04586563517799837 0.2363036901890048 -0.44878983017142565 -0.09798333308255586 0.16432943036634065 -0.2794205274262712 0.45690155505034197 -0.10938463193352321 -0.24085722883890257 -0.030741117587869217
票额|-0.00818273167745149 0.03994026850956788 0.2741855123155811 0.15311423130300222 0.136431824173997 -0.15160771928392383 0.006164960966465244 -0.4016926838987422 0.15293614208968173 0.14005623740061415 0.04586563522085405 0.2363036872944483 -0.4487898322183793 -0.09798333702448983 0.16432943448478948 -0.27942053015850793 0.4569015522086846 -0.10938463426667568 -0.24085722724109257 -0.030741116178639245
警察|-0.008182733133759173 0.03994027084811876 0.2741855115550491 0.15311422894822904 0.13643182347400198 -0.151607709343715 0.006164966939579192 -0.401692690446198 0.15293613971539843 0.14005623186365146 0.04586563525981382 0.23630368466303417 -0.44878983407924555 -0.09798334060806498 0.1643294382288326 -0.27942053264235867 0.4569015496253605 -0.10938463638772265 -0.24085722578853846 -0.030741114897521484
专|-0.008182734457674886 0.039940272974073474 0.27418551086365656 0.15311422680752668 0.13643182283764305 -0.15160770030716414 0.006164972369681184 -0.40169269639842853 0.15293613755695973 0.14005622683005045 0.045865635295231785 0.23630368227084006 -0.4487898357709415 -0.09798334386585952 0.16432944163250715 -0.27942053490040386 0.4569015472768847 -0.1093846383159466 -0.24085722446803506 -0.030741113732869304
区间|-0.00818273566123432 0.039940274906759055 0.27418551023511784 0.15311422486143406 0.136431822259135 -0.15160769209212005 0.006164977306136218 -0.40169270180954564 0.15293613559474326 0.14005622225405068 0.04586563532742993 0.2363036800961186 -0.44878983730884625 -0.09798334682749008 0.16432944472675579 -0.2794205369531717 0.45690154514190706 -0.1093846400688769 -0.24085722326757766 -0.03074111267409486
车站|-0.008182748966365859 0.03994029442234898 0.27418550387875934 0.15311420474016216 0.13643181622729464 -0.15160761029515993 0.006165026179482041 -0.40169275433158336 0.15293611892064182 0.14005617629337963 0.045865637616208835 0.2363036578355238 -0.44878985306513103 -0.09798337439423371 0.16432947495742106 -0.27942055701408797 0.4569015252997868 -0.10938465693804045 -0.24085721126900045 -0.030741101867056284
常见|-0.008182737850972508 0.039940278407769904 0.2741855090964568 0.15311422133224986 0.1364318212096099 -0.1516076772203276 0.0061649862403555696 -0.4016927115941463 0.15293613206618598 0.14005621396677795 0.04586563540198482 0.2363036761541782 -0.44878984009659834 -0.09798335217307967 0.16432945032352858 -0.27942054066619415 0.4569015412886325 -0.10938464323739518 -0.24085722109399793 -0.03074111075519397
享受|-0.00818273875522406 0.03994027985982438 0.2741855086242266 0.15311421987012241 0.13643182077496843 -0.15160767104824674 0.006164989949185273 -0.40169271565959636 0.15293613059194452 0.1400562105287634 0.0458656354261758 0.2363036745202786 -0.44878984125204835 -0.09798335439819528 0.16432945264828205 -0.27942054220846807 0.456901539684593 -0.10938464455439692 -0.24085722019207698 -0.03074110995972148
cn|-0.008182739577270776 0.03994028117987365 0.2741855081949264 0.1531142185409159 0.13643182037983986 -0.15160766543726514 0.006164993320847984 -0.4016927193554592 0.15293612925172523 0.14005620740329622 0.04586563544816758 0.2363036730349155 -0.44878984230245694 -0.09798335642102719 0.16432945476169386 -0.279420543610535 0.4569015382263754 -0.10938464575167096 -0.24085721937214885 -0.0307411092365648
银|-0.00818274032459006 0.03994028237992621 0.27418550780465106 0.1531142173325381 0.13643182002063023 -0.1516076603363372 0.00616499638601744 -0.40169272271535966 0.1529361280333319 0.14005620456194356 0.045865635468157445 0.23630367168457714 -0.4487898432573805 -0.09798335825998034 0.16432945668299165 -0.2794205448851509 0.4569015369007116 -0.10938464684011005 -0.24085721862675435 -0.030741108579145415
闸机|-0.008182741003963153 0.03994028347086781 0.27418550744986014 0.15311421623402896 0.13643181969407972 -0.1516076556991998 0.00616499917249288 -0.40169272576976545 0.15293612692572534 0.1400562019789328 0.045865635486335155 0.23630367045701323 -0.4487898441254802 -0.09798335993172656 0.16432945842959804 -0.2794205460438737 0.45690153569558517 -0.10938464782958418 -0.24085721794913345 -0.030741107981499732
乘车|-0.008182741621578738 0.039940284462639884 0.2741855071273207 0.15311421523537688 0.13643181939721394 -0.15160765148358837 0.00616500170567174 -0.4016927285465206 0.1529361259187993 0.14005619963072416 0.04586563550285794 0.23630366934103855 -0.44878984491466745 -0.09798336145150933 0.16432946001743481 -0.2794205470972667 0.45690153460000527 -0.10938464872911342 -0.24085721733310966 -0.030741107438181675
补办|-0.008182742183047384 0.03994028536425073 0.274185506834103 0.15311421432751152 0.13643181912733596 -0.15160764765121476 0.006165004008561306 -0.401692731070843 0.15293612500341208 0.1400561974959893 0.045865635517878645 0.23630366832651617 -0.4487898456321102 -0.09798336283312988 0.16432946146092262 -0.27942054805489663 0.45690153360402364 -0.10938464954686719 -0.24085721677308805 -0.03074110694425623
收货人|-0.008182742693473365 0.03994028618389687 0.27418550656754154 0.15311421350217935 0.13643181888199235 -0.15160764416723918 0.006165006102097025 -0.4016927333656813 0.15293612417124203 0.14005619555532148 0.04586563553153385 0.23630366740422323 -0.4487898462843307 -0.09798336408914836 0.16432946277318408 -0.2794205489254691 0.45690153269858585 -0.10938465029027959 -0.24085721626397757 -0.030741106495233154
不符|-0.008182743157496938 0.03994028692902963 0.27418550632521294 0.15311421275187753 0.13643181865895274 -0.15160764099998902 0.006165008005311103 -0.40169273545189765 0.15293612341472385 0.14005619379107825 0.04586563554394765 0.23630366656577517 -0.4487898468772584 -0.0979833652309832 0.16432946396614886 -0.27942054971689856 0.45690153187546073 -0.10938465096610896 -0.2408572158011499 -0.030741106087030397
火车票|-0.00818274357933651 0.03994028760642299 0.2741855061049142 0.15311421206978504 0.13643181845618949 -0.151607638120671 0.006165009735505548 -0.40169273734845784 0.15293612272698012 0.14005619218722087 0.04586563555523296 0.23630366580354975 -0.4487898474162838 -0.09798336626901481 0.16432946505066223 -0.2794205504363798 0.4569015311271652 -0.10938465158049926 -0.24085721538039756 -0.030741105715937016
惠|-0.008182743962827 0.03994028822223508 0.2741855059046427 0.15311421144970094 0.1364318182718593 -0.15160763550310932 0.006165011308409448 -0.4016927390726032 0.1529361221017586 0.14005619072916883 0.045865635565492315 0.2363036651106176 -0.4487898479063066 -0.0979833672126798 0.1643294660365834 -0.27942055109045366 0.4569015304468967 -0.10938465213903581 -0.2408572149978954 -0.030741105378579433
广深铁路|-0.008182744311454689 0.0399402887820642 0.2741855057225776 0.15311421088598817 0.13643181810428637 -0.15160763312350806 0.0061650127383219636 -0.40169274064000804 0.15293612153337552 0.14005618940366707 0.04586563557481901 0.23630366448067935 -0.4487898483517819 -0.09798336807055698 0.16432946693287528 -0.2794205516850661 0.45690152982847065 -0.10938465264679628 -0.24085721465016616 -0.03074110507189074
直达|-0.00818274462838893 0.03994028929099972 0.27418550555706395 0.1531142103735221 0.13643181795194734 -0.15160763096023425 0.006165014038242337 -0.4016927420649213 0.15293612101666362 0.14005618819866558 0.04586563558329781 0.23630366390800822 -0.44878984875675937 -0.09798336885044526 0.164329467747686 -0.27942055222562284 0.45690152926626537 -0.10938465310839666 -0.24085721433404875 -0.03074110479308285
票面|-0.00818274491651095 0.03994028975366835 0.2741855054065971 0.15311420990764388 0.13643181781345734 -0.1516076289936219 0.00616501521998805 -0.4016927433602969 0.15293612054692554 0.14005618710320977 0.045865635591005816 0.23630366338739808 -0.44878984912492065 -0.09798336955943454 0.16432946848842295 -0.27942055271703803 0.45690152875516965 -0.10938465352803335 -0.24085721404666924 -0.03074110453962116
迁居|-0.008182745178440042 0.03994029017427617 0.27418550526980895 0.15311420948411822 0.13643181768755738 -0.1516076272057926 0.006165016294302268 -0.40169274453791115 0.152936120119891 0.14005618610734094 0.0458656355980131 0.23630366291411625 -0.44878984945961276 -0.09798337020397024 0.16432946916182017 -0.2794205531637791 0.4569015282905371 -0.10938465390952123 -0.2408572137854152 -0.030741104309201454
非|-0.00818274541655739 0.03994029055664689 0.2741855051454561 0.15311420909909493 0.1364318175731028 -0.15160762558049332 0.006165017270951501 -0.4016927456084693 0.15293611973167778 0.1400561852020056 0.045865635604383344 0.23630366248386006 -0.4487898497638782 -0.09798337078991173 0.16432946977399943 -0.2794205535699073 0.4569015278681439 -0.10938465425632835 -0.2408572135479116 -0.030741104099728998
线路|-0.008182745633027691 0.039940290904256624 0.2741855050324081 0.15311420874907375 0.13643181746905322 -0.1516076241029486 0.006165018158814396 -0.40169274658170406 0.15293611937875667 0.14005618437897357 0.04586563561017449 0.23630366209271805 -0.44878985004048316 -0.09798337132258582 0.16432947033052595 -0.27942055393911475 0.45690152748415025 -0.10938465457160755 -0.24085721333199916 -0.03074110390929951
发生|-0.008182745829818868 0.039940291220265454 0.27418550492963706 0.1531142084308727 0.13643181737446267 -0.15160762275972617 0.006165018965962444 -0.40169274746646283 0.15293611905791935 0.14005618363076267 0.04586563561543917 0.2363036617371344 -0.44878985029194224 -0.0979833718068349 0.16432947083645918 -0.27942055427475787 0.45690152713506493 -0.10938465485822499 -0.24085721313571518 -0.030741103736181795
怎么|-0.008182746008719929 0.0399402915075462 0.274185504836209 0.15311420814159907 0.1364318172884713 -0.15160762153861493 0.0061650196997333675 -0.401692748270789 0.15293611876624905 0.14005618295057096 0.04586563562022524 0.2363036614138766 -0.4487898505205414 -0.09798337224706137 0.16432947129639847 -0.27942055457988796 0.45690152681771473 -0.10938465511878628 -0.24085721295727514 -0.03074110357880207
中途站|-0.008182746171357254 0.03994029176871051 0.2741855047512744 0.15311420787862307 0.13643181721029732 -0.15160762042851386 0.006165020366797816 -0.4016927490019946 0.1529361185010943 0.14005618233221487 0.04586563562457622 0.23630366112000586 -0.44878985072835875 -0.09798337264726723 0.16432947171452505 -0.27942055485727896 0.4569015265292146 -0.1093846553556602 -0.24085721279505698 -0.030741103435729594
代|-0.00818274631920936 0.03994029200613258 0.27418550467406105 0.1531142076395539 0.13643181713923005 -0.15160761941933107 0.0061650209732200196 -0.40169274966672686 0.15293611826004444 0.140056181770073 0.045865635628531645 0.23630366085285065 -0.4487898509172835 -0.09798337301109072 0.16432947209464008 -0.2794205551094525 0.45690152626694164 -0.10938465557100006 -0.24085721264758592 -0.0307411033056637
退款|-0.008182746453620363 0.03994029222197083 0.27418550460386715 0.15311420742221835 0.1364318170746235 -0.15160761850189222 0.0061650215245129154 -0.40169275027102896 0.15293611804090826 0.14005618125903496 0.04586563563212749 0.23630366060998229 -0.4487898510890336 -0.09798337334183933 0.16432947244019924 -0.2794205553387013 0.4569015260285118 -0.10938465576676362 -0.24085721251352132 -0.030741103187421993
发站|-0.008182746575812182 0.03994029241818743 0.2741855045400545 0.15311420722464056 0.13643181701589024 -0.15160761766785696 0.006165022025688261 -0.40169275082039446 0.15293611784169353 0.1400561807944549 0.045865635635396446 0.2363036603891929 -0.44878985124516985 -0.0979833736425199 0.16432947275434392 -0.27942055554710926 0.45690152581175747 -0.10938465594473049 -0.24085721239164445 -0.030741103079929537
提出|-0.008182746686895651 0.03994029259656613 0.274185504482043 0.1531142070450244 0.13643181696249637 -0.15160761690964306 0.0061650224813021995 -0.40169275131981763 0.1529361176605893 0.14005618037210943 0.04586563563836822 0.23630366018847523 -0.4487898513871118 -0.09798337391586584 0.16432947303992998 -0.279420555736571 0.456901525614708 -0.10938465610651851 -0.24085721228084725 -0.030741102982209122
动车组|-0.00818274678788062 0.0399402927587286 0.2741855044293053 0.153114206881737 0.1364318169139565 -0.15160761622035773 0.006165022895496679 -0.4016927517738387 0.15293611749594904 0.14005617998815903 0.04586563564106984 0.23630366000600464 -0.44878985151615 -0.09798337416436215 0.16432947329955366 -0.279420555908809 0.45690152543557205 -0.10938465625359854 -0.24085721218012254 -0.030741102893372386
记载|-0.008182746879685133 0.03994029290614902 0.2741855043813619 0.1531142067332939 0.13643181686982933 -0.15160761559373473 0.006165023272037108 -0.40169275218658507 0.15293611734627607 0.14005617963911318 0.04586563564352585 0.2363036598401223 -0.4487898516334574 -0.09798337439026787 0.16432947353557512 -0.2794205560653889 0.4569015252727213 -0.10938465638730764 -0.24085721208855462 -0.030741102812611713
丢失|-0.008182746963143783 0.03994029304016758 0.27418550433777705 0.15311420659834565 0.13643181682971373 -0.15160761502407744 0.006165023614346581 -0.40169275256180903 0.15293611721020978 0.1400561793217988 0.04586563564575859 0.23630365968932018 -0.4487898517401006 -0.09798337459563672 0.16432947375014018 -0.27942055620773426 0.45690152512467513 -0.10938465650886138 -0.24085721200531107 -0.03074110273919292
伤害|-0.008182747039015281 0.03994029316200262 0.27418550429815436 0.1531142064756654 0.136431816793245 -0.1516076145062072 0.006165023925537005 -0.4016927529029218 0.1529361170865131 0.1400561790333312 0.04586563564778836 0.23630365955222732 -0.4487898518370489 -0.09798337478233565 0.16432947394519926 -0.2794205563371392 0.4569015249900877 -0.10938465661936476 -0.2408572119296351 -0.030741102672448572
居民身份证|-0.008182747107989368 0.03994029327276175 0.2741855042621338 0.15311420636413792 0.13643181676009164 -0.15160761403541606 0.006165024208437387 -0.4016927532130243 0.15293611697406162 0.1400561787710879 0.045865635649633585 0.23630365942759748 -0.44878985192518367 -0.09798337495206197 0.1643294741225257 -0.27942055645478003 0.45690152486773533 -0.10938465671982239 -0.2408572118608388 -0.03074110261177189
时能|-0.00818274717069308 0.039940293373451875 0.2741855042293878 0.1531142062627493 0.13643181672995217 -0.1516076136074241 0.006165024465619547 -0.40169275349493555 0.15293611687183298 0.14005617853268493 0.04586563565131108 0.2363036593142976 -0.4487898520053063 -0.09798337510635861 0.16432947428373154 -0.2794205565617262 0.45690152475650614 -0.10938465681114751 -0.24085721179829664 -0.030741102556611267
进出|-0.00818274722769646 0.039940293464988355 0.2741855041996188 0.15311420617057783 0.13643181670255272 -0.15160761321834057 0.006165024699421509 -0.40169275375121855 0.15293611677889787 0.14005617831595496 0.04586563565283608 0.23630365921129778 -0.44878985207814504 -0.09798337524662827 0.1643294744302823 -0.27942055665895005 0.4569015246553887 -0.10938465689417033 -0.24085721174144023 -0.030741102506465248
分类|-0.008182747279517708 0.03994029354820332 0.27418550417255594 0.15311420608678555 0.13643181667764406 -0.15160761286462826 0.006165024911968744 -0.4016927539842032 0.15293611669441137 0.14005617811892768 0.04586563565422243 0.23630365911766146 -0.448789852144362 -0.09798337537414616 0.1643294745635103 -0.2794205567473353 0.45690152456346356 -0.10938465696964564 -0.2408572116897525 -0.03074110246087796
餐车|-0.008182747326627939 0.03994029362385329 0.2741855041479534 0.1531142060106108 0.13643181665499984 -0.1516076125430716 0.006165025105193502 -0.4016927541960073 0.1529361166176055 0.14005617793981198 0.045865635655482746 0.23630365903253758 -0.44878985220455925 -0.09798337549007152 0.1643294746846266 -0.2794205568276856 0.4569015244798954 -0.10938465703825956 -0.24085721164276366 -0.03074110241943497
收费|-0.008182747369455417 0.03994029369262599 0.27418550412558745 0.15311420594136096 0.13643181663441417 -0.15160761225074737 0.00616502528085237 -0.4016927543885565 0.15293611654778197 0.14005617777697957 0.045865635656628496 0.2363036589551523 -0.4487898522592841 -0.09798337559545818 0.16432947479473245 -0.2794205569007313 0.4569015244039243 -0.10938465710063582 -0.24085721160004656 -0.03074110238175952
列车|-0.008182747408389488 0.03994029375514664 0.27418550410525483 0.15311420587840666 0.13643181661569997 -0.15160761198499806 0.006165025440542249 -0.40169275456360126 0.15293611648430605 0.14005617762895006 0.04586563565767009 0.236303658884802 -0.4487898523090339 -0.09798337569126425 0.1643294748948286 -0.2794205569671365 0.4569015243348597 -0.10938465715734152 -0.24085721156121287 -0.030741102347509118
运到|-0.008182747443784099 0.03994029381198358 0.27418550408677056 0.1531142058211754 0.13643181659868703 -0.15160761174340778 0.006165025585714864 -0.40169275472273286 0.15293611642660065 0.1400561774943778 0.04586563565861699 0.2363036588208472 -0.448789852354261 -0.09798337577836069 0.1643294749858251 -0.27942055702750485 0.4569015242720737 -0.10938465720889216 -0.24085721152590941 -0.03074110231637239
签证|-0.008182747475961018 0.039940293863653525 0.2741855040699667 0.15311420576914703 0.13643181658322076 -0.15160761152378027 0.006165025717689968 -0.40169275486739797 0.15293611637414123 0.1400561773720394 0.04586563565947781 0.23630365876270648 -0.44878985239537644 -0.09798337585753926 0.16432947506854914 -0.27942055708238517 0.4569015242149955 -0.10938465725575638 -0.24085721149381548 -0.03074110228806627
伤残|-0.008182747505212761 0.0399402939106262 0.2741855040546905 0.15311420572184847 0.13643181656916045 -0.1516076113241189 0.006165025837667335 -0.4016927549989116 0.1529361163264508 0.14005617726082265 0.04586563566026036 0.23630365870985126 -0.44878985243275415 -0.09798337592951979 0.1643294751437529 -0.2794205571322763 0.45690152416310614 -0.10938465729836024 -0.2408572114646391 -0.03074110226233344
误售|-0.008182747531805253 0.03994029395332864 0.27418550404080294 0.1531142056788498 0.13643181655637837 -0.15160761114260857 0.006165025946737667 -0.4016927551184695 0.1529361162830959 0.14005617715971652 0.04586563566097178 0.23630365866180103 -0.448789852466734 -0.09798337599495661 0.1643294752121199 -0.2794205571776319 0.4569015241159341 -0.109384657337091 -0.24085721143811514 -0.030741102238939947
父母|-0.008182747555980249 0.03994029399214904 0.27418550402817804 0.1531142056397601 0.13643181654475836 -0.15160761097759914 0.006165026045892515 -0.4016927552271586 0.1529361162436824 0.1400561770678019 0.045865635661618526 0.23630365861811906 -0.4487898524976248 -0.09798337605444465 0.16432947527427177 -0.27942055721886433 0.45690152407305046 -0.1093846573723008 -0.2408572114140025 -0.030741102217673146
票|-0.008182747577957516 0.0399402940274403 0.2741855040167007 0.153114205604224 0.13643181653419464 -0.1516076108275906 0.006165026136033284 -0.40169275532596677 0.15293611620785183 0.14005617698424308 0.04586563566220647 0.23630365857840815 -0.4487898525257072 -0.09798337610852467 0.1643294753307734 -0.2794205572563483 0.45690152403406525 -0.10938465740430967 -0.24085721139208185 -0.03074110219833968
纸质|-0.00818274759793685 0.039940294059523276 0.27418550400626684 0.15311420557191843 0.13643181652459127 -0.15160761069121922 0.006165026217979439 -0.40169275541579236 0.15293611617527866 0.14005617690828054 0.045865635662740975 0.2363036585423073 -0.44878985255123677 -0.09798337615768835 0.16432947538213855 -0.2794205572904246 0.45690152399862416 -0.10938465743340865 -0.24085721137215396 -0.03074110218076381
○|-0.008182747616099882 0.03994029408868962 0.27418550399678154 0.15311420554254979 0.13643181651586095 -0.15160761056724523 0.006165026292475942 -0.4016927554974521 0.15293611614566668 0.14005617683922372 0.045865635663226885 0.2363036585094884 -0.44878985257444537 -0.0979833762023826 0.16432947542883414 -0.2794205573214032 0.456901523966405 -0.10938465745986227 -0.2408572113540378 -0.03074110216478575
现金支付|-0.008182747632611726 0.039940294115204465 0.27418550398815844 0.15311420551585098 0.13643181650792427 -0.15160761045454155 0.0061650263602000335 -0.4016927555716881 0.1529361161187467 0.14005617677644475 0.04586563566366862 0.23630365847965296 -0.44878985259554416 -0.09798337624301369 0.16432947547128465 -0.27942055734956545 0.45690152393711486 -0.10938465748391103 -0.24085721133756843 -0.030741102150260224
种类|-0.008182747647622496 0.03994029413930889 0.2741855039803194 0.15311420549157936 0.13643181650070915 -0.15160761035208373 0.006165026421767394 -0.40169275563917545 0.152936116094274 0.140056176719373 0.04586563566407021 0.23630365845252987 -0.4487898526147249 -0.0979833762799511 0.16432947550987606 -0.2794205573751675 0.4569015239104875 -0.10938465750577353 -0.24085721132259638 -0.030741102137055217
吸烟|-0.00818274766126865 0.039940294161221995 0.27418550397319286 0.15311420546951424 0.13643181649414993 -0.1516076102589402 0.006165026477737719 -0.4016927557005276 0.15293611607202603 0.14005617666748957 0.04586563566443527 0.23630365842787251 -0.44878985263216187 -0.09798337631353055 0.16432947554495916 -0.27942055739844207 0.45690152388628075 -0.10938465752564852 -0.2408572113089854 -0.030741102125050653
证件|-0.008182747673674244 0.039940294181143 0.2741855039667142 0.153114205449455 0.136431816488187 -0.1516076101742643 0.006165026528619832 -0.40169275575630226 0.15293611605180066 0.1400561766203228 0.04586563566476715 0.23630365840545675 -0.4487898526480137 -0.0979833763440573 0.16432947557685285 -0.2794205574196008 0.4569015238642746 -0.1093846575437167 -0.24085721129661175 -0.03074110211413742
信息|-0.00818274768495206 0.039940294199253 0.27418550396082464 0.1531142054312194 0.1364318164827662 -0.1516076100972862 0.0061650265748763 -0.4016927558070064 0.15293611603341395 0.14005617657744396 0.04586563566506887 0.2363036583850788 -0.44878985266242444 -0.09798337637180891 0.16432947560584715 -0.2794205574388361 0.4569015238442691 -0.10938465756014235 -0.24085721128536303 -0.0307411021042163
核收|-0.008182747695204617 0.03994029421571663 0.27418550395547037 0.15311420541464155 0.13643181647783817 -0.1516076100273061 0.006165026616927632 -0.40169275585310116 0.1529361160166987 0.14005617653846314 0.04586563566534315 0.23630365836655337 -0.4487898526755251 -0.09798337639703765 0.1643294756322056 -0.2794205574563226 0.4569015238260823 -0.10938465757507472 -0.24085721127513687 -0.030741102095197103
怎样|-0.008182747704525125 0.039940294230683585 0.27418550395060287 0.15311420539957077 0.13643181647335811 -0.15160760996368786 0.0061650266551561165 -0.4016927558950055 0.15293611600150311 0.14005617650302607 0.04586563566559251 0.2363036583497121 -0.4487898526874349 -0.09798337641997286 0.16432947565616782 -0.2794205574722195 0.4569015238095487 -0.10938465758864963 -0.24085721126584037 -0.03074110208699783
字样|-0.008182747712998312 0.039940294244289895 0.2741855039461779 0.15311420538587012 0.13643181646928537 -0.1516076099058531 0.006165026689909285 -0.4016927559331004 0.15293611598768891 0.14005617647081056 0.045865635665819186 0.23630365833440187 -0.4487898526982618 -0.09798337644082307 0.16432947567795167 -0.2794205574866712 0.45690152379451826 -0.10938465760099043 -0.24085721125738904 -0.030741102079543947
能否|-0.00818274772070121 0.039940294256659264 0.2741855039421552 0.1531142053734149 0.13643181646558286 -0.151607609853276 0.006165026721503073 -0.401692755967732 0.15293611597513054 0.14005617644152368 0.04586563566602525 0.23630365832048342 -0.44878985270810456 -0.09798337645977777 0.16432947569775513 -0.2794205574998091 0.4569015237808542 -0.10938465761220938 -0.240857211249706 -0.030741102072767684
考虑|-0.008182747727703844 0.03994029426790415 0.2741855039384982 0.15311420536209203 0.13643181646221694 -0.15160760980547866 0.0061650267502247 -0.4016927559992154 0.15293611596371384 0.1400561764148993 0.04586563566621259 0.23630365830783032 -0.4487898527170525 -0.09798337647700935 0.16432947571575834 -0.27942055751175265 0.45690152376843235 -0.10938465762240837 -0.2408572112427214 -0.030741102066607448
车厢|-0.008182747734069877 0.03994029427812678 0.2741855039351736 0.15311420535179848 0.136431816459157 -0.15160760976202653 0.00616502677633527 -0.4016927560278365 0.152936115953335 0.14005617639069531 0.0458656356663829 0.23630365829632746 -0.44878985272518707 -0.09798337649267438 0.16432947573212486 -0.27942055752261036 0.4569015237571397 -0.10938465763168022 -0.24085721123637177 -0.030741102061007233
要求|-0.008182747739857178 0.039940294287420075 0.2741855039321513 0.15311420534244072 0.13643181645637528 -0.1516076097225246 0.006165026800072151 -0.40169275605385585 0.15293611594389972 0.14005617636869166 0.04586563566653773 0.23630365828587038 -0.44878985273258204 -0.09798337650691535 0.16432947574700354 -0.2794205575324811 0.45690152374687365 -0.10938465764010917 -0.24085721123059936 -0.03074110205591613
收取|-0.00818274774511836 0.03994029429586852 0.27418550392940366 0.15311420533393366 0.13643181645384636 -0.15160760968661374 0.006165026821651132 -0.4016927560775097 0.15293611593532216 0.14005617634868836 0.04586563566667847 0.23630365827636385 -0.4487898527393047 -0.09798337651986166 0.1643294757605296 -0.27942055754145434 0.45690152373754084 -0.10938465764777182 -0.24085721122535173 -0.03074110205128785
遗失|-0.008182747749901255 0.03994029430354894 0.27418550392690594 0.1531142053262 0.13643181645154742 -0.15160760965396752 0.0061650268412683906 -0.4016927560990133 0.1529361159275244 0.14005617633050352 0.04586563566680643 0.2363036582677216 -0.4487898527454163 -0.09798337653163106 0.164329475772826 -0.27942055754961204 0.45690152372905657 -0.1093846576547379 -0.24085721122058115 -0.03074110204708033
价格|-0.00818274775424934 0.03994029431053112 0.2741855039246352 0.15311420531916936 0.13643181644945745 -0.15160760962428918 0.00616502685910226 -0.401692756118562 0.15293611592043554 0.14005617631397188 0.04586563566692275 0.23630365825986502 -0.4487898527509723 -0.0979833765423305 0.16432947578400456 -0.27942055755702805 0.45690152372134357 -0.10938465766107071 -0.2408572112162443 -0.030741102043255312
提供|-0.008182747758202144 0.039940294316878566 0.2741855039225709 0.1531142053127779 0.1364318164475575 -0.1516076095973088 0.00616502687531487 -0.4016927561363335 0.15293611591399112 0.1400561762989431 0.0458656356670285 0.23630365825272265 -0.4487898527560231 -0.09798337655205727 0.16432947579416685 -0.2794205575637699 0.4569015237143317 -0.1093846576668278 -0.24085721121230164 -0.030741102039778014
购票|-0.008182747761795603 0.039940294322648964 0.2741855039206943 0.15311420530696743 0.13643181644583025 -0.1516076095727812 0.006165026890053605 -0.4016927561524894 0.15293611590813255 0.14005617628528058 0.04586563566712463 0.2363036582462296 -0.4487898527606148 -0.0979833765608998 0.16432947580340532 -0.2794205575698988 0.4569015237079573 -0.10938465767206149 -0.24085721120871745 -0.030741102036616837
产生|-0.008182747765062382 0.039940294327894796 0.2741855039189883 0.1531142053016852 0.13643181644426003 -0.15160760955048336 0.006165026903452456 -0.40169275616717653 0.1529361159028066 0.14005617627286007 0.045865635667212024 0.23630365824032679 -0.44878985276478905 -0.09798337656893845 0.16432947581180393 -0.2794205575754705 0.45690152370216247 -0.10938465767681942 -0.24085721120545908 -0.030741102033743042
标准|-0.008182747768032185 0.039940294332663724 0.2741855039174374 0.1531142052968832 0.13643181644283256 -0.15160760953021266 0.00616502691563323 -0.40169275618052863 0.15293611589796482 0.14005617626156877 0.04586563566729148 0.2363036582349607 -0.4487898527685839 -0.09798337657624633 0.16432947581943905 -0.2794205575805358 0.4569015236968944 -0.1093846576811448 -0.24085721120249692 -0.0307411020311305
空调|-0.008182747770732001 0.03994029433699911 0.2741855039160274 0.15311420529251768 0.13643181644153488 -0.1516076095117847 0.00616502692670666 -0.4016927561926668 0.1529361158935632 0.14005617625130387 0.04586563566736371 0.23630365823008234 -0.4487898527720337 -0.09798337658288983 0.16432947582638005 -0.2794205575851406 0.45690152369210524 -0.10938465768507696 -0.2408572111998041 -0.030741102028755463
团体|-0.00818274777318638 0.039940294340940374 0.2741855039147456 0.1531142052885491 0.1364318164403551 -0.15160760949503205 0.006165026936773414 -0.4016927562037015 0.1529361158895617 0.14005617624197217 0.045865635667429364 0.2363036582256475 -0.44878985277516986 -0.09798337658892939 0.16432947583269003 -0.2794205575893267 0.4569015236877514 -0.10938465768865163 -0.24085721119735604 -0.030741102026596336
