理解|-0.009108514980215296 -0.005520029036502646 0.0003569097125246391 -0.020188633124018862 0.02760402531173143 -0.0021565678418769144 0.009102427411227108 0.014397237733185127 0.002919016731367811 -0.00028750623317807687 -0.013056373633279529 -0.009592509794143902 0.011275705446393496 -0.006856088700008629 -0.0004016697244831306 -0.008559312110732752 -0.0041171147494117495 -0.01012299253627626 0.011861408526680911 -0.010814130564353139
可|-0.0091085149802153 -0.005520029036502649 0.0003569097125246393 -0.020188633124018876 0.027604025311731437 -0.0021565678418769135 0.0091024274112271 0.014397237733185134 0.002919016731367809 -0.00028750623317807676 -0.013056373633279536 -0.009592509794143896 0.011275705446393499 -0.0068560887000086255 -0.0004016697244831304 -0.008559312110732745 -0.004117114749411748 -0.010122992536276257 0.011861408526680918 -0.010814130564353146
按|-0.009108514980215296 -0.005520029036502646 0.00035690971252463926 -0.02018863312401887 0.027604025311731437 -0.0021565678418769144 0.009102427411227108 0.014397237733185127 0.002919016731367811 -0.00028750623317807687 -0.013056373633279533 -0.009592509794143899 0.011275705446393496 -0.006856088700008629 -0.0004016697244831304 -0.008559312110732749 -0.004117114749411748 -0.01012299253627626 0.011861408526680915 -0.010814130564353139
重新|-0.009108514980215292 -0.005520029036502646 0.0003569097125246393 -0.020188633124018862 0.02760402531173143 -0.0021565678418769144 0.009102427411227108 0.014397237733185134 0.002919016731367809 -0.000287506233178077 -0.013056373633279529 -0.009592509794143896 0.011275705446393496 -0.006856088700008629 -0.0004016697244831304 -0.008559312110732752 -0.0041171147494117495 -0.010122992536276257 0.011861408526680911 -0.010814130564353142
站台票|-0.009108514980215292 -0.005520029036502649 0.0003569097125246393 -0.020188633124018862 0.02760402531173143 -0.0021565678418769135 0.009102427411227108 0.014397237733185134 0.002919016731367809 -0.000287506233178077 -0.013056373633279529 -0.009592509794143896 0.011275705446393496 -0.0068560887000086255 -0.0004016697244831306 -0.008559312110732745 -0.0041171147494117495 -0.010122992536276253 0.011861408526680911 -0.010814130564353146
办理|-0.009108514980215296 -0.005520029036502646 0.0003569097125246392 -0.020188633124018862 0.02760402531173143 -0.0021565678418769144 0.009102427411227108 0.014397237733185127 0.002919016731367811 -0.00028750623317807687 -0.013056373633279533 -0.009592509794143899 0.011275705446393496 -0.006856088700008629 -0.0004016697244831305 -0.008559312110732749 -0.0041171147494117495 -0.01012299253627626 0.011861408526680915 -0.010814130564353142
有效期|-0.009108514980215292 -0.005520029036502646 0.0003569097125246393 -0.020188633124018862 0.02760402531173143 -0.0021565678418769135 0.009102427411227108 0.014397237733185134 0.002919016731367809 -0.000287506233178077 -0.013056373633279529 -0.009592509794143896 0.011275705446393496 -0.006856088700008627 -0.0004016697244831305 -0.008559312110732745 -0.0041171147494117495 -0.010122992536276257 0.011861408526680911 -0.010814130564353146
铁路|-0.009108514980215296 -0.005520029036502646 0.0003569097125246392 -0.020188633124018866 0.02760402531173143 -0.0021565678418769144 0.009102427411227106 0.014397237733185127 0.002919016731367811 -0.00028750623317807687 -0.013056373633279533 -0.009592509794143899 0.011275705446393499 -0.006856088700008629 -0.0004016697244831304 -0.008559312110732745 -0.004117114749411748 -0.01012299253627626 0.011861408526680915 -0.010814130564353142
身份证|-0.009108514980215292 -0.005520029036502647 0.0003569097125246393 -0.02018863312401887 0.027604025311731433 -0.0021565678418769135 0.009102427411227104 0.014397237733185134 0.002919016731367809 -0.00028750623317807687 -0.013056373633279533 -0.009592509794143896 0.011275705446393499 -0.006856088700008627 -0.0004016697244831305 -0.008559312110732745 -0.004117114749411748 -0.010122992536276257 0.011861408526680915 -0.010814130564353146
如何|-0.009108514980215296 -0.005520029036502646 0.0003569097125246392 -0.02018863312401887 0.027604025311731437 -0.0021565678418769144 0.009102427411227104 0.014397237733185127 0.002919016731367811 -0.00028750623317807687 -0.013056373633279533 -0.009592509794143899 0.011275705446393496 -0.006856088700008627 -0.0004016697244831305 -0.008559312110732749 -0.0041171147494117495 -0.01012299253627626 0.011861408526680915 -0.010814130564353142
身体|-0.0091085149802153 -0.005520029036502646 0.0003569097125246393 -0.02018863312401887 0.027604025311731437 -0.0021565678418769144 0.009102427411227104 0.014397237733185127 0.002919016731367811 -0.00028750623317807687 -0.013056373633279533 -0.009592509794143899 0.011275705446393499 -0.006856088700008629 -0.0004016697244831304 -0.008559312110732745 -0.004117114749411748 -0.01012299253627626 0.011861408526680915 -0.010814130564353142
安检|-0.009108514980215296 -0.005520029036502646 0.0003569097125246391 -0.020188633124018862 0.027604025311731423 -0.0021565678418769144 0.009102427411227108 0.014397237733185127 0.002919016731367811 -0.00028750623317807687 -0.013056373633279529 -0.009592509794143902 0.011275705446393496 -0.006856088700008629 -0.0004016697244831306 -0.008559312110732752 -0.0041171147494117495 -0.01012299253627626 0.011861408526680915 -0.010814130564353139
贵宾室|-0.0091085149802153 -0.005520029036502646 0.0003569097125246391 -0.020188633124018862 0.027604025311731426 -0.0021565678418769144 0.009102427411227108 0.014397237733185127 0.002919016731367811 -0.000287506233178077 -0.013056373633279529 -0.009592509794143902 0.011275705446393492 -0.006856088700008629 -0.00040166972448313056 -0.008559312110732752 -0.004117114749411751 -0.01012299253627626 0.011861408526680911 -0.010814130564353139
差额|-0.0091085149802153 -0.005520029036502646 0.0003569097125246391 -0.020188633124018862 0.02760402531173143 -0.0021565678418769144 0.009102427411227108 0.014397237733185131 0.002919016731367811 -0.00028750623317807687 -0.013056373633279529 -0.009592509794143902 0.011275705446393496 -0.006856088700008629 -0.0004016697244831304 -0.008559312110732752 -0.0041171147494117495 -0.01012299253627626 0.011861408526680911 -0.010814130564353139
乘降|-0.0091085149802153 -0.005520029036502649 0.0003569097125246391 -0.020188633124018862 0.02760402531173143 -0.0021565678418769135 0.009102427411227108 0.014397237733185134 0.002919016731367809 -0.000287506233178077 -0.013056373633279529 -0.009592509794143896 0.011275705446393496 -0.0068560887000086255 -0.0004016697244831306 -0.008559312110732745 -0.0041171147494117495 -0.010122992536276253 0.011861408526680911 -0.010814130564353139
哪里|-0.009108514980215292 -0.005520029036502646 0.0003569097125246391 -0.020188633124018862 0.027604025311731423 -0.0021565678418769144 0.009102427411227108 0.014397237733185133 0.002919016731367809 -0.000287506233178077 -0.013056373633279529 -0.009592509794143902 0.011275705446393492 -0.006856088700008629 -0.0004016697244831305 -0.008559312110732752 -0.004117114749411751 -0.010122992536276253 0.011861408526680911 -0.010814130564353139
和|-0.0091085149802153 -0.005520029036502646 0.0003569097125246391 -0.020188633124018862 0.02760402531173143 -0.0021565678418769144 0.009102427411227108 0.014397237733185131 0.00291901673136781 -0.00028750623317807687 -0.013056373633279529 -0.009592509794143902 0.011275705446393496 -0.006856088700008629 -0.0004016697244831305 -0.008559312110732752 -0.0041171147494117495 -0.010122992536276257 0.011861408526680911 -0.010814130564353139
验证|-0.009108514980215294 -0.005520029036502646 0.0003569097125246392 -0.020188633124018862 0.02760402531173143 -0.0021565678418769144 0.009102427411227108 0.014397237733185127 0.002919016731367811 -0.00028750623317807687 -0.013056373633279533 -0.009592509794143902 0.011275705446393496 -0.006856088700008629 -0.0004016697244831305 -0.008559312110732752 -0.0041171147494117495 -0.01012299253627626 0.011861408526680915 -0.010814130564353139
进出|-0.009108514980215296 -0.005520029036502649 0.0003569097125246393 -0.020188633124018876 0.027604025311731437 -0.0021565678418769135 0.0091024274112271 0.014397237733185134 0.002919016731367809 -0.00028750623317807676 -0.013056373633279536 -0.009592509794143896 0.011275705446393499 -0.0068560887000086255 -0.0004016697244831304 -0.008559312110732745 -0.004117114749411748 -0.010122992536276257 0.011861408526680918 -0.010814130564353146
能否|-0.0091085149802153 -0.005520029036502646 0.0003569097125246392 -0.020188633124018862 0.02760402531173143 -0.0021565678418769144 0.009102427411227108 0.014397237733185131 0.00291901673136781 -0.00028750623317807687 -0.013056373633279533 -0.009592509794143902 0.011275705446393496 -0.006856088700008629 -0.0004016697244831305 -0.008559312110732745 -0.0041171147494117495 -0.010122992536276257 0.011861408526680915 -0.010814130564353139
发站|-0.0091085149802153 -0.005520029036502647 0.0003569097125246393 -0.020188633124018876 0.027604025311731437 -0.0021565678418769135 0.009102427411227104 0.014397237733185127 0.002919016731367811 -0.00028750623317807676 -0.013056373633279536 -0.009592509794143896 0.011275705446393499 -0.0068560887000086255 -0.0004016697244831304 -0.008559312110732745 -0.004117114749411748 -0.01012299253627626 0.011861408526680918 -0.010814130564353146
调整|-0.009108514980215294 -0.005520029036502646 0.0003569097125246393 -0.02018863312401887 0.027604025311731437 -0.0021565678418769144 0.009102427411227108 0.014397237733185127 0.002919016731367811 -0.00028750623317807687 -0.013056373633279533 -0.009592509794143899 0.011275705446393499 -0.006856088700008629 -0.0004016697244831304 -0.008559312110732745 -0.004117114749411748 -0.01012299253627626 0.011861408526680915 -0.010814130564353142
责任|-0.0091085149802153 -0.005520029036502649 0.0003569097125246391 -0.020188633124018876 0.02760402531173143 -0.0021565678418769135 0.0091024274112271 0.014397237733185134 0.002919016731367809 -0.000287506233178077 -0.013056373633279536 -0.009592509794143896 0.011275705446393496 -0.0068560887000086255 -0.0004016697244831306 -0.008559312110732745 -0.0041171147494117495 -0.010122992536276253 0.011861408526680915 -0.010814130564353142
取票|-0.0091085149802153 -0.005520029036502646 0.0003569097125246391 -0.020188633124018862 0.02760402531173143 -0.0021565678418769144 0.009102427411227108 0.014397237733185134 0.0029190167313678096 -0.000287506233178077 -0.013056373633279529 -0.009592509794143902 0.011275705446393496 -0.006856088700008629 -0.0004016697244831305 -0.00855931211073275 -0.0041171147494117495 -0.01012299253627626 0.011861408526680911 -0.010814130564353139
旅客|-0.0091085149802153 -0.005520029036502646 0.0003569097125246391 -0.020188633124018862 0.02760402531173143 -0.0021565678418769144 0.009102427411227108 0.014397237733185127 0.002919016731367811 -0.00028750623317807687 -0.013056373633279533 -0.009592509794143902 0.011275705446393496 -0.006856088700008629 -0.0004016697244831305 -0.008559312110732752 -0.0041171147494117495 -0.01012299253627626 0.011861408526680915 -0.010814130564353139
前|-0.0091085149802153 -0.005520029036502646 0.0003569097125246392 -0.020188633124018862 0.02760402531173143 -0.0021565678418769144 0.009102427411227108 0.014397237733185131 0.002919016731367809 -0.000287506233178077 -0.013056373633279529 -0.009592509794143902 0.011275705446393496 -0.006856088700008629 -0.0004016697244831305 -0.008559312110732752 -0.0041171147494117495 -0.01012299253627626 0.011861408526680911 -0.010814130564353139
产生|-0.0091085149802153 -0.005520029036502646 0.0003569097125246391 -0.020188633124018862 0.02760402531173143 -0.0021565678418769144 0.009102427411227108 0.014397237733185131 0.002919016731367811 -0.00028750623317807687 -0.013056373633279529 -0.009592509794143902 0.011275705446393496 -0.006856088700008629 -0.0004016697244831304 -0.008559312110732752 -0.0041171147494117495 -0.01012299253627626 0.011861408526680911 -0.010814130564353139
旅客列车|-0.0091085149802153 -0.005520029036502646 0.0003569097125246392 -0.020188633124018862 0.02760402531173143 -0.0021565678418769144 0.009102427411227108 0.014397237733185134 0.002919016731367809 -0.000287506233178077 -0.013056373633279529 -0.009592509794143902 0.011275705446393496 -0.006856088700008629 -0.0004016697244831304 -0.008559312110732749 -0.0041171147494117495 -0.010122992536276257 0.011861408526680911 -0.010814130564353139
时间|-0.009108514980215296 -0.005520029036502646 0.0003569097125246391 -0.020188633124018862 0.02760402531173143 -0.0021565678418769144 0.009102427411227108 0.014397237733185127 0.002919016731367811 -0.00028750623317807687 -0.013056373633279529 -0.009592509794143902 0.011275705446393496 -0.006856088700008629 -0.0004016697244831306 -0.008559312110732752 -0.0041171147494117495 -0.01012299253627626 0.011861408526680915 -0.010814130564353139
因误|-0.009108514980215292 -0.005520029036502646 0.0003569097125246392 -0.020188633124018862 0.02760402531173143 -0.0021565678418769144 0.009102427411227108 0.014397237733185127 0.002919016731367811 -0.00028750623317807687 -0.013056373633279529 -0.009592509794143902 0.011275705446393496 -0.006856088700008629 -0.0004016697244831305 -0.008559312110732752 -0.0041171147494117495 -0.01012299253627626 0.011861408526680915 -0.010814130564353139
纸质|-0.0091085149802153 -0.005520029036502646 0.0003569097125246393 -0.02018863312401887 0.027604025311731437 -0.0021565678418769144 0.009102427411227108 0.014397237733185127 0.002919016731367811 -0.00028750623317807687 -0.013056373633279533 -0.009592509794143899 0.011275705446393499 -0.006856088700008629 -0.0004016697244831304 -0.008559312110732745 -0.004117114749411748 -0.01012299253627626 0.011861408526680915 -0.010814130564353142
能|-0.009108514980215292 -0.005520029036502649 0.0003569097125246393 -0.020188633124018876 0.027604025311731437 -0.0021565678418769135 0.0091024274112271 0.014397237733185134 0.002919016731367809 -0.00028750623317807676 -0.013056373633279536 -0.009592509794143896 0.011275705446393499 -0.0068560887000086255 -0.0004016697244831304 -0.008559312110732745 -0.004117114749411748 -0.010122992536276253 0.011861408526680918 -0.010814130564353146
签证|-0.009108514980215292 -0.005520029036502646 0.0003569097125246392 -0.020188633124018862 0.02760402531173143 -0.0021565678418769144 0.009102427411227108 0.014397237733185127 0.00291901673136781 -0.00028750623317807687 -0.013056373633279529 -0.0095925097941439 0.011275705446393496 -0.006856088700008629 -0.0004016697244831304 -0.008559312110732749 -0.0041171147494117495 -0.010122992536276257 0.011861408526680915 -0.010814130564353139
第几|-0.0091085149802153 -0.005520029036502646 0.0003569097125246391 -0.020188633124018862 0.027604025311731423 -0.0021565678418769144 0.009102427411227108 0.014397237733185127 0.002919016731367811 -0.000287506233178077 -0.013056373633279529 -0.009592509794143902 0.011275705446393492 -0.006856088700008629 -0.0004016697244831306 -0.008559312110732752 -0.004117114749411751 -0.01012299253627626 0.011861408526680911 -0.010814130564353139
不得|-0.009108514980215292 -0.005520029036502649 0.0003569097125246393 -0.020188633124018873 0.027604025311731437 -0.0021565678418769135 0.0091024274112271 0.014397237733185134 0.002919016731367809 -0.00028750623317807676 -0.013056373633279536 -0.009592509794143896 0.011275705446393499 -0.0068560887000086255 -0.0004016697244831306 -0.008559312110732745 -0.004117114749411748 -0.010122992536276253 0.011861408526680918 -0.010814130564353146
不能|-0.009108514980215298 -0.005520029036502646 0.0003569097125246392 -0.02018863312401887 0.027604025311731437 -0.0021565678418769144 0.009102427411227108 0.014397237733185127 0.002919016731367811 -0.00028750623317807687 -0.013056373633279533 -0.009592509794143899 0.011275705446393496 -0.006856088700008629 -0.0004016697244831304 -0.008559312110732749 -0.004117114749411748 -0.01012299253627626 0.011861408526680915 -0.010814130564353139
身份证明|-0.0091085149802153 -0.005520029036502646 0.0003569097125246393 -0.020188633124018862 0.027604025311731423 -0.0021565678418769144 0.009102427411227108 0.01439723773318513 0.0029190167313678096 -0.000287506233178077 -0.013056373633279529 -0.009592509794143902 0.011275705446393492 -0.006856088700008629 -0.0004016697244831304 -0.008559312110732752 -0.004117114749411751 -0.010122992536276253 0.011861408526680911 -0.010814130564353139
补办|-0.009108514980215292 -0.005520029036502646 0.0003569097125246392 -0.020188633124018862 0.02760402531173143 -0.0021565678418769144 0.009102427411227108 0.014397237733185134 0.002919016731367809 -0.000287506233178077 -0.013056373633279529 -0.009592509794143902 0.011275705446393496 -0.006856088700008629 -0.0004016697244831305 -0.008559312110732752 -0.0041171147494117495 -0.010122992536276257 0.011861408526680911 -0.010814130564353139
乘车|-0.009108514980215296 -0.005520029036502646 0.0003569097125246392 -0.02018863312401887 0.027604025311731433 -0.0021565678418769135 0.009102427411227108 0.014397237733185131 0.00291901673136781 -0.000287506233178077 -0.013056373633279533 -0.009592509794143897 0.011275705446393499 -0.006856088700008627 -0.0004016697244831304 -0.008559312110732747 -0.004117114749411748 -0.01012299253627626 0.011861408526680915 -0.010814130564353142
包裹|-0.009108514980215296 -0.005520029036502647 0.0003569097125246392 -0.02018863312401887 0.027604025311731437 -0.0021565678418769144 0.009102427411227104 0.014397237733185131 0.002919016731367811 -0.00028750623317807687 -0.013056373633279533 -0.009592509794143899 0.011275705446393497 -0.006856088700008627 -0.0004016697244831305 -0.008559312110732749 -0.0041171147494117495 -0.01012299253627626 0.011861408526680915 -0.010814130564353142
服务|-0.0091085149802153 -0.005520029036502646 0.0003569097125246391 -0.020188633124018862 0.02760402531173143 -0.0021565678418769144 0.009102427411227108 0.014397237733185134 0.00291901673136781 -0.000287506233178077 -0.013056373633279529 -0.009592509794143902 0.011275705446393496 -0.006856088700008629 -0.0004016697244831305 -0.008559312110732749 -0.0041171147494117495 -0.01012299253627626 0.011861408526680911 -0.010814130564353139
软座|-0.0091085149802153 -0.005520029036502646 0.0003569097125246391 -0.020188633124018862 0.02760402531173143 -0.0021565678418769135 0.009102427411227108 0.014397237733185134 0.002919016731367809 -0.000287506233178077 -0.013056373633279529 -0.009592509794143902 0.011275705446393496 -0.006856088700008629 -0.0004016697244831306 -0.008559312110732752 -0.00411711474941175 -0.010122992536276253 0.011861408526680911 -0.010814130564353139
列车|-0.0091085149802153 -0.005520029036502646 0.00035690971252463915 -0.020188633124018862 0.02760402531173143 -0.0021565678418769144 0.009102427411227108 0.014397237733185127 0.002919016731367811 -0.00028750623317807687 -0.013056373633279529 -0.009592509794143902 0.011275705446393496 -0.006856088700008629 -0.0004016697244831305 -0.008559312110732752 -0.0041171147494117495 -0.01012299253627626 0.011861408526680915 -0.010814130564353139
窗口|-0.0091085149802153 -0.005520029036502646 0.0003569097125246391 -0.020188633124018862 0.02760402531173143 -0.0021565678418769144 0.009102427411227108 0.014397237733185134 0.00291901673136781 -0.000287506233178077 -0.013056373633279529 -0.009592509794143902 0.011275705446393496 -0.006856088700008629 -0.0004016697244831305 -0.008559312110732749 -0.0041171147494117495 -0.01012299253627626 0.011861408526680911 -0.010814130564353139
提取|-0.0091085149802153 -0.005520029036502646 0.0003569097125246393 -0.020188633124018862 0.027604025311731433 -0.002156567841876915 0.009102427411227108 0.014397237733185131 0.002919016731367811 -0.00028750623317807687 -0.013056373633279533 -0.009592509794143902 0.011275705446393499 -0.006856088700008629 -0.0004016697244831304 -0.008559312110732749 -0.004117114749411748 -0.010122992536276257 0.011861408526680915 -0.010814130564353139
字样|-0.0091085149802153 -0.005520029036502649 0.0003569097125246393 -0.020188633124018876 0.027604025311731437 -0.0021565678418769135 0.0091024274112271 0.014397237733185134 0.002919016731367809 -0.00028750623317807676 -0.013056373633279536 -0.009592509794143896 0.011275705446393499 -0.0068560887000086255 -0.0004016697244831304 -0.008559312110732745 -0.0041171147494117495 -0.010122992536276257 0.011861408526680918 -0.010814130564353142
危险品|-0.009108514980215292 -0.005520029036502648 0.0003569097125246392 -0.02018863312401887 0.02760402531173143 -0.0021565678418769135 0.0091024274112271 0.014397237733185134 0.00291901673136781 -0.00028750623317807687 -0.013056373633279536 -0.009592509794143896 0.011275705446393499 -0.0068560887000086255 -0.0004016697244831305 -0.008559312110732749 -0.004117114749411748 -0.010122992536276257 0.011861408526680918 -0.010814130564353139
报销|-0.0091085149802153 -0.005520029036502646 0.0003569097125246392 -0.020188633124018862 0.02760402531173143 -0.0021565678418769144 0.009102427411227108 0.014397237733185131 0.00291901673136781 -0.00028750623317807687 -0.013056373633279533 -0.009592509794143902 0.011275705446393496 -0.006856088700008629 -0.0004016697244831305 -0.008559312110732749 -0.0041171147494117495 -0.01012299253627626 0.011861408526680915 -0.010814130564353139
华侨|-0.0091085149802153 -0.005520029036502646 0.0003569097125246391 -0.020188633124018862 0.02760402531173143 -0.0021565678418769144 0.009102427411227108 0.014397237733185134 0.002919016731367809 -0.000287506233178077 -0.013056373633279529 -0.009592509794143902 0.011275705446393496 -0.006856088700008629 -0.0004016697244831305 -0.008559312110732752 -0.0041171147494117495 -0.010122992536276257 0.011861408526680911 -0.010814130564353139
的|-0.009108514980215296 -0.005520029036502646 0.0003569097125246392 -0.02018863312401887 0.027604025311731433 -0.0021565678418769144 0.009102427411227108 0.014397237733185127 0.002919016731367811 -0.00028750623317807687 -0.013056373633279533 -0.009592509794143899 0.011275705446393496 -0.006856088700008627 -0.0004016697244831305 -0.008559312110732749 -0.0041171147494117495 -0.01012299253627626 0.011861408526680915 -0.010814130564353142
通卡|-0.009108514980215294 -0.005520029036502646 0.0003569097125246391 -0.020188633124018862 0.02760402531173143 -0.0021565678418769144 0.009102427411227108 0.014397237733185134 0.002919016731367809 -0.000287506233178077 -0.013056373633279529 -0.009592509794143902 0.011275705446393496 -0.006856088700008629 -0.0004016697244831306 -0.008559312110732752 -0.004117114749411751 -0.010122992536276253 0.011861408526680911 -0.010814130564353139
故障|-0.009108514980215296 -0.005520029036502646 0.0003569097125246392 -0.020188633124018862 0.02760402531173143 -0.0021565678418769153 0.009102427411227108 0.014397237733185127 0.002919016731367811 -0.00028750623317807687 -0.013056373633279533 -0.009592509794143902 0.011275705446393496 -0.006856088700008629 -0.0004016697244831305 -0.008559312110732749 -0.004117114749411748 -0.01012299253627626 0.011861408526680915 -0.010814130564353139
丢失|-0.009108514980215296 -0.005520029036502646 0.0003569097125246392 -0.020188633124018862 0.02760402531173143 -0.0021565678418769144 0.009102427411227108 0.014397237733185131 0.0029190167313678096 -0.000287506233178077 -0.013056373633279529 -0.009592509794143902 0.011275705446393496 -0.006856088700008629 -0.0004016697244831305 -0.008559312110732752 -0.0041171147494117495 -0.010122992536276257 0.011861408526680911 -0.010814130564353139
记载|-0.0091085149802153 -0.005520029036502649 0.0003569097125246391 -0.020188633124018876 0.02760402531173143 -0.0021565678418769135 0.0091024274112271 0.014397237733185134 0.002919016731367809 -0.000287506233178077 -0.013056373633279536 -0.009592509794143896 0.011275705446393496 -0.0068560887000086255 -0.0004016697244831306 -0.008559312110732745 -0.0041171147494117495 -0.010122992536276253 0.011861408526680916 -0.010814130564353142
代|-0.0091085149802153 -0.005520029036502646 0.0003569097125246391 -0.020188633124018862 0.02760402531173143 -0.0021565678418769135 0.009102427411227108 0.014397237733185134 0.002919016731367809 -0.000287506233178077 -0.013056373633279529 -0.009592509794143902 0.011275705446393496 -0.006856088700008628 -0.0004016697244831306 -0.008559312110732752 -0.0041171147494117495 -0.010122992536276253 0.011861408526680911 -0.010814130564353139
）|-0.0091085149802153 -0.005520029036502649 0.0003569097125246391 -0.020188633124018862 0.02760402531173143 -0.0021565678418769135 0.009102427411227108 0.014397237733185134 0.002919016731367809 -0.000287506233178077 -0.013056373633279529 -0.009592509794143899 0.011275705446393496 -0.0068560887000086255 -0.0004016697244831306 -0.008559312110732749 -0.0041171147494117495 -0.010122992536276253 0.011861408526680911 -0.010814130564353139
车票|-0.009108514980215296 -0.005520029036502646 0.0003569097125246392 -0.020188633124018862 0.02760402531173143 -0.0021565678418769144 0.009102427411227108 0.014397237733185127 0.002919016731367811 -0.00028750623317807687 -0.013056373633279529 -0.009592509794143902 0.011275705446393496 -0.006856088700008629 -0.0004016697244831305 -0.008559312110732749 -0.0041171147494117495 -0.01012299253627626 0.011861408526680915 -0.010814130564353139
在|-0.009108514980215296 -0.005520029036502646 0.0003569097125246392 -0.020188633124018862 0.02760402531173143 -0.0021565678418769144 0.009102427411227108 0.014397237733185127 0.002919016731367811 -0.00028750623317807687 -0.013056373633279529 -0.009592509794143902 0.011275705446393496 -0.006856088700008629 -0.0004016697244831305 -0.008559312110732752 -0.0041171147494117495 -0.01012299253627626 0.011861408526680915 -0.010814130564353139
不符|-0.009108514980215296 -0.005520029036502646 0.0003569097125246391 -0.020188633124018862 0.027604025311731423 -0.0021565678418769144 0.009102427411227108 0.014397237733185127 0.002919016731367811 -0.00028750623317807687 -0.013056373633279529 -0.009592509794143902 0.011275705446393492 -0.006856088700008629 -0.0004016697244831306 -0.008559312110732752 -0.0041171147494117495 -0.01012299253627626 0.011861408526680911 -0.010814130564353139
为了|-0.0091085149802153 -0.005520029036502647 0.00035690971252463926 -0.02018863312401887 0.02760402531173143 -0.0021565678418769135 0.009102427411227104 0.014397237733185131 0.002919016731367809 -0.00028750623317807687 -0.013056373633279533 -0.009592509794143897 0.011275705446393499 -0.006856088700008627 -0.0004016697244831304 -0.008559312110732745 -0.004117114749411748 -0.010122992536276257 0.011861408526680915 -0.010814130564353142
（|-0.0091085149802153 -0.005520029036502646 0.0003569097125246391 -0.020188633124018862 0.02760402531173143 -0.0021565678418769135 0.009102427411227108 0.014397237733185133 0.002919016731367809 -0.000287506233178077 -0.013056373633279529 -0.009592509794143899 0.011275705446393496 -0.006856088700008627 -0.0004016697244831306 -0.008559312110732752 -0.0041171147494117495 -0.010122992536276253 0.011861408526680911 -0.010814130564353139
进站|-0.0091085149802153 -0.005520029036502646 0.0003569097125246391 -0.020188633124018862 0.02760402531173143 -0.0021565678418769144 0.009102427411227108 0.014397237733185127 0.002919016731367811 -0.00028750623317807687 -0.013056373633279529 -0.009592509794143902 0.011275705446393496 -0.006856088700008629 -0.0004016697244831305 -0.008559312110732752 -0.0041171147494117495 -0.01012299253627626 0.011861408526680915 -0.010814130564353139
时|-0.009108514980215296 -0.005520029036502646 0.0003569097125246392 -0.020188633124018862 0.02760402531173143 -0.0021565678418769144 0.009102427411227108 0.014397237733185127 0.002919016731367811 -0.00028750623317807687 -0.013056373633279529 -0.009592509794143902 0.011275705446393496 -0.006856088700008629 -0.0004016697244831305 -0.00855931211073275 -0.0041171147494117495 -0.01012299253627626 0.011861408526680915 -0.010814130564353139
两地|-0.0091085149802153 -0.005520029036502646 0.0003569097125246391 -0.020188633124018862 0.02760402531173143 -0.0021565678418769144 0.009102427411227108 0.014397237733185134 0.002919016731367809 -0.000287506233178077 -0.013056373633279529 -0.009592509794143902 0.011275705446393496 -0.006856088700008629 -0.0004016697244831305 -0.008559312110732752 -0.0041171147494117495 -0.010122992536276257 0.011861408526680911 -0.010814130564353139
往返票|-0.0091085149802153 -0.005520029036502646 0.0003569097125246392 -0.020188633124018862 0.027604025311731423 -0.0021565678418769153 0.009102427411227108 0.014397237733185131 0.002919016731367809 -0.000287506233178077 -0.013056373633279529 -0.009592509794143902 0.011275705446393492 -0.006856088700008629 -0.0004016697244831305 -0.008559312110732752 -0.004117114749411751 -0.010122992536276253 0.011861408526680911 -0.010814130564353139
非|-0.009108514980215296 -0.005520029036502646 0.0003569097125246392 -0.020188633124018862 0.02760402531173143 -0.0021565678418769144 0.009102427411227108 0.01439723773318513 0.002919016731367811 -0.00028750623317807687 -0.013056373633279533 -0.009592509794143899 0.011275705446393496 -0.006856088700008629 -0.0004016697244831305 -0.008559312110732749 -0.0041171147494117495 -0.010122992536276257 0.011861408526680915 -0.010814130564353139
收货人|-0.0091085149802153 -0.005520029036502646 0.0003569097125246391 -0.020188633124018862 0.02760402531173143 -0.0021565678418769144 0.009102427411227108 0.01439723773318513 0.002919016731367811 -0.00028750623317807687 -0.013056373633279529 -0.009592509794143902 0.011275705446393496 -0.006856088700008629 -0.0004016697244831304 -0.008559312110732752 -0.0041171147494117495 -0.01012299253627626 0.011861408526680911 -0.010814130564353139
需|-0.0091085149802153 -0.005520029036502646 0.0003569097125246391 -0.020188633124018862 0.02760402531173143 -0.0021565678418769144 0.009102427411227108 0.014397237733185127 0.0029190167313678096 -0.000287506233178077 -0.013056373633279529 -0.009592509794143902 0.011275705446393496 -0.006856088700008629 -0.0004016697244831304 -0.008559312110732752 -0.0041171147494117495 -0.01012299253627626 0.011861408526680911 -0.010814130564353139
订|-0.0091085149802153 -0.005520029036502646 0.0003569097125246391 -0.020188633124018862 0.02760402531173143 -0.0021565678418769144 0.009102427411227108 0.014397237733185127 0.00291901673136781 -0.000287506233178077 -0.013056373633279529 -0.009592509794143902 0.011275705446393496 -0.006856088700008629 -0.0004016697244831304 -0.008559312110732752 -0.0041171147494117495 -0.010122992536276257 0.011861408526680911 -0.010814130564353139
做些|-0.0091085149802153 -0.005520029036502648 0.0003569097125246393 -0.020188633124018862 0.02760402531173143 -0.0021565678418769135 0.0091024274112271 0.014397237733185127 0.002919016731367809 -0.00028750623317807676 -0.013056373633279536 -0.009592509794143899 0.011275705446393499 -0.0068560887000086255 -0.0004016697244831304 -0.008559312110732749 -0.004117114749411748 -0.010122992536276253 0.011861408526680918 -0.010814130564353139
检票|-0.0091085149802153 -0.005520029036502646 0.0003569097125246392 -0.020188633124018862 0.02760402531173143 -0.0021565678418769144 0.009102427411227108 0.014397237733185127 0.0029190167313678105 -0.00028750623317807687 -0.013056373633279533 -0.009592509794143902 0.011275705446393496 -0.006856088700008629 -0.0004016697244831305 -0.008559312110732752 -0.0041171147494117495 -0.010122992536276259 0.011861408526680915 -0.010814130564353139
票|-0.0091085149802153 -0.005520029036502646 0.0003569097125246392 -0.020188633124018862 0.02760402531173143 -0.0021565678418769144 0.009102427411227108 0.014397237733185127 0.00291901673136781 -0.00028750623317807687 -0.013056373633279529 -0.009592509794143902 0.011275705446393496 -0.006856088700008629 -0.0004016697244831305 -0.008559312110732752 -0.0041171147494117495 -0.010122992536276257 0.011861408526680911 -0.010814130564353139
车厢|-0.0091085149802153 -0.005520029036502646 0.0003569097125246391 -0.020188633124018862 0.027604025311731423 -0.0021565678418769144 0.009102427411227108 0.014397237733185127 0.002919016731367811 -0.00028750623317807687 -0.013056373633279529 -0.009592509794143902 0.011275705446393492 -0.006856088700008629 -0.0004016697244831306 -0.008559312110732752 -0.004117114749411751 -0.01012299253627626 0.011861408526680911 -0.010814130564353139
商务|-0.0091085149802153 -0.005520029036502646 0.0003569097125246391 -0.020188633124018862 0.02760402531173143 -0.0021565678418769144 0.009102427411227108 0.014397237733185127 0.002919016731367811 -0.000287506233178077 -0.013056373633279529 -0.009592509794143902 0.011275705446393494 -0.006856088700008629 -0.0004016697244831304 -0.008559312110732752 -0.004117114749411751 -0.010122992536276257 0.011861408526680911 -0.010814130564353139
订票|-0.0091085149802153 -0.005520029036502646 0.0003569097125246392 -0.020188633124018862 0.02760402531173143 -0.0021565678418769144 0.009102427411227108 0.014397237733185127 0.0029190167313678096 -0.000287506233178077 -0.013056373633279529 -0.009592509794143902 0.011275705446393496 -0.006856088700008629 -0.0004016697244831305 -0.008559312110732752 -0.0041171147494117495 -0.010122992536276257 0.011861408526680911 -0.010814130564353139
补签|-0.0091085149802153 -0.005520029036502646 0.0003569097125246392 -0.020188633124018862 0.027604025311731423 -0.0021565678418769153 0.009102427411227108 0.014397237733185127 0.002919016731367811 -0.00028750623317807687 -0.013056373633279529 -0.009592509794143902 0.011275705446393492 -0.006856088700008629 -0.0004016697244831305 -0.008559312110732752 -0.0041171147494117495 -0.01012299253627626 0.011861408526680911 -0.010814130564353139
饮食习惯|-0.0091085149802153 -0.005520029036502646 0.0003569097125246391 -0.020188633124018862 0.02760402531173143 -0.0021565678418769144 0.009102427411227108 0.014397237733185127 0.0029190167313678096 -0.000287506233178077 -0.013056373633279529 -0.009592509794143902 0.011275705446393496 -0.006856088700008629 -0.0004016697244831304 -0.008559312110732752 -0.004117114749411751 -0.010122992536276257 0.011861408526680911 -0.010814130564353139
盲人|-0.0091085149802153 -0.005520029036502646 0.0003569097125246393 -0.020188633124018862 0.02760402531173143 -0.0021565678418769153 0.009102427411227108 0.014397237733185127 0.00291901673136781 -0.00028750623317807676 -0.013056373633279529 -0.009592509794143902 0.011275705446393496 -0.006856088700008629 -0.0004016697244831304 -0.008559312110732752 -0.0041171147494117495 -0.010122992536276257 0.011861408526680915 -0.010814130564353139
了|-0.0091085149802153 -0.005520029036502646 0.0003569097125246392 -0.020188633124018862 0.02760402531173143 -0.0021565678418769144 0.009102427411227108 0.01439723773318513 0.00291901673136781 -0.000287506233178077 -0.013056373633279529 -0.009592509794143902 0.011275705446393496 -0.006856088700008629 -0.0004016697244831304 -0.008559312110732752 -0.0041171147494117495 -0.010122992536276257 0.011861408526680911 -0.010814130564353139
赔偿|-0.0091085149802153 -0.005520029036502646 0.0003569097125246393 -0.020188633124018862 0.02760402531173143 -0.0021565678418769144 0.009102427411227108 0.014397237733185131 0.00291901673136781 -0.00028750623317807676 -0.013056373633279533 -0.009592509794143902 0.011275705446393496 -0.006856088700008629 -0.0004016697244831304 -0.008559312110732752 -0.0041171147494117495 -0.010122992536276257 0.011861408526680915 -0.010814130564353139
儿童票|-0.0091085149802153 -0.005520029036502646 0.0003569097125246393 -0.020188633124018862 0.02760402531173143 -0.0021565678418769144 0.009102427411227108 0.014397237733185131 0.002919016731367809 -0.000287506233178077 -0.013056373633279529 -0.009592509794143902 0.011275705446393496 -0.006856088700008629 -0.0004016697244831304 -0.008559312110732752 -0.0041171147494117495 -0.010122992536276257 0.011861408526680911 -0.010814130564353139
享受|-0.0091085149802153 -0.005520029036502646 0.0003569097125246391 -0.020188633124018862 0.02760402531173143 -0.0021565678418769144 0.009102427411227108 0.014397237733185131 0.002919016731367811 -0.00028750623317807687 -0.013056373633279529 -0.009592509794143902 0.011275705446393496 -0.006856088700008629 -0.0004016697244831305 -0.008559312110732752 -0.0041171147494117495 -0.010122992536276257 0.011861408526680911 -0.010814130564353139
改签|-0.0091085149802153 -0.005520029036502646 0.0003569097125246391 -0.020188633124018862 0.02760402531173143 -0.0021565678418769144 0.009102427411227108 0.01439723773318513 0.002919016731367811 -0.00028750623317807687 -0.013056373633279529 -0.009592509794143902 0.011275705446393496 -0.006856088700008629 -0.0004016697244831305 -0.008559312110732752 -0.0041171147494117495 -0.01012299253627626 0.011861408526680911 -0.010814130564353139
我|-0.009108514980215296 -0.005520029036502646 0.0003569097125246393 -0.020188633124018862 0.02760402531173143 -0.0021565678418769144 0.009102427411227108 0.014397237733185134 0.00291901673136781 -0.00028750623317807687 -0.013056373633279529 -0.009592509794143902 0.011275705446393496 -0.006856088700008629 -0.0004016697244831305 -0.008559312110732752 -0.0041171147494117495 -0.010122992536276257 0.011861408526680911 -0.010814130564353139
发现|-0.009108514980215296 -0.005520029036502646 0.0003569097125246391 -0.020188633124018862 0.02760402531173143 -0.0021565678418769144 0.009102427411227108 0.01439723773318513 0.002919016731367811 -0.00028750623317807687 -0.013056373633279529 -0.009592509794143902 0.011275705446393496 -0.006856088700008629 -0.0004016697244831305 -0.008559312110732752 -0.0041171147494117495 -0.01012299253627626 0.011861408526680913 -0.010814130564353139
运到|-0.009108514980215296 -0.005520029036502646 0.0003569097125246393 -0.020188633124018862 0.02760402531173143 -0.0021565678418769153 0.009102427411227108 0.014397237733185127 0.002919016731367811 -0.00028750623317807687 -0.013056373633279529 -0.009592509794143902 0.011275705446393496 -0.006856088700008629 -0.0004016697244831304 -0.008559312110732752 -0.0041171147494117495 -0.01012299253627626 0.011861408526680911 -0.010814130564353139
帮别人|-0.009108514980215296 -0.005520029036502646 0.0003569097125246393 -0.020188633124018862 0.02760402531173143 -0.0021565678418769144 0.009102427411227108 0.014397237733185134 0.0029190167313678105 -0.000287506233178077 -0.013056373633279529 -0.009592509794143902 0.011275705446393496 -0.006856088700008629 -0.0004016697244831304 -0.008559312110732752 -0.0041171147494117495 -0.010122992536276253 0.011861408526680911 -0.010814130564353139
闸机|-0.009108514980215296 -0.005520029036502646 0.0003569097125246393 -0.020188633124018862 0.02760402531173143 -0.002156567841876915 0.009102427411227108 0.014397237733185134 0.002919016731367811 -0.00028750623317807676 -0.013056373633279529 -0.009592509794143902 0.011275705446393496 -0.006856088700008629 -0.0004016697244831304 -0.008559312110732752 -0.0041171147494117495 -0.010122992536276255 0.011861408526680915 -0.010814130564353139
行李|-0.009108514980215296 -0.005520029036502646 0.0003569097125246392 -0.020188633124018866 0.02760402531173143 -0.0021565678418769144 0.009102427411227108 0.014397237733185127 0.002919016731367811 -0.00028750623317807687 -0.013056373633279533 -0.009592509794143899 0.011275705446393496 -0.006856088700008629 -0.0004016697244831305 -0.008559312110732749 -0.0041171147494117495 -0.01012299253627626 0.011861408526680915 -0.010814130564353142
信息|-0.009108514980215296 -0.005520029036502646 0.0003569097125246392 -0.020188633124018862 0.02760402531173143 -0.0021565678418769144 0.009102427411227108 0.014397237733185134 0.00291901673136781 -0.000287506233178077 -0.013056373633279529 -0.009592509794143902 0.011275705446393496 -0.006856088700008629 -0.0004016697244831305 -0.008559312110732752 -0.0041171147494117495 -0.010122992536276257 0.011861408526680911 -0.010814130564353139
种类|-0.009108514980215296 -0.005520029036502646 0.0003569097125246392 -0.020188633124018862 0.027604025311731423 -0.0021565678418769153 0.009102427411227108 0.014397237733185134 0.002919016731367811 -0.000287506233178077 -0.013056373633279529 -0.009592509794143902 0.011275705446393492 -0.006856088700008629 -0.00040166972448313045 -0.008559312110732752 -0.004117114749411751 -0.010122992536276257 0.011861408526680911 -0.010814130564353139
推出|-0.009108514980215296 -0.005520029036502646 0.0003569097125246393 -0.020188633124018862 0.02760402531173143 -0.0021565678418769153 0.009102427411227108 0.014397237733185134 0.002919016731367811 -0.00028750623317807687 -0.013056373633279529 -0.009592509794143902 0.011275705446393496 -0.006856088700008629 -0.0004016697244831304 -0.008559312110732752 -0.0041171147494117495 -0.010122992536276257 0.011861408526680911 -0.01081413056435314
误购|-0.009108514980215296 -0.005520029036502646 0.0003569097125246392 -0.020188633124018862 0.02760402531173143 -0.002156567841876915 0.009102427411227108 0.014397237733185131 0.002919016731367811 -0.00028750623317807687 -0.013056373633279529 -0.009592509794143902 0.011275705446393496 -0.006856088700008629 -0.0004016697244831305 -0.008559312110732752 -0.0041171147494117495 -0.01012299253627626 0.011861408526680911 -0.010814130564353139
情况|-0.009108514980215296 -0.005520029036502646 0.0003569097125246392 -0.020188633124018862 0.02760402531173143 -0.0021565678418769144 0.009102427411227108 0.014397237733185131 0.002919016731367811 -0.00028750623317807687 -0.013056373633279529 -0.009592509794143902 0.011275705446393496 -0.006856088700008629 -0.0004016697244831305 -0.00855931211073275 -0.0041171147494117495 -0.01012299253627626 0.011861408526680911 -0.010814130564353139
多次|-0.009108514980215296 -0.005520029036502646 0.0003569097125246393 -0.020188633124018862 0.02760402531173143 -0.0021565678418769153 0.009102427411227108 0.014397237733185134 0.002919016731367811 -0.00028750623317807687 -0.013056373633279529 -0.009592509794143902 0.011275705446393496 -0.006856088700008629 -0.0004016697244831304 -0.008559312110732749 -0.0041171147494117495 -0.010122992536276257 0.011861408526680911 -0.010814130564353142
军人|-0.009108514980215296 -0.005520029036502646 0.0003569097125246393 -0.020188633124018862 0.02760402531173143 -0.0021565678418769153 0.009102427411227108 0.014397237733185133 0.002919016731367811 -0.00028750623317807687 -0.013056373633279529 -0.009592509794143902 0.011275705446393496 -0.006856088700008629 -0.0004016697244831304 -0.008559312110732749 -0.0041171147494117495 -0.010122992536276257 0.011861408526680911 -0.010814130564353142
物品|-0.009108514980215296 -0.005520029036502646 0.0003569097125246392 -0.020188633124018862 0.02760402531173143 -0.0021565678418769144 0.009102427411227108 0.014397237733185131 0.002919016731367811 -0.00028750623317807687 -0.013056373633279529 -0.009592509794143902 0.011275705446393496 -0.006856088700008629 -0.0004016697244831305 -0.008559312110732749 -0.0041171147494117495 -0.01012299253627626 0.011861408526680911 -0.010814130564353139
中铁|-0.009108514980215294 -0.005520029036502646 0.0003569097125246392 -0.020188633124018862 0.02760402531173143 -0.0021565678418769144 0.009102427411227108 0.014397237733185134 0.002919016731367811 -0.000287506233178077 -0.013056373633279529 -0.009592509794143902 0.011275705446393496 -0.006856088700008629 -0.0004016697244831305 -0.008559312110732749 -0.004117114749411751 -0.010122992536276257 0.011861408526680911 -0.010814130564353146
二等|-0.009108514980215292 -0.005520029036502646 0.0003569097125246393 -0.020188633124018862 0.02760402531173143 -0.0021565678418769144 0.009102427411227108 0.014397237733185134 0.002919016731367811 -0.000287506233178077 -0.013056373633279529 -0.009592509794143902 0.011275705446393496 -0.006856088700008629 -0.0004016697244831306 -0.008559312110732749 -0.004117114749411751 -0.010122992536276257 0.011861408526680911 -0.010814130564353146
可以|-0.009108514980215294 -0.005520029036502646 0.0003569097125246392 -0.020188633124018862 0.02760402531173143 -0.0021565678418769144 0.009102427411227108 0.014397237733185131 0.002919016731367811 -0.00028750623317807687 -0.013056373633279529 -0.009592509794143902 0.011275705446393496 -0.006856088700008629 -0.0004016697244831305 -0.008559312110732749 -0.0041171147494117495 -0.01012299253627626 0.011861408526680915 -0.010814130564353142
原因|-0.009108514980215292 -0.005520029036502646 0.0003569097125246393 -0.020188633124018862 0.02760402531173143 -0.0021565678418769153 0.009102427411227108 0.014397237733185131 0.002919016731367811 -0.00028750623317807687 -0.013056373633279529 -0.009592509794143902 0.011275705446393496 -0.006856088700008629 -0.0004016697244831304 -0.008559312110732749 -0.0041171147494117495 -0.01012299253627626 0.011861408526680915 -0.010814130564353142
怎样|-0.009108514980215294 -0.005520029036502646 0.0003569097125246393 -0.020188633124018862 0.02760402531173143 -0.0021565678418769144 0.009102427411227108 0.014397237733185133 0.00291901673136781 -0.00028750623317807687 -0.013056373633279529 -0.009592509794143902 0.011275705446393496 -0.006856088700008629 -0.0004016697244831304 -0.008559312110732749 -0.0041171147494117495 -0.010122992536276257 0.011861408526680913 -0.010814130564353142
硬座|-0.009108514980215296 -0.005520029036502646 0.0003569097125246393 -0.020188633124018862 0.02760402531173143 -0.0021565678418769144 0.009102427411227108 0.014397237733185134 0.00291901673136781 -0.000287506233178077 -0.013056373633279529 -0.009592509794143902 0.011275705446393496 -0.006856088700008629 -0.0004016697244831305 -0.008559312110732747 -0.0041171147494117495 -0.010122992536276257 0.011861408526680911 -0.010814130564353146
期限内|-0.009108514980215296 -0.005520029036502646 0.0003569097125246393 -0.020188633124018862 0.027604025311731423 -0.0021565678418769153 0.009102427411227108 0.014397237733185134 0.00291901673136781 -0.00028750623317807687 -0.013056373633279529 -0.009592509794143902 0.011275705446393496 -0.006856088700008629 -0.0004016697244831304 -0.008559312110732745 -0.0041171147494117495 -0.010122992536276257 0.011861408526680911 -0.010814130564353142
有|-0.009108514980215296 -0.0055200290365026465 0.0003569097125246392 -0.02018863312401887 0.027604025311731437 -0.0021565678418769135 0.009102427411227104 0.014397237733185131 0.0029190167313678105 -0.00028750623317807687 -0.013056373633279533 -0.009592509794143899 0.011275705446393499 -0.006856088700008627 -0.0004016697244831304 -0.008559312110732745 -0.004117114749411748 -0.010122992536276257 0.011861408526680915 -0.010814130564353142
需要|-0.009108514980215296 -0.005520029036502646 0.0003569097125246392 -0.020188633124018862 0.02760402531173143 -0.0021565678418769144 0.009102427411227108 0.014397237733185133 0.002919016731367811 -0.00028750623317807687 -0.013056373633279529 -0.009592509794143902 0.011275705446393496 -0.006856088700008629 -0.0004016697244831305 -0.008559312110732745 -0.0041171147494117495 -0.01012299253627626 0.011861408526680915 -0.010814130564353142
保管|-0.009108514980215296 -0.005520029036502646 0.0003569097125246393 -0.020188633124018862 0.02760402531173143 -0.0021565678418769144 0.009102427411227108 0.014397237733185134 0.002919016731367811 -0.00028750623317807687 -0.013056373633279529 -0.0095925097941439 0.011275705446393496 -0.006856088700008629 -0.0004016697244831304 -0.008559312110732745 -0.0041171147494117495 -0.01012299253627626 0.011861408526680911 -0.010814130564353142
时候|-0.009108514980215296 -0.005520029036502646 0.00035690971252463915 -0.020188633124018862 0.02760402531173143 -0.0021565678418769144 0.009102427411227108 0.014397237733185133 0.00291901673136781 -0.000287506233178077 -0.013056373633279529 -0.009592509794143899 0.011275705446393496 -0.006856088700008629 -0.0004016697244831305 -0.008559312110732745 -0.0041171147494117495 -0.010122992536276257 0.011861408526680911 -0.010814130564353146
通票|-0.009108514980215296 -0.005520029036502646 0.0003569097125246392 -0.020188633124018862 0.02760402531173143 -0.0021565678418769144 0.009102427411227108 0.014397237733185131 0.00291901673136781 -0.00028750623317807687 -0.013056373633279533 -0.009592509794143899 0.011275705446393496 -0.006856088700008629 -0.0004016697244831305 -0.008559312110732745 -0.0041171147494117495 -0.010122992536276257 0.011861408526680915 -0.010814130564353142
餐食|-0.009108514980215296 -0.005520029036502646 0.0003569097125246392 -0.020188633124018862 0.02760402531173143 -0.0021565678418769144 0.009102427411227108 0.014397237733185131 0.002919016731367809 -0.000287506233178077 -0.013056373633279533 -0.009592509794143899 0.011275705446393496 -0.006856088700008629 -0.0004016697244831304 -0.008559312110732745 -0.004117114749411751 -0.010122992536276257 0.011861408526680911 -0.010814130564353146
无人售票|-0.009108514980215296 -0.005520029036502646 0.0003569097125246393 -0.020188633124018862 0.02760402531173143 -0.002156567841876915 0.009102427411227108 0.014397237733185131 0.002919016731367809 -0.000287506233178077 -0.013056373633279533 -0.009592509794143899 0.011275705446393496 -0.006856088700008629 -0.00040166972448313045 -0.008559312110732745 -0.0041171147494117495 -0.010122992536276257 0.011861408526680911 -0.010814130564353146
惠|-0.009108514980215296 -0.005520029036502646 0.0003569097125246393 -0.020188633124018862 0.02760402531173143 -0.002156567841876915 0.009102427411227108 0.014397237733185131 0.002919016731367809 -0.000287506233178077 -0.013056373633279533 -0.009592509794143899 0.011275705446393496 -0.006856088700008629 -0.0004016697244831304 -0.008559312110732745 -0.0041171147494117495 -0.010122992536276257 0.011861408526680911 -0.010814130564353146
团体|-0.009108514980215296 -0.005520029036502646 0.0003569097125246393 -0.020188633124018862 0.02760402531173143 -0.0021565678418769153 0.009102427411227108 0.014397237733185131 0.00291901673136781 -0.00028750623317807687 -0.013056373633279533 -0.009592509794143899 0.011275705446393496 -0.006856088700008629 -0.0004016697244831304 -0.008559312110732745 -0.0041171147494117495 -0.010122992536276257 0.011861408526680911 -0.010814130564353146
票款|-0.009108514980215296 -0.005520029036502646 0.0003569097125246393 -0.020188633124018862 0.02760402531173143 -0.0021565678418769153 0.009102427411227108 0.014397237733185131 0.002919016731367809 -0.000287506233178077 -0.013056373633279533 -0.009592509794143899 0.011275705446393496 -0.006856088700008629 -0.0004016697244831304 -0.008559312110732745 -0.0041171147494117495 -0.010122992536276257 0.011861408526680911 -0.010814130564353146
特殊|-0.009108514980215296 -0.005520029036502646 0.0003569097125246392 -0.020188633124018866 0.02760402531173143 -0.0021565678418769144 0.009102427411227108 0.014397237733185131 0.002919016731367809 -0.000287506233178077 -0.013056373633279533 -0.009592509794143899 0.011275705446393496 -0.006856088700008629 -0.0004016697244831304 -0.008559312110732745 -0.00411711474941175 -0.010122992536276257 0.011861408526680911 -0.010814130564353146
承运人|-0.009108514980215296 -0.005520029036502646 0.0003569097125246393 -0.02018863312401887 0.02760402531173143 -0.0021565678418769153 0.009102427411227108 0.014397237733185131 0.002919016731367811 -0.00028750623317807687 -0.013056373633279533 -0.009592509794143899 0.011275705446393496 -0.006856088700008629 -0.0004016697244831304 -0.008559312110732745 -0.004117114749411751 -0.010122992536276257 0.011861408526680911 -0.010814130564353144
给|-0.009108514980215296 -0.005520029036502646 0.0003569097125246393 -0.02018863312401887 0.02760402531173143 -0.0021565678418769153 0.009102427411227108 0.014397237733185131 0.002919016731367809 -0.000287506233178077 -0.013056373633279533 -0.009592509794143897 0.011275705446393496 -0.006856088700008629 -0.0004016697244831304 -0.008559312110732745 -0.0041171147494117495 -0.010122992536276257 0.011861408526680911 -0.010814130564353146
减价|-0.009108514980215296 -0.005520029036502646 0.0003569097125246393 -0.02018863312401887 0.02760402531173143 -0.002156567841876915 0.009102427411227108 0.014397237733185131 0.00291901673136781 -0.00028750623317807687 -0.013056373633279533 -0.009592509794143896 0.011275705446393497 -0.006856088700008629 -0.0004016697244831304 -0.008559312110732745 -0.0041171147494117495 -0.010122992536276257 0.011861408526680911 -0.010814130564353146
承担责任|-0.009108514980215296 -0.005520029036502646 0.0003569097125246393 -0.02018863312401887 0.02760402531173143 -0.0021565678418769144 0.009102427411227108 0.014397237733185131 0.002919016731367811 -0.00028750623317807687 -0.013056373633279534 -0.009592509794143899 0.011275705446393499 -0.006856088700008629 -0.0004016697244831304 -0.008559312110732745 -0.0041171147494117495 -0.010122992536276257 0.011861408526680913 -0.010814130564353146
迁居|-0.009108514980215296 -0.005520029036502646 0.0003569097125246393 -0.02018863312401887 0.02760402531173143 -0.0021565678418769144 0.009102427411227108 0.014397237733185131 0.002919016731367809 -0.000287506233178077 -0.013056373633279536 -0.009592509794143896 0.011275705446393499 -0.006856088700008629 -0.0004016697244831304 -0.008559312110732745 -0.0041171147494117495 -0.010122992536276257 0.011861408526680915 -0.010814130564353146
临时|-0.009108514980215296 -0.005520029036502646 0.0003569097125246393 -0.02018863312401887 0.027604025311731433 -0.0021565678418769144 0.009102427411227108 0.014397237733185131 0.002919016731367809 -0.000287506233178077 -0.013056373633279536 -0.009592509794143896 0.011275705446393499 -0.006856088700008629 -0.0004016697244831304 -0.008559312110732745 -0.00411711474941175 -0.010122992536276257 0.011861408526680915 -0.010814130564353146
优惠|-0.009108514980215296 -0.005520029036502646 0.00035690971252463926 -0.020188633124018873 0.027604025311731437 -0.0021565678418769144 0.009102427411227108 0.014397237733185131 0.002919016731367809 -0.00028750623317807687 -0.013056373633279536 -0.009592509794143896 0.011275705446393499 -0.006856088700008629 -0.0004016697244831304 -0.008559312110732745 -0.0041171147494117495 -0.010122992536276257 0.011861408526680915 -0.010814130564353146
误乘时|-0.009108514980215296 -0.005520029036502646 0.0003569097125246392 -0.020188633124018876 0.027604025311731437 -0.0021565678418769144 0.009102427411227108 0.014397237733185131 0.00291901673136781 -0.000287506233178077 -0.013056373633279536 -0.009592509794143896 0.011275705446393499 -0.006856088700008629 -0.0004016697244831305 -0.008559312110732745 -0.0041171147494117495 -0.010122992536276257 0.011861408526680915 -0.010814130564353146
居民身份证|-0.009108514980215294 -0.005520029036502646 0.0003569097125246392 -0.02018863312401887 0.027604025311731437 -0.0021565678418769144 0.009102427411227108 0.014397237733185131 0.00291901673136781 -0.00028750623317807687 -0.013056373633279533 -0.009592509794143896 0.011275705446393499 -0.006856088700008627 -0.0004016697244831304 -0.008559312110732745 -0.0041171147494117495 -0.010122992536276257 0.011861408526680915 -0.010814130564353142
怎么办|-0.009108514980215296 -0.005520029036502646 0.0003569097125246392 -0.02018863312401887 0.027604025311731437 -0.0021565678418769144 0.009102427411227108 0.014397237733185131 0.00291901673136781 -0.00028750623317807687 -0.013056373633279533 -0.009592509794143896 0.011275705446393499 -0.006856088700008627 -0.0004016697244831305 -0.008559312110732745 -0.0041171147494117495 -0.010122992536276257 0.011861408526680915 -0.010814130564353144
必须|-0.009108514980215296 -0.0055200290365026465 0.0003569097125246391 -0.020188633124018876 0.027604025311731437 -0.0021565678418769135 0.009102427411227108 0.014397237733185131 0.002919016731367809 -0.000287506233178077 -0.013056373633279536 -0.009592509794143896 0.011275705446393499 -0.006856088700008627 -0.0004016697244831305 -0.008559312110732745 -0.0041171147494117495 -0.010122992536276257 0.011861408526680915 -0.010814130564353146
终了|-0.009108514980215292 -0.005520029036502647 0.0003569097125246392 -0.02018863312401887 0.027604025311731437 -0.0021565678418769135 0.009102427411227106 0.014397237733185131 0.002919016731367809 -0.000287506233178077 -0.013056373633279533 -0.009592509794143896 0.011275705446393499 -0.0068560887000086255 -0.0004016697244831304 -0.008559312110732745 -0.0041171147494117495 -0.010122992536276257 0.011861408526680915 -0.010814130564353146
造成|-0.009108514980215292 -0.005520029036502647 0.0003569097125246392 -0.020188633124018876 0.027604025311731437 -0.0021565678418769144 0.009102427411227104 0.014397237733185131 0.00291901673136781 -0.00028750623317807687 -0.013056373633279536 -0.009592509794143896 0.011275705446393499 -0.006856088700008627 -0.00040166972448313045 -0.008559312110732745 -0.0041171147494117495 -0.010122992536276257 0.011861408526680915 -0.010814130564353146
线路|-0.009108514980215292 -0.005520029036502647 0.0003569097125246392 -0.020188633124018876 0.027604025311731437 -0.0021565678418769144 0.009102427411227104 0.014397237733185131 0.00291901673136781 -0.000287506233178077 -0.013056373633279536 -0.009592509794143896 0.011275705446393499 -0.006856088700008627 -0.0004016697244831305 -0.008559312110732745 -0.0041171147494117495 -0.010122992536276257 0.011861408526680915 -0.010814130564353146
恢复|-0.009108514980215292 -0.005520029036502647 0.0003569097125246392 -0.020188633124018876 0.027604025311731437 -0.0021565678418769135 0.009102427411227104 0.014397237733185131 0.00291901673136781 -0.00028750623317807687 -0.013056373633279536 -0.009592509794143896 0.011275705446393499 -0.006856088700008627 -0.0004016697244831305 -0.008559312110732745 -0.0041171147494117495 -0.010122992536276257 0.011861408526680915 -0.010814130564353146
○|-0.009108514980215294 -0.005520029036502647 0.0003569097125246392 -0.020188633124018876 0.027604025311731437 -0.0021565678418769135 0.009102427411227104 0.014397237733185131 0.002919016731367809 -0.0002875062331780769 -0.013056373633279536 -0.009592509794143896 0.011275705446393499 -0.0068560887000086255 -0.0004016697244831305 -0.008559312110732745 -0.0041171147494117495 -0.010122992536276257 0.011861408526680915 -0.010814130564353146
核收|-0.009108514980215292 -0.005520029036502647 0.0003569097125246392 -0.020188633124018876 0.027604025311731437 -0.0021565678418769135 0.009102427411227104 0.014397237733185131 0.002919016731367809 -0.00028750623317807687 -0.013056373633279536 -0.009592509794143896 0.011275705446393499 -0.0068560887000086255 -0.0004016697244831305 -0.008559312110732745 -0.0041171147494117495 -0.010122992536276257 0.011861408526680915 -0.010814130564353146
出|-0.009108514980215292 -0.005520029036502648 0.0003569097125246392 -0.020188633124018876 0.027604025311731437 -0.0021565678418769135 0.009102427411227104 0.014397237733185131 0.002919016731367809 -0.000287506233178077 -0.013056373633279536 -0.009592509794143896 0.011275705446393499 -0.0068560887000086255 -0.0004016697244831305 -0.008559312110732745 -0.0041171147494117495 -0.010122992536276257 0.011861408526680916 -0.010814130564353146
直达|-0.009108514980215296 -0.005520029036502649 0.0003569097125246392 -0.020188633124018876 0.027604025311731437 -0.0021565678418769135 0.009102427411227104 0.014397237733185131 0.002919016731367809 -0.000287506233178077 -0.013056373633279536 -0.009592509794143896 0.011275705446393499 -0.0068560887000086255 -0.0004016697244831305 -0.008559312110732745 -0.0041171147494117495 -0.010122992536276257 0.011861408526680918 -0.010814130564353146
牡丹|-0.009108514980215296 -0.005520029036502649 0.0003569097125246392 -0.020188633124018876 0.027604025311731437 -0.0021565678418769135 0.009102427411227104 0.014397237733185131 0.002919016731367809 -0.000287506233178077 -0.013056373633279536 -0.009592509794143896 0.011275705446393499 -0.0068560887000086255 -0.0004016697244831305 -0.008559312110732745 -0.0041171147494117495 -0.010122992536276257 0.011861408526680918 -0.010814130564353146
验票|-0.009108514980215292 -0.005520029036502647 0.0003569097125246392 -0.02018863312401887 0.027604025311731437 -0.0021565678418769135 0.009102427411227104 0.014397237733185131 0.00291901673136781 -0.0002875062331780769 -0.013056373633279533 -0.009592509794143896 0.011275705446393499 -0.006856088700008627 -0.0004016697244831305 -0.008559312110732745 -0.0041171147494117495 -0.010122992536276259 0.011861408526680915 -0.010814130564353142
残疾|-0.009108514980215292 -0.005520029036502647 0.0003569097125246392 -0.020188633124018876 0.027604025311731437 -0.0021565678418769135 0.009102427411227104 0.014397237733185131 0.002919016731367809 -0.000287506233178077 -0.013056373633279536 -0.009592509794143896 0.011275705446393499 -0.0068560887000086255 -0.00040166972448313056 -0.008559312110732745 -0.0041171147494117495 -0.01012299253627626 0.011861408526680918 -0.010814130564353146
获取|-0.009108514980215296 -0.005520029036502647 0.0003569097125246392 -0.020188633124018876 0.027604025311731437 -0.0021565678418769135 0.009102427411227102 0.014397237733185131 0.002919016731367809 -0.000287506233178077 -0.013056373633279536 -0.009592509794143896 0.011275705446393499 -0.0068560887000086255 -0.0004016697244831305 -0.008559312110732745 -0.0041171147494117495 -0.01012299253627626 0.011861408526680918 -0.010814130564353144
人身|-0.009108514980215292 -0.005520029036502649 0.0003569097125246392 -0.020188633124018876 0.027604025311731437 -0.0021565678418769135 0.0091024274112271 0.014397237733185131 0.002919016731367809 -0.000287506233178077 -0.013056373633279536 -0.009592509794143896 0.011275705446393499 -0.0068560887000086255 -0.0004016697244831306 -0.008559312110732745 -0.004117114749411749 -0.01012299253627626 0.011861408526680918 -0.010814130564353142
误售|-0.009108514980215292 -0.005520029036502647 0.0003569097125246392 -0.020188633124018876 0.027604025311731437 -0.0021565678418769135 0.0091024274112271 0.014397237733185131 0.002919016731367809 -0.000287506233178077 -0.013056373633279536 -0.009592509794143896 0.011275705446393499 -0.0068560887000086255 -0.0004016697244831306 -0.008559312110732745 -0.004117114749411748 -0.01012299253627626 0.011861408526680918 -0.010814130564353142
父母|-0.009108514980215296 -0.005520029036502647 0.0003569097125246392 -0.020188633124018873 0.027604025311731437 -0.0021565678418769135 0.009102427411227102 0.014397237733185131 0.002919016731367809 -0.000287506233178077 -0.013056373633279536 -0.009592509794143896 0.011275705446393499 -0.0068560887000086255 -0.0004016697244831305 -0.008559312110732745 -0.004117114749411748 -0.01012299253627626 0.011861408526680916 -0.010814130564353142
超过|-0.009108514980215292 -0.005520029036502647 0.0003569097125246392 -0.020188633124018876 0.027604025311731437 -0.0021565678418769135 0.0091024274112271 0.014397237733185131 0.002919016731367809 -0.000287506233178077 -0.013056373633279536 -0.009592509794143896 0.011275705446393499 -0.0068560887000086255 -0.0004016697244831305 -0.008559312110732745 -0.004117114749411748 -0.01012299253627626 0.011861408526680918 -0.010814130564353142
价格|-0.009108514980215292 -0.005520029036502647 0.0003569097125246392 -0.020188633124018876 0.027604025311731437 -0.0021565678418769135 0.0091024274112271 0.014397237733185131 0.0029190167313678096 -0.000287506233178077 -0.013056373633279534 -0.009592509794143896 0.011275705446393499 -0.0068560887000086255 -0.0004016697244831305 -0.008559312110732745 -0.004117114749411748 -0.01012299253627626 0.011861408526680918 -0.010814130564353142
证件|-0.009108514980215296 -0.005520029036502647 0.0003569097125246392 -0.020188633124018876 0.027604025311731437 -0.0021565678418769135 0.0091024274112271 0.014397237733185131 0.00291901673136781 -0.000287506233178077 -0.013056373633279533 -0.009592509794143896 0.011275705446393499 -0.0068560887000086255 -0.0004016697244831305 -0.008559312110732745 -0.004117114749411748 -0.01012299253627626 0.011861408526680918 -0.010814130564353142
一等|-0.009108514980215296 -0.005520029036502647 0.0003569097125246392 -0.020188633124018876 0.027604025311731437 -0.0021565678418769135 0.0091024274112271 0.014397237733185131 0.00291901673136781 -0.000287506233178077 -0.013056373633279533 -0.009592509794143896 0.011275705446393499 -0.0068560887000086255 -0.0004016697244831305 -0.008559312110732745 -0.004117114749411748 -0.01012299253627626 0.011861408526680918 -0.010814130564353142
导盲犬|-0.009108514980215292 -0.005520029036502647 0.0003569097125246392 -0.020188633124018873 0.027604025311731437 -0.0021565678418769135 0.0091024274112271 0.014397237733185133 0.00291901673136781 -0.000287506233178077 -0.013056373633279533 -0.009592509794143896 0.011275705446393499 -0.0068560887000086255 -0.0004016697244831305 -0.008559312110732745 -0.004117114749411748 -0.01012299253627626 0.011861408526680918 -0.010814130564353142
身份证件|-0.009108514980215296 -0.005520029036502647 0.0003569097125246392 -0.02018863312401887 0.027604025311731437 -0.0021565678418769135 0.009102427411227104 0.014397237733185131 0.00291901673136781 -0.0002875062331780769 -0.013056373633279533 -0.009592509794143896 0.011275705446393499 -0.006856088700008627 -0.0004016697244831305 -0.008559312110732745 -0.004117114749411748 -0.01012299253627626 0.011861408526680915 -0.010814130564353142
未|-0.009108514980215292 -0.005520029036502647 0.0003569097125246392 -0.02018863312401887 0.027604025311731437 -0.0021565678418769135 0.0091024274112271 0.014397237733185131 0.00291901673136781 -0.000287506233178077 -0.013056373633279533 -0.009592509794143896 0.011275705446393499 -0.0068560887000086255 -0.0004016697244831305 -0.008559312110732745 -0.004117114749411748 -0.01012299253627626 0.011861408526680918 -0.010814130564353142
香烟|-0.009108514980215294 -0.005520029036502646 0.0003569097125246392 -0.02018863312401887 0.027604025311731437 -0.0021565678418769135 0.009102427411227104 0.014397237733185131 0.00291901673136781 -0.00028750623317807687 -0.013056373633279533 -0.009592509794143896 0.011275705446393499 -0.006856088700008627 -0.00040166972448313045 -0.008559312110732745 -0.004117114749411748 -0.01012299253627626 0.011861408526680915 -0.010814130564353142
电子客票|-0.009108514980215292 -0.005520029036502647 0.0003569097125246392 -0.02018863312401887 0.027604025311731437 -0.0021565678418769135 0.009102427411227102 0.014397237733185134 0.00291901673136781 -0.000287506233178077 -0.013056373633279533 -0.009592509794143896 0.011275705446393499 -0.006856088700008626 -0.0004016697244831305 -0.008559312110732745 -0.004117114749411748 -0.01012299253627626 0.011861408526680915 -0.010814130564353142
伤残|-0.009108514980215292 -0.005520029036502647 0.0003569097125246393 -0.02018863312401887 0.027604025311731437 -0.0021565678418769135 0.0091024274112271 0.014397237733185134 0.00291901673136781 -0.000287506233178077 -0.013056373633279533 -0.009592509794143896 0.011275705446393499 -0.0068560887000086255 -0.0004016697244831305 -0.008559312110732745 -0.004117114749411748 -0.01012299253627626 0.011861408526680915 -0.010814130564353142
上能|-0.009108514980215296 -0.005520029036502647 0.0003569097125246392 -0.02018863312401887 0.027604025311731437 -0.0021565678418769135 0.009102427411227104 0.014397237733185131 0.00291901673136781 -0.000287506233178077 -0.013056373633279533 -0.009592509794143896 0.011275705446393499 -0.006856088700008627 -0.0004016697244831305 -0.008559312110732747 -0.004117114749411748 -0.01012299253627626 0.011861408526680915 -0.010814130564353142
现金支付|-0.009108514980215292 -0.005520029036502647 0.0003569097125246393 -0.02018863312401887 0.027604025311731437 -0.0021565678418769135 0.0091024274112271 0.014397237733185134 0.00291901673136781 -0.000287506233178077 -0.013056373633279533 -0.009592509794143896 0.011275705446393499 -0.0068560887000086255 -0.0004016697244831305 -0.008559312110732749 -0.004117114749411748 -0.010122992536276259 0.011861408526680915 -0.010814130564353142
允许|-0.009108514980215296 -0.005520029036502647 0.0003569097125246393 -0.02018863312401887 0.027604025311731437 -0.0021565678418769135 0.0091024274112271 0.014397237733185131 0.00291901673136781 -0.000287506233178077 -0.013056373633279533 -0.009592509794143896 0.011275705446393499 -0.0068560887000086255 -0.0004016697244831305 -0.008559312110732749 -0.004117114749411748 -0.01012299253627626 0.011861408526680915 -0.010814130564353142
收款|-0.009108514980215292 -0.005520029036502647 0.0003569097125246393 -0.02018863312401887 0.027604025311731433 -0.0021565678418769135 0.0091024274112271 0.014397237733185131 0.00291901673136781 -0.000287506233178077 -0.013056373633279533 -0.009592509794143896 0.011275705446393497 -0.0068560887000086255 -0.0004016697244831305 -0.008559312110732747 -0.004117114749411748 -0.010122992536276257 0.011861408526680915 -0.010814130564353142
票价|-0.009108514980215296 -0.005520029036502647 0.0003569097125246393 -0.02018863312401887 0.02760402531173143 -0.0021565678418769135 0.0091024274112271 0.014397237733185131 0.00291901673136781 -0.000287506233178077 -0.013056373633279533 -0.009592509794143896 0.011275705446393496 -0.0068560887000086255 -0.0004016697244831305 -0.008559312110732745 -0.004117114749411748 -0.010122992536276257 0.011861408526680915 -0.010814130564353142
买|-0.009108514980215292 -0.005520029036502647 0.0003569097125246393 -0.02018863312401887 0.02760402531173143 -0.0021565678418769135 0.0091024274112271 0.014397237733185134 0.00291901673136781 -0.000287506233178077 -0.013056373633279533 -0.009592509794143896 0.011275705446393496 -0.0068560887000086255 -0.0004016697244831305 -0.008559312110732745 -0.004117114749411748 -0.010122992536276257 0.011861408526680915 -0.010814130564353142
运输|-0.009108514980215296 -0.005520029036502647 0.0003569097125246393 -0.02018863312401887 0.02760402531173143 -0.0021565678418769135 0.0091024274112271 0.014397237733185131 0.0029190167313678105 -0.000287506233178077 -0.013056373633279533 -0.009592509794143897 0.011275705446393496 -0.0068560887000086255 -0.0004016697244831305 -0.008559312110732749 -0.004117114749411749 -0.01012299253627626 0.011861408526680915 -0.010814130564353142
中断|-0.009108514980215292 -0.005520029036502647 0.0003569097125246393 -0.02018863312401887 0.02760402531173143 -0.0021565678418769135 0.0091024274112271 0.014397237733185131 0.002919016731367811 -0.000287506233178077 -0.013056373633279533 -0.009592509794143899 0.011275705446393496 -0.0068560887000086255 -0.0004016697244831305 -0.008559312110732749 -0.0041171147494117495 -0.01012299253627626 0.011861408526680915 -0.010814130564353142
旅行|-0.009108514980215292 -0.005520029036502647 0.0003569097125246393 -0.02018863312401887 0.02760402531173143 -0.0021565678418769135 0.0091024274112271 0.014397237733185131 0.00291901673136781 -0.000287506233178077 -0.013056373633279533 -0.009592509794143899 0.011275705446393496 -0.006856088700008626 -0.00040166972448313045 -0.008559312110732745 -0.0041171147494117495 -0.010122992536276257 0.011861408526680915 -0.010814130564353142
换取|-0.009108514980215296 -0.005520029036502647 0.0003569097125246393 -0.02018863312401887 0.02760402531173143 -0.0021565678418769135 0.009102427411227102 0.014397237733185134 0.00291901673136781 -0.000287506233178077 -0.013056373633279533 -0.009592509794143899 0.011275705446393496 -0.006856088700008627 -0.0004016697244831304 -0.008559312110732745 -0.0041171147494117495 -0.010122992536276257 0.011861408526680915 -0.010814130564353142
分居|-0.009108514980215296 -0.005520029036502647 0.0003569097125246393 -0.02018863312401887 0.02760402531173143 -0.0021565678418769135 0.009102427411227104 0.014397237733185134 0.00291901673136781 -0.000287506233178077 -0.013056373633279533 -0.009592509794143899 0.011275705446393496 -0.006856088700008627 -0.0004016697244831304 -0.008559312110732749 -0.0041171147494117495 -0.01012299253627626 0.011861408526680915 -0.010814130564353142
退票费|-0.009108514980215292 -0.005520029036502647 0.0003569097125246393 -0.02018863312401887 0.02760402531173143 -0.0021565678418769135 0.009102427411227104 0.014397237733185131 0.002919016731367811 -0.000287506233178077 -0.013056373633279533 -0.009592509794143899 0.011275705446393496 -0.006856088700008627 -0.0004016697244831304 -0.008559312110732749 -0.0041171147494117495 -0.01012299253627626 0.011861408526680915 -0.010814130564353142
免费|-0.009108514980215292 -0.005520029036502647 0.0003569097125246393 -0.02018863312401887 0.02760402531173143 -0.0021565678418769135 0.009102427411227104 0.014397237733185131 0.002919016731367811 -0.000287506233178077 -0.013056373633279533 -0.009592509794143899 0.011275705446393496 -0.006856088700008627 -0.0004016697244831304 -0.008559312110732749 -0.0041171147494117495 -0.01012299253627626 0.011861408526680915 -0.010814130564353142
退票|-0.009108514980215296 -0.005520029036502647 0.00035690971252463926 -0.020188633124018866 0.02760402531173143 -0.0021565678418769135 0.009102427411227104 0.014397237733185131 0.002919016731367811 -0.0002875062331780769 -0.013056373633279533 -0.009592509794143899 0.011275705446393496 -0.006856088700008627 -0.0004016697244831304 -0.008559312110732749 -0.0041171147494117495 -0.01012299253627626 0.011861408526680915 -0.010814130564353142
持|-0.009108514980215292 -0.005520029036502647 0.0003569097125246392 -0.020188633124018862 0.02760402531173143 -0.0021565678418769135 0.009102427411227104 0.014397237733185131 0.00291901673136781 -0.00028750623317807687 -0.013056373633279533 -0.009592509794143899 0.011275705446393496 -0.006856088700008627 -0.0004016697244831304 -0.008559312110732749 -0.0041171147494117495 -0.010122992536276257 0.011861408526680915 -0.010814130564353142
要|-0.009108514980215292 -0.005520029036502647 0.0003569097125246392 -0.020188633124018862 0.02760402531173143 -0.0021565678418769135 0.009102427411227104 0.014397237733185134 0.00291901673136781 -0.00028750623317807687 -0.013056373633279533 -0.009592509794143899 0.011275705446393496 -0.006856088700008627 -0.0004016697244831304 -0.008559312110732745 -0.0041171147494117495 -0.010122992536276257 0.011861408526680915 -0.010814130564353142
普通|-0.009108514980215296 -0.005520029036502647 0.0003569097125246392 -0.020188633124018862 0.02760402531173143 -0.0021565678418769135 0.009102427411227104 0.014397237733185131 0.002919016731367811 -0.00028750623317807687 -0.013056373633279533 -0.009592509794143899 0.011275705446393496 -0.006856088700008627 -0.0004016697244831304 -0.008559312110732745 -0.0041171147494117495 -0.01012299253627626 0.011861408526680915 -0.010814130564353142
押运|-0.009108514980215292 -0.005520029036502647 0.0003569097125246392 -0.020188633124018862 0.02760402531173143 -0.0021565678418769135 0.009102427411227104 0.014397237733185134 0.00291901673136781 -0.00028750623317807687 -0.013056373633279533 -0.009592509794143899 0.011275705446393496 -0.006856088700008627 -0.0004016697244831304 -0.008559312110732749 -0.0041171147494117495 -0.010122992536276257 0.011861408526680915 -0.01081413056435314
候车室|-0.009108514980215296 -0.005520029036502647 0.0003569097125246392 -0.020188633124018862 0.02760402531173143 -0.0021565678418769135 0.009102427411227104 0.014397237733185131 0.002919016731367811 -0.00028750623317807687 -0.013056373633279533 -0.009592509794143899 0.011275705446393496 -0.006856088700008627 -0.0004016697244831304 -0.008559312110732749 -0.0041171147494117495 -0.01012299253627626 0.011861408526680915 -0.010814130564353139
到|-0.009108514980215296 -0.005520029036502647 0.0003569097125246392 -0.020188633124018862 0.02760402531173143 -0.0021565678418769135 0.009102427411227104 0.014397237733185131 0.002919016731367811 -0.00028750623317807687 -0.013056373633279533 -0.009592509794143899 0.011275705446393496 -0.006856088700008627 -0.0004016697244831304 -0.008559312110732749 -0.0041171147494117495 -0.01012299253627626 0.011861408526680915 -0.010814130564353139
注意|-0.009108514980215296 -0.005520029036502647 0.0003569097125246392 -0.020188633124018862 0.02760402531173143 -0.0021565678418769135 0.009102427411227104 0.014397237733185134 0.002919016731367811 -0.00028750623317807687 -0.013056373633279533 -0.009592509794143899 0.011275705446393496 -0.006856088700008627 -0.0004016697244831304 -0.008559312110732749 -0.0041171147494117495 -0.01012299253627626 0.011861408526680915 -0.010814130564353139
迁移|-0.009108514980215292 -0.005520029036502647 0.0003569097125246392 -0.020188633124018866 0.02760402531173143 -0.0021565678418769135 0.009102427411227104 0.014397237733185131 0.002919016731367811 -0.00028750623317807687 -0.013056373633279533 -0.009592509794143899 0.011275705446393496 -0.006856088700008627 -0.0004016697244831304 -0.008559312110732745 -0.004117114749411749 -0.01012299253627626 0.011861408526680915 -0.010814130564353142
提供|-0.009108514980215296 -0.005520029036502647 0.0003569097125246392 -0.020188633124018862 0.02760402531173143 -0.0021565678418769135 0.009102427411227106 0.014397237733185134 0.00291901673136781 -0.00028750623317807687 -0.013056373633279533 -0.009592509794143899 0.011275705446393496 -0.006856088700008627 -0.0004016697244831304 -0.008559312110732749 -0.0041171147494117495 -0.01012299253627626 0.011861408526680915 -0.010814130564353139
售票机|-0.009108514980215296 -0.005520029036502647 0.0003569097125246392 -0.02018863312401887 0.02760402531173143 -0.0021565678418769135 0.009102427411227108 0.014397237733185134 0.00291901673136781 -0.00028750623317807687 -0.013056373633279533 -0.009592509794143899 0.011275705446393496 -0.006856088700008627 -0.0004016697244831304 -0.008559312110732745 -0.004117114749411748 -0.010122992536276257 0.011861408526680915 -0.010814130564353142
学生证|-0.009108514980215292 -0.005520029036502647 0.0003569097125246392 -0.02018863312401887 0.02760402531173143 -0.0021565678418769135 0.009102427411227108 0.014397237733185134 0.00291901673136781 -0.00028750623317807687 -0.013056373633279533 -0.009592509794143899 0.011275705446393497 -0.006856088700008627 -0.0004016697244831304 -0.008559312110732745 -0.004117114749411748 -0.010122992536276257 0.011861408526680915 -0.010814130564353142
网站|-0.009108514980215296 -0.005520029036502647 0.0003569097125246392 -0.020188633124018862 0.02760402531173143 -0.0021565678418769135 0.009102427411227108 0.014397237733185131 0.002919016731367811 -0.00028750623317807687 -0.013056373633279533 -0.009592509794143899 0.011275705446393496 -0.006856088700008627 -0.0004016697244831304 -0.008559312110732749 -0.0041171147494117495 -0.01012299253627626 0.011861408526680915 -0.010814130564353139
软席|-0.009108514980215296 -0.005520029036502647 0.0003569097125246392 -0.020188633124018862 0.02760402531173143 -0.0021565678418769135 0.009102427411227108 0.014397237733185131 0.002919016731367811 -0.00028750623317807687 -0.013056373633279533 -0.009592509794143899 0.011275705446393496 -0.006856088700008627 -0.00040166972448313045 -0.008559312110732749 -0.0041171147494117495 -0.01012299253627626 0.011861408526680915 -0.010814130564353139
港|-0.009108514980215296 -0.005520029036502647 0.0003569097125246392 -0.020188633124018862 0.02760402531173143 -0.002156567841876914 0.009102427411227108 0.014397237733185134 0.00291901673136781 -0.00028750623317807687 -0.013056373633279533 -0.009592509794143899 0.011275705446393496 -0.006856088700008627 -0.0004016697244831305 -0.008559312110732749 -0.0041171147494117495 -0.01012299253627626 0.011861408526680915 -0.010814130564353139
号|-0.009108514980215296 -0.005520029036502647 0.0003569097125246392 -0.020188633124018862 0.02760402531173143 -0.0021565678418769144 0.009102427411227108 0.014397237733185131 0.002919016731367811 -0.00028750623317807687 -0.013056373633279533 -0.009592509794143899 0.011275705446393496 -0.006856088700008627 -0.0004016697244831305 -0.008559312110732749 -0.0041171147494117495 -0.01012299253627626 0.011861408526680915 -0.010814130564353139
广深铁路|-0.009108514980215296 -0.005520029036502647 0.0003569097125246392 -0.020188633124018862 0.02760402531173143 -0.0021565678418769144 0.009102427411227108 0.014397237733185131 0.002919016731367811 -0.00028750623317807687 -0.013056373633279533 -0.009592509794143899 0.011275705446393496 -0.006856088700008627 -0.0004016697244831304 -0.008559312110732749 -0.0041171147494117495 -0.010122992536276257 0.011861408526680915 -0.010814130564353139
信用卡|-0.009108514980215296 -0.0055200290365026465 0.0003569097125246392 -0.020188633124018862 0.02760402531173143 -0.0021565678418769144 0.009102427411227108 0.014397237733185131 0.002919016731367811 -0.00028750623317807687 -0.013056373633279533 -0.009592509794143899 0.011275705446393496 -0.006856088700008627 -0.0004016697244831304 -0.008559312110732749 -0.0041171147494117495 -0.010122992536276257 0.011861408526680915 -0.010814130564353139
要求|-0.009108514980215296 -0.005520029036502646 0.0003569097125246392 -0.020188633124018862 0.02760402531173143 -0.0021565678418769144 0.009102427411227108 0.014397237733185134 0.00291901673136781 -0.00028750623317807687 -0.013056373633279533 -0.009592509794143899 0.011275705446393496 -0.006856088700008627 -0.0004016697244831305 -0.008559312110732745 -0.0041171147494117495 -0.01012299253627626 0.011861408526680915 -0.010814130564353139
符合|-0.009108514980215292 -0.005520029036502646 0.0003569097125246392 -0.02018863312401887 0.027604025311731433 -0.0021565678418769144 0.009102427411227108 0.014397237733185134 0.00291901673136781 -0.00028750623317807687 -0.013056373633279533 -0.009592509794143899 0.011275705446393499 -0.006856088700008627 -0.0004016697244831304 -0.008559312110732745 -0.004117114749411748 -0.010122992536276257 0.011861408526680915 -0.010814130564353142
座位|-0.009108514980215292 -0.005520029036502646 0.00035690971252463926 -0.02018863312401887 0.027604025311731437 -0.0021565678418769144 0.009102427411227106 0.014397237733185134 0.00291901673136781 -0.00028750623317807687 -0.013056373633279533 -0.009592509794143897 0.011275705446393499 -0.006856088700008627 -0.0004016697244831304 -0.008559312110732745 -0.004117114749411748 -0.010122992536276257 0.011861408526680915 -0.010814130564353142
托运|-0.009108514980215294 -0.005520029036502646 0.0003569097125246392 -0.02018863312401887 0.02760402531173143 -0.0021565678418769144 0.009102427411227108 0.014397237733185131 0.00291901673136781 -0.00028750623317807687 -0.013056373633279533 -0.009592509794143899 0.011275705446393496 -0.006856088700008627 -0.0004016697244831305 -0.008559312110732749 -0.0041171147494117495 -0.010122992536276259 0.011861408526680915 -0.010814130564353142
条件|-0.009108514980215294 -0.005520029036502646 0.0003569097125246392 -0.020188633124018862 0.02760402531173143 -0.0021565678418769144 0.009102427411227108 0.014397237733185131 0.00291901673136781 -0.00028750623317807687 -0.013056373633279533 -0.009592509794143899 0.011275705446393496 -0.006856088700008627 -0.0004016697244831305 -0.008559312110732749 -0.0041171147494117495 -0.01012299253627626 0.011861408526680915 -0.010814130564353142
使|-0.009108514980215296 -0.005520029036502646 0.0003569097125246392 -0.02018863312401887 0.02760402531173143 -0.0021565678418769144 0.009102427411227104 0.014397237733185134 0.00291901673136781 -0.00028750623317807687 -0.013056373633279533 -0.009592509794143896 0.011275705446393496 -0.006856088700008627 -0.0004016697244831305 -0.008559312110732745 -0.0041171147494117495 -0.010122992536276257 0.011861408526680915 -0.010814130564353139
空调|-0.009108514980215292 -0.005520029036502646 0.0003569097125246392 -0.020188633124018862 0.02760402531173143 -0.0021565678418769144 0.009102427411227108 0.014397237733185131 0.002919016731367811 -0.00028750623317807687 -0.013056373633279533 -0.009592509794143899 0.011275705446393496 -0.006856088700008627 -0.0004016697244831305 -0.008559312110732749 -0.004117114749411749 -0.01012299253627626 0.011861408526680915 -0.010814130564353139
专|-0.009108514980215298 -0.005520029036502646 0.0003569097125246392 -0.02018863312401887 0.027604025311731437 -0.0021565678418769144 0.009102427411227104 0.014397237733185134 0.00291901673136781 -0.00028750623317807687 -0.013056373633279533 -0.009592509794143896 0.011275705446393499 -0.006856088700008627 -0.0004016697244831305 -0.008559312110732745 -0.0041171147494117495 -0.010122992536276257 0.011861408526680915 -0.010814130564353142
损失|-0.009108514980215292 -0.0055200290365026465 0.0003569097125246393 -0.02018863312401887 0.027604025311731437 -0.0021565678418769144 0.009102427411227104 0.014397237733185134 0.00291901673136781 -0.00028750623317807687 -0.013056373633279533 -0.009592509794143896 0.011275705446393499 -0.006856088700008627 -0.0004016697244831304 -0.008559312110732745 -0.004117114749411748 -0.010122992536276257 0.011861408526680915 -0.010814130564353142
哪些|-0.009108514980215292 -0.005520029036502646 0.0003569097125246392 -0.020188633124018862 0.02760402531173143 -0.0021565678418769144 0.009102427411227108 0.014397237733185131 0.002919016731367811 -0.00028750623317807687 -0.013056373633279533 -0.009592509794143899 0.011275705446393496 -0.006856088700008627 -0.0004016697244831305 -0.008559312110732749 -0.0041171147494117495 -0.01012299253627626 0.011861408526680915 -0.010814130564353139
开车|-0.009108514980215296 -0.005520029036502646 0.0003569097125246392 -0.020188633124018862 0.02760402531173143 -0.0021565678418769144 0.009102427411227108 0.014397237733185131 0.002919016731367811 -0.00028750623317807687 -0.013056373633279533 -0.009592509794143899 0.011275705446393496 -0.006856088700008627 -0.0004016697244831305 -0.008559312110732749 -0.0041171147494117495 -0.01012299253627626 0.011861408526680915 -0.010814130564353139
伤害|-0.009108514980215292 -0.005520029036502646 0.0003569097125246393 -0.02018863312401887 0.027604025311731437 -0.0021565678418769144 0.009102427411227104 0.01439723773318513 0.002919016731367811 -0.00028750623317807687 -0.013056373633279533 -0.009592509794143899 0.011275705446393499 -0.006856088700008628 -0.0004016697244831304 -0.008559312110732745 -0.004117114749411748 -0.01012299253627626 0.011861408526680915 -0.010814130564353142
继续|-0.0091085149802153 -0.005520029036502646 0.0003569097125246392 -0.020188633124018862 0.02760402531173143 -0.0021565678418769144 0.009102427411227108 0.014397237733185134 0.00291901673136781 -0.0002875062331780769 -0.013056373633279533 -0.009592509794143899 0.011275705446393496 -0.006856088700008629 -0.0004016697244831304 -0.008559312110732749 -0.0041171147494117495 -0.01012299253627626 0.011861408526680915 -0.010814130564353139
逾期|-0.0091085149802153 -0.005520029036502646 0.0003569097125246392 -0.020188633124018862 0.02760402531173143 -0.0021565678418769144 0.009102427411227108 0.014397237733185134 0.00291901673136781 -0.000287506233178077 -0.01305637363327953 -0.009592509794143899 0.011275705446393496 -0.006856088700008629 -0.0004016697244831304 -0.008559312110732749 -0.0041171147494117495 -0.01012299253627626 0.011861408526680915 -0.010814130564353139
计算|-0.009108514980215292 -0.005520029036502647 0.0003569097125246393 -0.02018863312401887 0.027604025311731437 -0.0021565678418769144 0.009102427411227104 0.014397237733185131 0.00291901673136781 -0.00028750623317807687 -0.013056373633279533 -0.009592509794143896 0.011275705446393499 -0.006856088700008627 -0.0004016697244831305 -0.008559312110732745 -0.004117114749411748 -0.010122992536276257 0.011861408526680915 -0.010814130564353142
轮椅|-0.0091085149802153 -0.005520029036502647 0.0003569097125246392 -0.02018863312401887 0.02760402531173143 -0.002156567841876914 0.009102427411227104 0.014397237733185134 0.0029190167313678096 -0.000287506233178077 -0.013056373633279533 -0.009592509794143896 0.011275705446393496 -0.006856088700008627 -0.0004016697244831305 -0.008559312110732745 -0.0041171147494117495 -0.010122992536276257 0.011861408526680913 -0.010814130564353139
下|-0.009108514980215292 -0.005520029036502647 0.0003569097125246392 -0.020188633124018862 0.02760402531173143 -0.0021565678418769135 0.009102427411227108 0.014397237733185134 0.002919016731367809 -0.000287506233178077 -0.013056373633279529 -0.009592509794143896 0.011275705446393496 -0.006856088700008627 -0.0004016697244831305 -0.008559312110732749 -0.0041171147494117495 -0.010122992536276257 0.011861408526680911 -0.010814130564353142
多少|-0.009108514980215296 -0.005520029036502646 0.0003569097125246392 -0.020188633124018862 0.02760402531173143 -0.0021565678418769144 0.009102427411227108 0.014397237733185127 0.002919016731367811 -0.00028750623317807687 -0.013056373633279533 -0.009592509794143899 0.011275705446393496 -0.006856088700008629 -0.0004016697244831305 -0.008559312110732749 -0.0041171147494117495 -0.01012299253627626 0.011861408526680915 -0.010814130564353139
票面|-0.0091085149802153 -0.005520029036502647 0.0003569097125246392 -0.02018863312401887 0.027604025311731437 -0.0021565678418769135 0.009102427411227104 0.014397237733185134 0.002919016731367809 -0.000287506233178077 -0.013056373633279533 -0.009592509794143896 0.011275705446393496 -0.006856088700008627 -0.0004016697244831305 -0.008559312110732745 -0.0041171147494117495 -0.010122992536276257 0.011861408526680913 -0.010814130564353142
退款|-0.0091085149802153 -0.005520029036502646 0.0003569097125246392 -0.020188633124018862 0.02760402531173143 -0.0021565678418769144 0.009102427411227108 0.014397237733185131 0.002919016731367811 -0.00028750623317807687 -0.013056373633279529 -0.009592509794143899 0.011275705446393496 -0.006856088700008629 -0.0004016697244831304 -0.008559312110732749 -0.0041171147494117495 -0.01012299253627626 0.011861408526680911 -0.010814130564353139
吗|-0.0091085149802153 -0.005520029036502646 0.0003569097125246392 -0.020188633124018862 0.02760402531173143 -0.0021565678418769144 0.009102427411227108 0.014397237733185127 0.002919016731367811 -0.00028750623317807687 -0.013056373633279529 -0.009592509794143899 0.011275705446393496 -0.006856088700008629 -0.0004016697244831305 -0.008559312110732749 -0.0041171147494117495 -0.01012299253627626 0.011861408526680915 -0.010814130564353139
没有|-0.0091085149802153 -0.005520029036502646 0.0003569097125246392 -0.020188633124018862 0.02760402531173143 -0.0021565678418769144 0.009102427411227108 0.014397237733185133 0.00291901673136781 -0.00028750623317807687 -0.013056373633279533 -0.009592509794143899 0.011275705446393496 -0.006856088700008629 -0.0004016697244831305 -0.008559312110732745 -0.0041171147494117495 -0.010122992536276257 0.011861408526680915 -0.010814130564353139
后|-0.0091085149802153 -0.005520029036502646 0.0003569097125246392 -0.020188633124018862 0.02760402531173143 -0.0021565678418769144 0.009102427411227108 0.014397237733185127 0.002919016731367811 -0.00028750623317807687 -0.013056373633279533 -0.009592509794143899 0.011275705446393496 -0.006856088700008629 -0.0004016697244831305 -0.008559312110732749 -0.0041171147494117495 -0.01012299253627626 0.011861408526680915 -0.010814130564353139
座|-0.0091085149802153 -0.005520029036502646 0.0003569097125246392 -0.020188633124018862 0.02760402531173143 -0.0021565678418769144 0.009102427411227108 0.014397237733185134 0.0029190167313678105 -0.000287506233178077 -0.013056373633279529 -0.0095925097941439 0.011275705446393496 -0.006856088700008629 -0.0004016697244831305 -0.008559312110732749 -0.0041171147494117495 -0.01012299253627626 0.011861408526680911 -0.010814130564353139
考虑|-0.009108514980215292 -0.005520029036502647 0.0003569097125246393 -0.02018863312401887 0.027604025311731437 -0.0021565678418769135 0.009102427411227104 0.014397237733185134 0.00291901673136781 -0.00028750623317807687 -0.013056373633279533 -0.009592509794143896 0.011275705446393499 -0.006856088700008627 -0.0004016697244831305 -0.008559312110732745 -0.004117114749411748 -0.010122992536276257 0.011861408526680916 -0.010814130564353142
标准|-0.009108514980215296 -0.005520029036502646 0.0003569097125246392 -0.020188633124018862 0.02760402531173143 -0.0021565678418769144 0.009102427411227108 0.014397237733185127 0.002919016731367811 -0.00028750623317807687 -0.013056373633279533 -0.009592509794143902 0.011275705446393496 -0.006856088700008629 -0.0004016697244831305 -0.008559312110732749 -0.0041171147494117495 -0.01012299253627626 0.011861408526680915 -0.010814130564353139
遗失|-0.009108514980215296 -0.005520029036502646 0.0003569097125246392 -0.020188633124018862 0.02760402531173143 -0.0021565678418769144 0.009102427411227108 0.014397237733185127 0.002919016731367811 -0.00028750623317807687 -0.013056373633279533 -0.009592509794143902 0.011275705446393496 -0.006856088700008629 -0.0004016697244831305 -0.008559312110732749 -0.0041171147494117495 -0.01012299253627626 0.011861408526680915 -0.010814130564353139
上车|-0.009108514980215292 -0.005520029036502647 0.0003569097125246393 -0.02018863312401887 0.027604025311731437 -0.0021565678418769135 0.009102427411227104 0.014397237733185134 0.002919016731367809 -0.00028750623317807687 -0.013056373633279533 -0.009592509794143896 0.011275705446393499 -0.006856088700008627 -0.0004016697244831304 -0.008559312110732745 -0.004117114749411748 -0.010122992536276257 0.011861408526680918 -0.010814130564353142
我该|-0.009108514980215292 -0.005520029036502647 0.0003569097125246393 -0.020188633124018873 0.027604025311731437 -0.0021565678418769135 0.009102427411227104 0.014397237733185134 0.002919016731367809 -0.00028750623317807687 -0.013056373633279534 -0.009592509794143896 0.011275705446393499 -0.006856088700008626 -0.0004016697244831304 -0.008559312110732745 -0.004117114749411748 -0.010122992536276257 0.011861408526680918 -0.010814130564353142
因|-0.0091085149802153 -0.005520029036502647 0.0003569097125246392 -0.020188633124018876 0.027604025311731437 -0.0021565678418769135 0.009102427411227104 0.014397237733185134 0.002919016731367809 -0.000287506233178077 -0.013056373633279536 -0.009592509794143896 0.011275705446393499 -0.0068560887000086255 -0.0004016697244831305 -0.008559312110732745 -0.0041171147494117495 -0.010122992536276257 0.011861408526680915 -0.010814130564353144
常见|-0.009108514980215298 -0.005520029036502647 0.0003569097125246392 -0.020188633124018876 0.02760402531173143 -0.0021565678418769135 0.009102427411227104 0.014397237733185134 0.002919016731367809 -0.000287506233178077 -0.01305637363327953 -0.009592509794143896 0.011275705446393496 -0.0068560887000086255 -0.0004016697244831305 -0.008559312110732745 -0.0041171147494117495 -0.010122992536276257 0.011861408526680911 -0.010814130564353139
吸烟|-0.0091085149802153 -0.005520029036502646 0.0003569097125246392 -0.020188633124018862 0.02760402531173143 -0.0021565678418769144 0.009102427411227108 0.014397237733185127 0.002919016731367811 -0.000287506233178077 -0.013056373633279529 -0.009592509794143902 0.011275705446393496 -0.006856088700008629 -0.0004016697244831305 -0.008559312110732749 -0.0041171147494117495 -0.01012299253627626 0.011861408526680911 -0.010814130564353139
进疆|-0.009108514980215296 -0.005520029036502646 0.0003569097125246392 -0.020188633124018862 0.02760402531173143 -0.0021565678418769144 0.009102427411227108 0.014397237733185127 0.002919016731367811 -0.00028750623317807687 -0.013056373633279533 -0.009592509794143902 0.011275705446393496 -0.006856088700008629 -0.0004016697244831305 -0.008559312110732749 -0.0041171147494117495 -0.01012299253627626 0.011861408526680915 -0.010814130564353139
进行|-0.009108514980215296 -0.005520029036502646 0.0003569097125246392 -0.020188633124018862 0.02760402531173143 -0.0021565678418769144 0.009102427411227108 0.014397237733185127 0.002919016731367811 -0.00028750623317807687 -0.013056373633279533 -0.009592509794143902 0.011275705446393496 -0.006856088700008629 -0.0004016697244831305 -0.008559312110732749 -0.0041171147494117495 -0.01012299253627626 0.011861408526680915 -0.010814130564353139
银|-0.009108514980215292 -0.005520029036502646 0.0003569097125246392 -0.020188633124018862 0.02760402531173143 -0.0021565678418769144 0.009102427411227108 0.014397237733185134 0.002919016731367809 -0.000287506233178077 -0.013056373633279529 -0.009592509794143902 0.011275705446393496 -0.006856088700008629 -0.0004016697244831305 -0.008559312110732749 -0.0041171147494117495 -0.010122992536276257 0.011861408526680911 -0.010814130564353146
发生|-0.009108514980215292 -0.005520029036502646 0.0003569097125246392 -0.020188633124018862 0.02760402531173143 -0.0021565678418769144 0.009102427411227108 0.014397237733185127 0.002919016731367811 -0.00028750623317807687 -0.013056373633279533 -0.009592509794143902 0.011275705446393496 -0.006856088700008629 -0.0004016697244831305 -0.008559312110732749 -0.004117114749411748 -0.01012299253627626 0.011861408526680915 -0.010814130564353139
”|-0.009108514980215292 -0.005520029036502646 0.0003569097125246392 -0.020188633124018862 0.02760402531173143 -0.0021565678418769135 0.009102427411227108 0.014397237733185131 0.00291901673136781 -0.00028750623317807687 -0.013056373633279533 -0.009592509794143899 0.011275705446393496 -0.006856088700008629 -0.0004016697244831305 -0.008559312110732749 -0.0041171147494117495 -0.010122992536276259 0.011861408526680915 -0.010814130564353142
重量|-0.009108514980215296 -0.005520029036502646 0.0003569097125246392 -0.020188633124018862 0.02760402531173143 -0.0021565678418769144 0.009102427411227108 0.014397237733185127 0.002919016731367811 -0.00028750623317807687 -0.013056373633279529 -0.009592509794143902 0.011275705446393496 -0.006856088700008629 -0.0004016697244831305 -0.008559312110732749 -0.0041171147494117495 -0.01012299253627626 0.011861408526680915 -0.010814130564353139
.|-0.009108514980215296 -0.005520029036502646 0.0003569097125246392 -0.020188633124018862 0.02760402531173143 -0.0021565678418769144 0.009102427411227108 0.014397237733185127 0.002919016731367811 -0.00028750623317807687 -0.013056373633279533 -0.009592509794143902 0.011275705446393496 -0.006856088700008629 -0.0004016697244831304 -0.008559312110732749 -0.0041171147494117495 -0.01012299253627626 0.011861408526680915 -0.010814130564353139
残疾人|-0.009108514980215296 -0.005520029036502647 0.0003569097125246393 -0.020188633124018876 0.027604025311731437 -0.0021565678418769135 0.009102427411227104 0.014397237733185134 0.00291901673136781 -0.00028750623317807687 -0.013056373633279536 -0.009592509794143896 0.011275705446393499 -0.0068560887000086255 -0.0004016697244831305 -0.008559312110732745 -0.004117114749411748 -0.010122992536276257 0.011861408526680918 -0.010814130564353146
使用|-0.009108514980215296 -0.005520029036502646 0.0003569097125246393 -0.020188633124018862 0.02760402531173143 -0.0021565678418769144 0.009102427411227108 0.014397237733185131 0.002919016731367811 -0.00028750623317807687 -0.013056373633279533 -0.009592509794143899 0.011275705446393496 -0.006856088700008629 -0.0004016697244831304 -0.008559312110732749 -0.0041171147494117495 -0.01012299253627626 0.011861408526680915 -0.010814130564353139
实行|-0.0091085149802153 -0.005520029036502646 0.0003569097125246393 -0.020188633124018862 0.02760402531173143 -0.0021565678418769144 0.009102427411227108 0.014397237733185127 0.002919016731367811 -0.00028750623317807687 -0.013056373633279529 -0.009592509794143902 0.011275705446393496 -0.006856088700008629 -0.0004016697244831304 -0.00855931211073275 -0.0041171147494117495 -0.010122992536276257 0.011861408526680911 -0.010814130564353139
规定|-0.009108514980215296 -0.005520029036502647 0.0003569097125246392 -0.02018863312401887 0.027604025311731437 -0.0021565678418769135 0.009102427411227104 0.014397237733185131 0.002919016731367811 -0.00028750623317807687 -0.013056373633279533 -0.009592509794143899 0.011275705446393499 -0.006856088700008627 -0.0004016697244831305 -0.008559312110732747 -0.004117114749411748 -0.01012299253627626 0.011861408526680915 -0.010814130564353142
学生票|-0.0091085149802153 -0.005520029036502646 0.0003569097125246392 -0.020188633124018862 0.02760402531173143 -0.0021565678418769144 0.009102427411227108 0.014397237733185134 0.002919016731367809 -0.000287506233178077 -0.013056373633279529 -0.009592509794143902 0.011275705446393496 -0.006856088700008629 -0.0004016697244831305 -0.008559312110732749 -0.0041171147494117495 -0.01012299253627626 0.011861408526680911 -0.010814130564353139
台|-0.0091085149802153 -0.005520029036502646 0.0003569097125246392 -0.020188633124018862 0.02760402531173143 -0.0021565678418769144 0.009102427411227108 0.014397237733185134 0.002919016731367811 -0.000287506233178077 -0.013056373633279529 -0.009592509794143902 0.011275705446393496 -0.006856088700008629 -0.0004016697244831304 -0.008559312110732752 -0.0041171147494117495 -0.01012299253627626 0.011861408526680911 -0.010814130564353139
对|-0.009108514980215292 -0.005520029036502646 0.0003569097125246392 -0.020188633124018866 0.027604025311731433 -0.0021565678418769144 0.009102427411227108 0.014397237733185127 0.002919016731367811 -0.00028750623317807687 -0.013056373633279533 -0.009592509794143899 0.011275705446393496 -0.006856088700008629 -0.0004016697244831304 -0.008559312110732749 -0.004117114749411748 -0.01012299253627626 0.011861408526680915 -0.010814130564353139
